-0.024441	0.014133	-0.012909	-0.003472	-0.030267	-0.044288	-0.023594	-0.011463	-0.000466	-0.046637	0.003369	0.012906	0.033949	-0.048876	-0.000463	-0.006846	-0.009288	-0.003087	-0.032128	0.013401	-0.008471	-0.002593	0.030350	0.029750	0.003336	-0.002080	-0.032973	0.007962	-0.027343	-0.026772	0.011467	0.012322	0.017380	-0.008499	0.014431	0.005137	-0.002426	0.002132	-0.013731	0.004637	0.008499	0.018236	-0.026488	0.024939	0.013157	-0.019243	0.021040	-0.004241	0.006890	0.027385	0.024263	-0.003444	-0.009686	0.014440	0.031820	0.001751	0.000819	-0.020831	0.041755	-0.028740	0.018129	-0.010594	0.015347	0.009433	0.007218	0.015452	0.042993	0.006851	-0.028864	0.017310	-0.013299	0.015610	-0.010199	-0.032595	0.008660	0.017616	-0.003635	0.019704	0.019853	0.014486	0.033908	0.012198	-0.020012	-0.016087	0.035571	0.014389	-0.005566	-0.010195	0.025707	0.010098	0.033133	-0.041754	-0.024179	0.013119	-0.021769	0.012568	-0.018437	-0.015561	-0.028209	0.027433	-0.017267	-0.014165	-0.006738	0.015877	-0.001583	-0.032399	-0.030074	-0.011274	-0.003757	0.031991	0.018302	-0.000110	-0.009111	0.022335	0.005376	-0.020866	0.005289	0.026231	-0.019586	0.000369	0.021727	-0.009072	-0.005013	-0.027376	-0.011701	-0.016630	-0.023272	-0.014867
0.035011	0.006837	-0.027738	-0.055680	0.252970	0.031820	-0.114025	0.146194	-0.081499	0.005315	0.144740	-0.106277	0.095413	0.040049	0.244988	0.021374	-0.119417	0.145495	-0.147545	-0.035451	-0.168568	0.016811	0.084173	-0.077481	-0.022222	-0.168444	0.188744	0.179592	0.092828	0.243890	0.114974	-0.221724	-0.071881	-0.236445	-0.050526	-0.041057	-0.169638	0.085123	0.026134	0.144805	-0.267356	-0.060739	0.029512	-0.083712	-0.090229	0.018065	-0.210386	-0.065876	0.063523	0.072245	0.116523	0.164930	0.021974	0.012041	-0.179225	0.115973	0.188110	0.092228	-0.018118	-0.035036	0.088658	-0.018074	-0.011931	0.007510	0.018723	0.238294	-0.155892	-0.182127	0.249505	-0.109501	0.147631	-0.186899	0.009746	0.082947	-0.067498	-0.052325	0.135584	-0.150143	-0.005111	0.036942	0.119802	-0.131879	-0.014993	0.111111	0.045174	-0.087406	0.036141	-0.062421	-0.147871	0.178498	-0.107319	-0.127480	0.019956	0.098186	-0.136384	0.112709	-0.031748	0.060093	-0.075272	-0.129955	-0.004224	0.063180	-0.240983	0.077730	-0.018724	0.071117	-0.021813	-0.089866	-0.086080	-0.180442	-0.027044	0.004987	0.130514	-0.062158	0.093922	0.018164	-0.102030	-0.094967	-0.083090	-0.183389	-0.232328	0.056245	0.102868	-0.038356	0.084650	-0.014238	0.100048	0.233979
-0.073514	0.203515	-0.014104	0.043069	0.050226	-0.045773	0.038279	-0.057428	-0.162290	-0.036282	0.156207	0.184821	-0.182461	0.178088	-0.182550	0.039591	0.235017	-0.113501	0.057692	-0.003691	0.129649	-0.006042	-0.054158	-0.141183	-0.244622	-0.042112	0.139281	0.263514	0.096258	0.004570	0.013319	-0.084033	0.176663	-0.023450	0.142466	0.070218	0.115206	-0.014769	0.118358	0.014905	-0.011170	0.056856	-0.112466	-0.142230	-0.057444	0.039707	0.009232	0.040793	-0.124816	-0.091909	0.057652	-0.059498	0.111727	0.006140	-0.147321	-0.156995	-0.212546	0.129332	0.012870	-0.033410	-0.245028	-0.024637	-0.181646	-0.079809	0.136463	0.083692	0.038922	0.002575	0.290796	-0.328342	-0.157795	0.036332	-0.033016	0.321809	-0.102571	-0.218140	0.263703	0.035228	-0.245368	-0.141898	0.094809	-0.096335	0.191580	0.021240	-0.209885	0.135504	-0.155207	0.179571	0.048599	0.011867	0.047843	0.134651	0.102841	-0.113121	-0.105193	0.131163	-0.034072	0.222478	-0.051764	-0.226228	-0.030934	-0.039239	0.016777	0.016053	0.066057	0.121546	0.077371	-0.002387	0.021297	-0.005580	-0.041078	0.131695	-0.057467	0.175404	-0.103855	0.122660	0.182123	-0.014958	-0.032812	0.074022	-0.002058	-0.112280	-0.212530	-0.133915	0.083096	0.047508	0.039916	-0.191994
-0.058028	0.162991	-0.044133	0.193463	0.203781	0.094502	0.033914	-0.092194	-0.160382	0.010445	0.007458	-0.070997	0.156956	0.038746	-0.009542	0.046445	0.128448	-0.040413	-0.007404	-0.143123	-0.091401	-0.059097	-0.273563	-0.036671	-0.042491	0.096702	-0.027013	-0.099696	0.030563	0.060652	0.084343	-0.227417	-0.069031	-0.236465	-0.031287	0.043402	-0.096729	-0.202672	-0.081861	-0.113286	-0.005316	0.149108	-0.018155	0.102837	0.284235	-0.120176	0.011342	0.179757	0.286585	-0.054358	-0.071640	-0.070051	-0.278101	-0.124860	0.038247	0.063996	0.109222	0.122894	-0.000226	-0.142407	0.241778	-0.118234	0.044106	0.023878	0.031161	0.178485	-0.076451	0.092440	-0.008952	-0.073380	-0.165249	-0.226246	-0.063014	0.001493	-0.010174	-0.054355	-0.063699	0.041961	-0.066099	-0.101691	-0.255351	0.125842	-0.067220	-0.268504	-0.173613	0.017376	-0.138431	0.138164	0.024455	-0.114883	-0.118018	0.349482	0.117686	0.038001	-0.132588	0.007703	0.176480	0.118043	0.330744	0.038134	0.105162	-0.209197	-0.081276	0.101839	0.171651	-0.151807	0.069895	0.018291	-0.032937	-0.083522	0.132160	0.102342	-0.115860	-0.079636	-0.043282	0.054340	-0.004429	-0.165624	0.168698	0.076260	0.045172	-0.019670	0.125736	0.088390	0.055317	-0.040746	-0.088145	-0.040174
0.358426	-0.154076	-0.041803	0.069470	0.144790	0.065633	-0.109855	-0.213916	-0.117562	-0.044972	-0.130791	0.146431	-0.203424	0.058622	0.216527	-0.124427	0.109642	-0.383694	0.292455	-0.161953	0.334270	-0.085614	-0.019477	0.087893	0.156540	-0.070059	0.160763	-0.210551	-0.142142	0.034704	0.009049	-0.115662	-0.150574	-0.010245	-0.503671	0.208990	-0.072371	0.292312	0.003386	-0.006002	0.155085	-0.020660	-0.041709	-0.061885	0.075973	0.227524	-0.287247	-0.387424	0.028109	0.007290	-0.097733	0.235627	-0.198554	0.061274	-0.121662	0.179233	0.022386	0.387036	-0.243034	-0.049833	-0.115045	-0.121702	-0.261854	0.079903	-0.111685	-0.212060	0.190035	0.225855	0.048981	-0.019565	-0.086948	0.111655	-0.053687	0.082367	-0.241147	0.227936	-0.149454	-0.262157	-0.062258	-0.053995	-0.297074	0.118751	-0.085818	0.090177	-0.159053	0.173004	0.109840	-0.217504	-0.025474	0.096498	-0.137553	0.198705	0.035563	-0.309377	0.058550	-0.004155	0.278586	0.081638	0.158212	-0.009405	-0.011465	0.251290	0.011966	0.031744	-0.066181	-0.093553	0.027374	-0.155958	-0.097818	0.100961	0.199778	-0.113419	-0.263503	-0.167909	0.137433	0.135569	-0.083970	0.122439	-0.067695	-0.108941	-0.096870	-0.102635	-0.187511	0.122942	0.130590	0.102856	-0.156571	-0.012983
0.137915	0.261297	-0.117327	-0.075970	-0.188924	0.183274	0.030415	-0.104102	0.052373	0.232817	-0.013451	-0.043765	-0.043533	0.032740	-0.053889	0.162516	-0.176596	-0.129994	0.043406	-0.084922	-0.003948	-0.026090	0.177525	-0.229042	0.212521	0.202470	0.000349	-0.174014	0.097426	-0.053658	-0.014785	-0.235797	-0.089057	0.076768	-0.122087	0.012139	-0.114919	-0.244370	0.101737	0.034943	0.235463	0.073637	0.215670	-0.308912	-0.044884	0.060591	0.158639	-0.185861	-0.200012	0.017878	-0.100387	-0.121545	0.056135	0.232251	0.050391	-0.115722	0.208898	-0.101887	-0.215581	-0.076630	-0.474672	0.045144	-0.028449	0.046571	0.269937	0.208018	0.088539	0.281572	0.029238	0.039917	-0.095266	0.342393	0.118494	-0.137371	-0.075343	-0.240610	-0.250943	0.041361	-0.000118	-0.169913	-0.109269	0.217866	0.131853	0.018355	-0.091931	-0.042912	-0.143823	0.362958	-0.091543	-0.117172	0.290796	0.063918	0.022321	0.047351	-0.183468	0.176832	-0.003930	-0.009947	0.152959	0.177579	-0.002683	0.081710	0.187585	-0.045129	-0.330056	0.190736	-0.009427	-0.064396	0.055257	-0.168081	0.003280	-0.007032	-0.133714	-0.304768	-0.068125	-0.061694	0.154471	-0.097279	0.130525	0.266910	-0.110977	0.219857	0.067824	0.084391	-0.062217	-0.014320	0.071797	-0.240321
-0.108179	0.068421	0.227721	-0.031873	0.099157	0.129923	-0.035050	-0.090529	0.040845	-0.008576	-0.217604	-0.127746	-0.170151	0.246059	-0.085189	0.004618	0.021123	0.067002	0.001398	-0.016332	0.012073	0.092537	-0.188263	-0.225406	-0.217718	-0.158706	0.119126	-0.157047	-0.079818	-0.188388	-0.139164	0.121185	0.095960	0.105223	0.119251	-0.182339	-0.059493	0.045475	0.054859	-0.043260	0.103814	-0.058217	-0.103816	0.041298	-0.012268	-0.059873	0.010440	0.273339	-0.023085	-0.064701	0.064837	0.014654	-0.102580	0.028372	0.039888	0.034451	-0.202853	-0.311660	0.047388	0.151608	-0.077215	0.170837	0.009646	-0.227110	0.081468	-0.117268	-0.198525	0.037607	-0.100572	0.081442	0.095001	0.040273	-0.184459	-0.017029	-0.025922	0.004947	-0.227455	0.074401	-0.172832	-0.364830	0.089314	0.113297	0.037678	0.070188	-0.457378	-0.101253	-0.044506	-0.028207	-0.082041	0.157950	-0.349969	-0.082345	-0.160555	-0.068119	0.241713	-0.362315	0.158414	0.012189	-0.085011	-0.039429	-0.143935	0.448117	-0.171009	-0.159097	-0.085816	0.047627	0.080538	0.337802	0.238932	-0.071158	-0.304956	0.042201	0.011268	-0.321382	-0.157881	0.087070	-0.127451	-0.067976	-0.098034	0.115500	0.018048	0.132731	0.220006	-0.017593	-0.047786	0.017884	0.153823	-0.161580
-0.050110	-0.106261	0.149721	0.127310	-0.157636	0.066792	-0.123373	0.035692	0.065103	0.031517	-0.154522	-0.380738	0.056223	-0.045873	-0.217623	-0.106435	0.071559	0.118899	-0.002428	0.341710	-0.175925	0.131755	-0.016405	0.056412	-0.173585	-0.232739	0.098649	-0.105900	-0.190271	0.027791	-0.144539	0.021154	-0.120067	0.141933	-0.094901	-0.028623	0.071527	-0.112275	0.090507	-0.142460	-0.141149	-0.019390	0.155537	0.114973	0.153055	0.060837	-0.164767	0.077984	0.285940	-0.210026	-0.010070	0.143295	0.155948	0.002213	-0.118699	0.029108	-0.099232	0.070773	-0.219752	0.164245	-0.034138	-0.030753	0.013551	-0.090484	-0.107652	-0.031680	0.118112	0.102749	-0.022911	-0.041074	0.052782	0.188430	0.289775	0.136947	-0.071699	0.039615	-0.030904	-0.029214	0.030723	-0.054317	0.134522	-0.290796	-0.000917	0.191079	0.018616	-0.212469	0.170363	-0.030899	0.110010	-0.242264	0.076704	0.354681	0.204999	0.020711	0.016350	-0.164341	0.145725	-0.046482	0.088214	-0.121523	0.117400	-0.112594	-0.044513	0.069314	-0.212327	-0.071542	0.000493	0.167093	0.025329	-0.090840	0.083090	-0.132968	0.271237	-0.198811	-0.031787	0.018467	-0.144298	0.006279	-0.217087	0.007362	-0.160309	-0.078481	0.119511	0.061887	-0.115246	-0.043936	0.081942	0.092447
0.162860	-0.242050	-0.223799	0.094952	-0.102738	0.158312	0.316291	0.111968	-0.053479	0.047625	0.043996	0.156157	0.000869	0.297564	-0.142150	-0.028288	-0.100176	-0.191154	0.119748	0.092702	-0.117090	0.142634	0.006123	-0.037973	0.126026	0.072225	-0.003372	-0.091181	0.267017	-0.156665	-0.206475	-0.047259	0.339198	0.296389	0.132496	0.102569	0.135388	0.297114	0.128984	-0.327027	-0.056861	0.247210	0.086180	0.199364	-0.380567	-0.032176	0.064847	0.228301	-0.138664	0.108540	-0.007807	-0.034536	0.066706	0.041805	-0.095092	0.392300	-0.148219	0.060065	-0.103965	-0.034647	0.011647	0.017553	0.070907	0.094581	0.145085	-0.063718	-0.059961	-0.054233	0.074545	0.187877	-0.217398	-0.230654	-0.055255	0.047849	-0.136174	0.017080	-0.152671	-0.166727	-0.134693	0.010891	-0.069338	-0.258863	-0.053764	0.080584	0.142059	-0.042217	-0.134020	0.023565	-0.099986	0.082809	-0.124637	-0.100932	0.012487	0.034687	0.098044	-0.227954	-0.332798	-0.089885	-0.077747	0.160774	0.072692	-0.021957	-0.000280	-0.257627	0.050947	0.260251	0.080905	-0.077573	0.039418	-0.011047	-0.066948	-0.063706	0.213267	-0.196765	0.176925	-0.095276	-0.176756	0.229259	0.025981	-0.008627	-0.220704	-0.062639	0.090181	-0.036112	-0.160154	0.197677	-0.099071	0.025170
0.010942	-0.283982	0.046785	0.164510	0.119749	-0.209096	0.234667	0.169770	-0.017614	-0.104889	-0.188005	-0.056239	-0.069985	0.004067	0.062596	-0.083522	-0.176167	-0.183002	0.129275	-0.073348	0.099613	0.109280	-0.082577	-0.203017	0.184401	0.070400	0.004317	0.154904	-0.108896	0.145450	-0.111053	0.133232	0.148922	-0.093575	0.145348	-0.043652	0.048408	-0.262103	0.061459	-0.309684	-0.211173	-0.131713	-0.017283	-0.204681	0.053065	-0.218749	-0.168148	-0.224033	-0.091560	-0.346998	-0.155764	0.275501	-0.081360	-0.057346	0.011069	-0.154592	-0.328731	0.298205	-0.232416	0.110194	-0.069155	0.232887	-0.029580	-0.172688	0.075845	-0.269513	-0.127160	-0.166675	-0.049060	-0.237212	0.064724	-0.211809	0.013592	0.188569	0.388076	0.004590	-0.170389	-0.053563	-0.061158	0.271920	-0.016947	0.145959	0.227810	-0.198284	0.039245	0.237552	0.042226	0.223599	-0.126392	-0.165923	-0.217351	0.008251	0.006019	-0.113321	0.489069	-0.031371	-0.067548	-0.119065	0.116791	0.002678	0.221672	0.183404	0.204196	0.095134	-0.037924	-0.174184	0.033436	-0.161475	0.089088	0.040276	-0.170136	0.079783	-0.161181	0.036300	-0.078494	-0.075992	0.151254	0.036042	0.058916	-0.087111	-0.063606	-0.188262	0.010991	-0.026986	0.159702	0.058882	0.134637	-0.168464
0.113481	-0.187148	-0.006607	-0.247966	0.227901	0.183949	-0.140754	-0.117373	-0.059536	0.131319	0.068808	0.042908	-0.087532	0.013125	-0.203684	0.111983	0.165495	0.102180	0.038176	0.062802	0.022352	-0.290412	-0.161652	0.012322	-0.352454	0.046608	-0.142150	0.168853	-0.176191	0.062063	0.070343	0.071809	-0.074633	0.093774	0.008616	-0.196997	0.264017	-0.036297	-0.302374	0.115475	0.148892	-0.532773	0.147146	0.024789	-0.043869	0.142546	0.176736	0.159417	-0.152189	-0.228384	-0.085727	-0.179579	0.131945	0.257603	-0.212718	-0.124042	0.070372	-0.238006	-0.108185	0.157404	-0.067008	-0.120502	-0.008678	0.177711	-0.080041	0.091301	-0.317042	-0.263571	-0.044014	0.170628	0.023062	-0.012392	0.202661	-0.091772	-0.124594	-0.243008	0.100297	0.117553	-0.157769	0.257277	-0.100223	-0.118748	0.384387	-0.206511	0.147435	-0.001176	-0.018193	0.036699	-0.029391	-0.098888	0.124664	0.028167	0.327961	0.053366	0.105443	-0.219643	0.186865	-0.127283	0.021982	-0.105633	-0.148001	0.402809	0.090193	0.078757	0.197398	0.155956	-0.021958	-0.006217	-0.037566	-0.191785	-0.000875	-0.160180	-0.138812	-0.220320	0.171467	0.191132	0.162204	-0.003037	0.225428	0.197732	0.033717	0.012017	-0.169892	0.168733	0.322345	0.030853	0.149891	0.108677
0.142543	-0.132017	-0.127717	0.044523	0.048513	-0.071827	0.085941	0.085678	-0.151994	0.217402	0.000595	0.086498	-0.105794	0.094867	-0.171346	-0.389483	-0.180883	0.097795	0.016001	-0.061699	0.074266	0.271167	0.038713	0.183452	0.200874	0.078732	-0.058963	-0.103556	0.093420	-0.012011	0.050968	0.529355	-0.275231	0.316450	-0.210691	-0.277691	0.152001	-0.009001	-0.256885	0.110007	-0.020873	0.275059	-0.164233	-0.150612	-0.061399	-0.093573	0.090508	0.490676	0.046718	-0.038229	-0.230209	-0.200248	-0.183453	-0.105799	0.253334	-0.033165	0.069517	0.110723	-0.264781	0.062272	-0.040404	-0.190734	-0.023674	0.239786	0.011000	-0.077211	0.116344	-0.109818	-0.029259	0.136812	0.001877	0.295705	-0.162554	0.013443	-0.085224	0.004075	0.071503	0.133612	0.133532	-0.285180	-0.103303	-0.146943	0.109163	-0.074503	-0.105077	-0.110230	-0.076159	-0.083335	0.073111	0.077970	0.210064	0.109546	-0.314737	-0.001378	-0.039411	0.113731	0.119983	-0.057676	0.036053	-0.059000	-0.089059	0.103167	0.063568	0.601763	0.003814	-0.052537	0.218290	0.525748	0.149684	-0.048318	0.003794	0.000780	0.218974	-0.215889	0.175988	-0.248442	0.125615	-0.035267	-0.001383	-0.030652	-0.068046	-0.209943	-0.166427	0.075797	-0.155083	-0.038247	0.161742	0.067598
0.234466	0.296174	0.126545	-0.071844	0.058449	-0.005356	0.296332	0.176092	0.203228	-0.079931	0.129236	-0.011900	-0.136340	0.053547	-0.152684	0.371601	0.069065	0.061033	0.142207	0.017112	0.089580	-0.116010	-0.216344	0.214847	0.078267	0.102725	-0.150141	-0.059910	0.117248	-0.070413	0.039699	0.140352	-0.111527	-0.240642	-0.057690	-0.122810	0.116822	-0.175625	-0.119682	-0.102256	0.033494	-0.115944	0.030263	0.005494	0.273616	0.083143	0.070016	-0.048110	0.133303	-0.044148	-0.092389	-0.184002	-0.091135	-0.117995	-0.011232	-0.118007	0.268126	-0.163700	-0.278374	0.040692	0.012484	-0.076384	-0.193695	-0.150364	-0.192248	-0.260825	-0.179277	-0.011748	0.116320	-0.020245	0.216196	-0.014049	0.233069	-0.151422	0.020048	0.164779	0.165214	-0.103295	0.247118	-0.065474	-0.113640	-0.167755	-0.045901	-0.094478	0.096364	-0.279549	-0.100762	-0.002500	0.149137	0.266851	-0.345248	-0.217538	-0.169599	0.085302	-0.089180	-0.327691	0.194555	0.117093	0.153127	-0.170202	-0.291083	-0.190264	0.056642	-0.127239	0.194162	-0.048783	0.103116	-0.020653	-0.113644	-0.259996	-0.095208	0.264346	-0.000806	0.099678	0.096275	-0.000640	0.058360	-0.052244	-0.049069	0.016583	0.192901	-0.068427	-0.213573	0.195620	0.041934	0.001443	0.194263	0.297812
-0.203124	0.124666	-0.083675	0.026633	-0.287348	-0.071974	0.126104	-0.019891	0.026358	0.335930	-0.066596	0.173612	-0.031990	0.111827	0.106653	-0.272747	-0.123206	-0.189471	0.094905	-0.122361	0.315353	-0.146565	-0.140350	0.126668	0.095935	0.109837	0.070854	-0.230856	0.052828	-0.085930	-0.437315	-0.054058	0.106059	-0.059687	-0.026225	0.034598	-0.155366	0.014448	0.098958	0.326237	-0.108789	-0.070034	0.083915	0.073372	0.032783	-0.035998	-0.068850	-0.111385	-0.100187	0.011076	-0.191649	-0.044349	0.130692	0.040373	0.122955	0.162420	-0.262655	-0.237285	-0.165816	0.176017	0.160405	0.101218	-0.074835	-0.128703	-0.101266	0.005537	-0.065178	-0.044188	-0.282548	0.182701	0.328572	0.400100	0.320810	0.298974	-0.095514	0.001793	0.188119	-0.046507	-0.190663	0.258282	-0.114192	-0.375122	-0.146617	0.087651	-0.316914	-0.290878	0.037217	0.067682	0.038234	-0.142348	-0.067937	-0.300972	0.019738	0.104133	-0.020603	-0.187368	0.049339	-0.358767	-0.029832	-0.140318	-0.174407	0.039914	0.260559	0.113371	0.112945	0.051036	-0.005067	0.051569	0.292697	-0.030347	0.147741	0.000746	0.061502	-0.046492	0.029840	-0.143839	0.330686	-0.364534	-0.030394	-0.153824	0.316082	-0.094961	0.286864	-0.055368	-0.260883	-0.545039	-0.215757	0.095437
0.093024	-0.054756	0.235009	-0.224800	0.282217	0.107127	0.041372	-0.294833	-0.298934	-0.017709	-0.027577	0.150780	0.021185	0.287979	-0.193006	0.252970	-0.194633	-0.176075	0.227527	-0.031602	0.126979	0.077924	0.318524	-0.222857	0.159662	0.224959	0.128846	-0.042747	0.160449	-0.110036	0.000602	-0.203513	-0.162889	-0.005875	0.071648	0.088150	-0.020166	-0.051738	0.245904	0.018559	0.189225	0.252733	0.138503	0.229908	0.024395	0.037949	0.172448	0.069947	0.072561	0.161573	-0.065681	0.112918	0.133990	0.152600	-0.043305	-0.368054	-0.249163	-0.242533	0.112324	0.152238	-0.068418	0.017471	0.181378	-0.105879	-0.115433	0.060505	-0.054347	0.009847	-0.131746	0.116862	0.139479	-0.056780	-0.095200	0.360862	-0.187317	-0.011910	0.179275	0.010400	0.327411	-0.109742	-0.006442	0.171460	-0.029816	0.172897	-0.206836	-0.127525	0.256905	-0.217793	-0.102039	0.226497	0.072070	0.143716	0.229118	0.064485	0.057282	-0.057601	0.073637	0.074828	0.135329	-0.028560	0.064769	-0.194280	0.329846	-0.022976	-0.073952	0.207249	0.196798	-0.079500	0.022946	0.145534	-0.363298	-0.169825	-0.219062	-0.005935	-0.005761	0.240491	-0.117559	0.013397	0.293983	0.012043	0.149546	-0.019908	0.062692	0.052984	-0.028273	0.125904	-0.066800	0.155607
0.126401	-0.196816	-0.048433	0.095262	0.166105	-0.129713	0.300338	0.329636	0.330375	0.088594	-0.366501	-0.195141	-0.044457	-0.049781	-0.121262	-0.099813	-0.242007	0.054452	0.332321	-0.117615	-0.006225	-0.011185	-0.004781	-0.217709	-0.043307	0.215591	-0.084776	-0.178004	-0.233373	0.292596	-0.073504	-0.023092	-0.096678	-0.161418	0.117249	0.215263	0.303519	0.270223	0.153810	-0.222802	-0.103696	-0.045858	-0.361958	-0.030112	-0.153261	0.237205	0.112108	-0.076520	0.018550	-0.269307	-0.054391	-0.060709	0.230453	-0.202522	-0.327984	0.086689	-0.297117	-0.269355	-0.121065	0.183382	0.031006	-0.053584	-0.008568	0.230147	0.004665	-0.271734	0.167206	-0.078971	-0.016518	-0.073483	0.278258	-0.048546	0.118162	0.170712	-0.119149	0.076672	-0.194607	0.083057	0.104626	-0.245390	-0.206390	0.098050	-0.186555	0.410912	0.168376	0.201575	-0.041451	0.107454	-0.062611	0.111120	0.152066	-0.189921	0.079045	-0.122333	0.014285	-0.056557	0.118395	0.509203	-0.080892	0.181083	0.214106	-0.417047	0.314268	-0.242607	-0.147665	0.426810	0.386869	-0.079243	0.084315	-0.120846	0.193781	0.064642	-0.193319	0.084270	0.234004	-0.050850	-0.154750	-0.396112	0.032730	-0.070634	-0.007279	0.177440	-0.216974	0.074288	-0.097671	0.385096	0.201102	-0.284821
-0.205325	0.036114	0.119308	-0.057925	0.106868	-0.099212	0.106643	0.110956	0.417109	-0.198127	0.172341	0.066897	-0.382540	0.290404	0.295887	0.277751	-0.009831	0.209816	0.350221	-0.078437	0.123612	0.065677	-0.249022	-0.304230	0.218184	-0.317749	-0.014538	-0.158679	0.119075	0.120963	-0.173051	0.247914	-0.152684	0.072849	-0.170968	-0.075855	0.290740	-0.286667	0.063328	0.306322	0.119439	-0.293674	0.402488	0.161045	-0.153645	0.116336	0.096347	0.057166	-0.087730	-0.180302	0.029600	-0.045755	0.163907	-0.433729	-0.040487	-0.248423	0.164416	0.104142	0.363918	0.123938	-0.055710	0.005609	-0.319973	-0.047399	-0.173205	0.118154	-0.240574	0.307373	0.002086	-0.396842	0.304339	-0.433370	-0.106918	-0.034757	-0.138656	-0.093011	0.181574	-0.058070	-0.126013	-0.268253	-0.082317	-0.226666	0.260317	0.129221	-0.391707	-0.028009	0.203454	0.089516	-0.071630	-0.046014	0.054952	-0.327891	-0.048452	-0.108347	0.095063	0.021996	-0.304556	-0.256048	0.303363	0.076888	0.183033	-0.255825	0.173566	0.070933	-0.104541	-0.093735	-0.145733	-0.099460	0.154755	-0.055573	0.249177	-0.143974	0.314656	0.068178	-0.259336	-0.006764	-0.266783	0.079758	-0.001868	0.088301	0.135267	-0.079983	0.005903	0.207194	-0.176123	-0.160553	-0.043899	-0.116954
-0.040544	-0.141015	0.027245	0.020677	-0.078253	0.070310	0.035508	-0.270852	0.020342	0.004490	0.058400	0.261755	-0.199519	-0.071763	-0.137185	0.074165	0.113967	0.132036	0.065963	0.042726	0.357622	0.157091	0.113012	0.069729	0.005583	0.357788	0.471599	0.012187	0.088631	0.291438	-0.116486	0.096839	0.061525	0.211843	0.190328	-0.183259	-0.482233	0.333689	-0.052021	0.145795	0.035779	-0.217618	-0.102328	-0.253746	-0.213097	0.196829	-0.158408	0.108485	0.042801	0.050651	-0.327596	-0.031363	0.152655	0.070136	0.289528	0.016841	-0.022084	-0.013322	0.215234	-0.017686	-0.048032	0.347555	-0.063790	-0.107837	-0.228607	-0.147657	-0.243731	-0.170935	-0.113872	0.027736	0.043384	-0.046939	-0.242078	-0.085629	0.263294	-0.275372	0.198576	0.078654	0.209532	0.145021	-0.287006	0.009754	-0.191472	0.482967	-0.175554	-0.375831	0.050885	-0.056545	0.248112	-0.009520	0.004957	0.264903	-0.223299	-0.022819	-0.073220	-0.181546	0.218484	-0.082857	-0.173004	-0.093851	0.005548	0.195521	0.028893	-0.047298	0.258188	0.089766	-0.452662	0.290672	0.010782	0.123511	-0.127259	-0.477419	0.216036	0.396036	0.150165	0.332081	0.062218	-0.213635	0.060500	-0.240782	0.069534	0.005193	-0.097771	0.016733	-0.195888	0.133199	0.222181	0.203023
-0.281733	0.014222	0.126181	-0.328855	-0.137440	-0.038639	0.282014	0.072208	0.302624	0.332793	0.253679	-0.066421	-0.081817	-0.103488	-0.037441	0.158476	-0.087432	0.467634	-0.233629	0.000123	0.283562	-0.229460	-0.164340	-0.129518	-0.308339	0.190436	-0.027175	0.287134	-0.043023	0.027887	-0.288029	0.364430	-0.266528	0.052771	0.031793	0.154320	-0.062449	-0.109796	0.133557	-0.035230	-0.526418	0.015320	0.063472	0.350393	-0.176958	-0.112226	-0.140543	0.077676	-0.041457	-0.149552	-0.254913	-0.277826	-0.018487	-0.063301	-0.194035	0.008358	0.194142	-0.051306	-0.003277	-0.156723	0.115630	-0.101244	-0.360363	-0.284935	-0.196827	0.027782	-0.025200	-0.224857	0.207892	-0.162925	0.136140	0.082477	-0.229934	0.144034	0.179461	0.254999	-0.004814	-0.109738	-0.113479	-0.216116	0.057295	0.220625	0.029907	0.140694	-0.028076	0.135705	0.057547	0.017481	-0.394349	-0.017832	0.122164	-0.237620	-0.133935	0.020922	0.379438	0.154456	-0.280049	0.383240	0.090172	-0.017518	0.112290	0.211677	0.394095	0.140077	0.148945	0.078924	-0.384067	0.044799	-0.207649	-0.000506	-0.091821	-0.156367	-0.122540	0.107451	-0.365569	-0.192106	0.079199	-0.124511	-0.081803	-0.280572	-0.110004	0.071484	-0.061539	0.156564	0.163773	0.454453	0.022291	0.046371
-0.099545	-0.233043	0.129829	0.256020	-0.088118	-0.105859	-0.320414	-0.084374	-0.003811	-0.039979	-0.124446	-0.077067	-0.052265	0.180618	0.241286	0.571293	0.026889	-0.032093	-0.287605	-0.076189	0.217016	0.237950	0.241451	0.425027	-0.093939	0.056352	0.272530	0.271369	-0.135251	-0.311731	-0.034273	-0.276703	-0.022659	-0.068156	0.054677	-0.198573	0.201051	0.088648	-0.110327	0.402282	0.171410	-0.095344	-0.172929	-0.201831	0.153039	0.067876	0.122095	-0.187509	0.124648	0.080114	-0.166444	-0.319045	-0.217987	-0.138692	0.163359	-0.006151	-0.402609	-0.006466	-0.062599	-0.317516	-0.301885	-0.306769	-0.262024	-0.355039	-0.247042	0.274670	-0.177402	-0.074907	0.122476	-0.036069	0.204891	0.167902	-0.013112	-0.077492	-0.138016	-0.020609	-0.126133	-0.229987	-0.056416	-0.183512	-0.015482	-0.254456	0.129607	0.230648	0.206253	0.113783	0.105346	-0.042994	0.185254	-0.192844	-0.402788	-0.089783	-0.346484	-0.181444	0.167300	-0.470540	0.109162	0.094792	0.185153	0.221620	0.243514	-0.176348	0.520325	0.075592	0.282348	0.207985	0.067395	-0.230246	0.092133	0.005633	0.033187	-0.054059	-0.182762	-0.329966	0.025553	0.018838	-0.053068	-0.012309	0.439864	-0.143863	0.094278	0.107863	-0.216336	-0.362687	-0.269059	0.565509	-0.246709	-0.171678
-0.167216	-0.121044	-0.073040	-0.022701	0.198243	0.332072	0.247726	0.207785	0.327597	-0.062793	0.136300	0.154141	-0.108458	0.165719	0.522745	-0.301375	-0.064289	0.130407	-0.038334	-0.008514	-0.339470	-0.092059	0.108399	-0.019059	-0.300325	0.282360	0.007210	0.129516	0.260361	0.157784	0.121122	-0.007498	0.115771	-0.070687	0.066394	-0.294079	-0.107126	-0.082264	0.063042	-0.028425	0.107362	0.173510	0.094618	-0.211704	-0.118848	0.149713	0.323137	0.091415	0.410110	-0.197799	-0.120491	0.273719	-0.365512	-0.260622	-0.040432	-0.013961	0.078318	-0.162977	0.063164	0.304970	0.163685	-0.115256	0.368948	-0.111578	-0.103952	0.212415	0.097948	-0.196972	0.145024	-0.250072	-0.038094	0.298702	-0.119578	0.063513	0.202802	-0.155681	-0.103453	-0.164346	-0.027350	-0.081500	-0.280414	0.244746	-0.065878	0.136924	0.053309	-0.262655	-0.278599	0.014404	0.039709	-0.232633	0.007183	0.036543	0.271396	-0.144030	0.269917	-0.018371	0.042210	-0.022545	0.314062	0.009415	-0.211142	-0.244140	0.164002	-0.261565	-0.129125	-0.473110	0.159122	-0.059529	-0.060884	0.055869	-0.082441	-0.132572	0.146220	0.141325	-0.361707	0.263827	0.053888	0.167776	0.248915	0.073624	0.013584	0.262775	-0.132976	-0.309289	-0.055943	-0.133051	-0.088826	-0.062788
0.128466	-0.141089	0.163258	-0.266202	0.019220	0.008653	-0.110530	-0.182352	0.071265	0.093730	0.145858	-0.183581	0.082216	0.078167	-0.134024	0.015732	-0.089340	-0.302819	-0.153436	-0.111838	0.122798	0.134942	-0.026518	-0.153289	-0.216716	-0.095654	-0.004314	-0.064669	0.010199	-0.160071	0.035680	0.182888	0.163016	-0.053300	0.057145	-0.184491	0.083117	-0.012862	-0.107468	0.036978	0.263006	-0.106752	0.111123	-0.099181	-0.194589	0.095385	0.091498	0.039373	-0.100182	0.024720	-0.119891	-0.183639	0.093730	-0.196065	-0.434158	-0.088289	-0.048277	-0.271661	-0.068581	0.076906	-0.063051	0.140489	0.128127	0.174523	0.029982	-0.324082	-0.396608	-0.190872	-0.151628	-0.047927	0.066420	-0.035091	-0.152819	0.053074	0.084680	-0.122822	-0.123376	0.157548	-0.122811	-0.131186	0.088384	-0.171279	-0.011250	-0.026322	-0.189701	-0.000621	0.202545	0.070939	-0.099716	0.159369	-0.118597	0.242529	0.161275	0.073170	0.268059	-0.422941	0.082836	-0.236194	-0.135200	-0.131410	-0.028539	0.335215	0.036340	-0.390396	-0.042530	0.162407	0.218335	0.325276	0.215504	-0.041042	0.028427	-0.190750	0.082782	0.031033	-0.287495	0.159705	-0.089342	0.095514	0.073925	0.151299	-0.029700	-0.007667	0.294890	0.013732	0.025105	0.078480	0.118864	0.295488
0.077973	0.105159	0.273843	-0.102461	0.440358	0.087440	0.147324	0.206752	0.018923	-0.056326	-0.163218	0.253128	-0.239610	-0.118829	0.042541	0.095881	0.292294	0.420514	0.027734	0.247212	0.212321	0.054082	-0.058316	-0.380699	0.206414	-0.032797	0.090820	0.031542	0.040322	0.033705	-0.133625	-0.263708	-0.080931	-0.193058	-0.042546	-0.134434	0.199938	-0.193576	0.263557	-0.068859	-0.195586	-0.032959	0.668085	-0.030166	0.041481	-0.230327	0.253020	-0.184021	0.085870	0.012277	0.144021	-0.100717	-0.427531	-0.115622	-0.016757	0.201801	-0.082635	-0.116931	-0.077523	0.462271	-0.209350	0.443486	-0.005851	0.153260	-0.107687	0.041628	-0.081744	0.093059	0.408660	0.137413	0.055871	0.116616	0.155819	0.013602	0.016344	0.108132	-0.175422	-0.030080	-0.122775	0.102150	0.039858	-0.054991	-0.040629	-0.137841	-0.246610	-0.240193	0.256601	0.349071	-0.057724	-0.368738	-0.137642	-0.229483	-0.153140	0.125910	0.071829	0.276168	0.078682	0.273665	-0.025469	-0.146179	-0.125017	-0.396506	0.020925	0.456950	0.103597	-0.011437	0.254275	0.020532	-0.114601	0.110361	0.061999	-0.002440	-0.144445	-0.024384	-0.240739	-0.405513	0.094815	0.159740	0.350772	0.226847	-0.181760	0.705835	-0.208159	-0.069434	0.006099	0.478079	0.057706	0.304771
-0.093715	0.060177	0.065819	0.153515	-0.004293	0.384965	0.054699	0.089936	0.115918	0.216852	0.001152	0.052423	0.006123	0.005839	0.586122	0.235092	-0.001810	0.218982	0.262199	0.027031	-0.234132	-0.083952	-0.045180	0.075719	0.280206	-0.104827	0.105413	-0.248333	-0.061587	0.028010	0.334045	0.332467	0.041996	-0.351712	-0.170779	-0.050236	0.033413	0.145177	0.271718	-0.269246	0.126448	-0.247611	-0.191771	0.036176	-0.212274	-0.007726	-0.272634	-0.336239	-0.139753	0.082930	-0.051785	-0.178792	0.229111	-0.405811	0.138754	-0.346646	-0.194952	0.142792	-0.406334	0.022480	-0.024904	0.160529	0.040162	-0.268558	-0.253219	0.022012	0.001405	0.022098	0.089540	-0.118423	-0.154960	-0.145660	0.200037	0.290579	0.354181	0.160409	0.182028	0.036460	-0.134638	-0.035242	-0.285729	0.339405	0.078588	0.136618	0.137219	-0.110168	-0.012098	-0.488350	-0.132643	-0.255383	-0.219624	0.266160	0.075186	0.203369	0.207786	-0.059222	-0.133522	0.034333	0.238897	0.042141	0.052727	-0.052327	0.377134	-0.013831	0.143639	-0.155306	0.351379	0.153768	-0.156197	0.065294	-0.128560	0.127995	-0.015934	0.054483	0.187137	-0.138739	-0.186639	0.029231	-0.052467	-0.160821	-0.007710	0.168029	0.374351	0.368331	0.215789	-0.118424	-0.120150	-0.139361
0.290315	-0.010129	0.242409	0.538256	0.043003	-0.108550	0.059737	0.047484	-0.047713	0.384909	-0.231964	-0.119309	-0.220709	0.151639	-0.119778	-0.039886	0.089640	0.020610	-0.234329	-0.372151	0.220507	-0.047211	-0.008429	-0.076017	-0.143842	0.069600	-0.009669	0.214374	0.209886	0.304151	-0.325112	-0.103559	0.093482	0.088640	0.032802	0.342438	0.280153	0.344298	-0.046613	-0.267513	0.096047	-0.224879	0.171618	-0.058035	0.398269	0.186845	-0.521864	0.169616	0.169713	-0.124361	0.174032	-0.104898	0.075719	-0.089108	0.128103	-0.171905	0.033723	-0.205816	-0.068872	0.110959	-0.244479	-0.012637	-0.046984	-0.067811	-0.022136	0.326143	-0.312221	0.112218	-0.280996	-0.062242	0.389572	-0.072737	0.006333	-0.357242	-0.071123	0.269598	0.221917	-0.062606	-0.049817	0.304219	-0.139838	-0.187534	0.119923	0.104219	-0.139207	-0.072177	0.100105	-0.260833	0.075445	-0.354118	0.145078	-0.289804	0.336090	-0.374649	0.081447	-0.164249	-0.179554	0.075994	0.038575	-0.008327	0.321542	-0.278671	-0.289135	-0.015504	0.259174	-0.105615	0.046962	-0.051320	-0.408667	-0.027548	-0.339780	0.130702	-0.052086	-0.042512	-0.489565	0.371436	-0.072848	0.240202	0.088569	-0.150598	-0.062614	0.349749	-0.045107	0.021130	0.006953	0.117407	0.257903	0.120651
-0.026990	0.050578	-0.095952	-0.039378	0.176432	0.164365	0.170293	-0.045187	0.384302	-0.112169	-0.334197	-0.157921	0.028328	0.200208	-0.109079	0.219888	0.168416	0.485061	-0.026145	-0.030744	-0.151700	0.007979	-0.019370	0.149109	-0.081375	-0.038375	0.303401	0.312341	0.165094	-0.160142	0.387692	0.032909	0.076324	0.536143	-0.190413	-0.147445	0.109086	-0.123387	0.056356	0.154003	-0.067649	-0.102423	0.416078	-0.181697	-0.107260	-0.005103	0.039302	-0.183584	-0.221323	-0.011548	-0.016223	-0.025729	-0.163851	-0.344243	0.065651	-0.157892	-0.060444	0.216646	-0.127730	0.123507	-0.065956	0.371573	-0.243105	-0.114841	-0.159574	-0.336883	-0.098224	0.367871	0.340920	-0.220882	-0.079485	0.143264	-0.084701	-0.117156	0.033839	-0.021497	0.039351	0.298020	-0.051436	-0.011635	0.386343	0.240298	-0.414070	0.126608	0.120264	0.196635	0.240415	-0.101401	0.026739	-0.310368	0.174574	0.125869	-0.046927	-0.185016	-0.172274	0.539404	-0.112059	-0.123239	0.130605	-0.090113	-0.070026	-0.164876	0.176377	-0.456006	-0.159878	0.669740	-0.304624	-0.372976	-0.412313	0.055020	-0.028184	0.179147	0.196641	0.099744	0.018261	-0.356287	-0.071227	-0.084633	-0.249071	-0.386226	-0.008497	-0.133644	0.303470	-0.290673	-0.288142	-0.338494	0.121381	0.337409
-0.021637	0.126174	0.114305	-0.120652	-0.809905	-0.112252	0.056003	0.266199	0.069420	0.561802	-0.130617	-0.350405	-0.177904	-0.088575	0.053221	-0.118846	-0.222113	-0.169791	0.286700	-0.384221	0.356459	0.020592	0.033377	0.007087	0.109557	-0.085205	0.200959	-0.128340	0.270748	0.218872	-0.053712	0.171732	0.103233	0.006240	0.015263	-0.065620	-0.333827	0.245492	-0.079367	0.508859	-0.519221	0.094082	-0.080266	-0.272814	-0.040234	-0.007217	-0.539148	-0.276212	-0.371982	-0.017130	-0.485220	-0.128865	0.574426	0.012669	0.105958	0.043803	-0.107536	-0.015290	-0.408911	-0.065549	-0.126415	0.114685	-0.270556	-0.325223	-0.062257	0.041100	-0.042438	-0.100693	-0.275292	0.093012	0.479719	0.002001	0.119749	-0.217895	-0.035630	0.293613	0.227640	-0.171938	0.109703	0.365821	-0.272784	-0.527862	0.039954	0.199483	-0.280814	-0.409729	-0.149916	0.038484	-0.334989	-0.099914	-0.375238	-0.201082	0.009913	0.197339	-0.011081	-0.137862	0.143963	-0.468982	-0.167308	-0.195082	0.094531	0.545232	0.410719	-0.100579	0.018980	0.079731	-0.195507	-0.047616	0.288914	-0.301954	-0.007440	-0.253013	0.156649	-0.116792	0.126491	-0.081049	0.524729	-0.518116	0.088968	-0.328200	0.278106	-0.353201	-0.000106	0.390462	-0.287829	-0.273302	-0.372122	-0.154741
-0.096610	0.086203	0.066748	0.089797	-0.109701	-0.199209	-0.031286	-0.026707	-0.428934	-0.013690	0.382491	-0.016427	0.038270	-0.006120	-0.241915	0.016901	0.371573	0.017838	0.009602	-0.102660	-0.067396	-0.207293	-0.225057	-0.138396	-0.014625	-0.183232	0.066026	0.282353	0.583520	0.145148	0.331604	-0.034784	-0.095141	0.314539	-0.033260	0.302272	0.145410	-0.169258	0.249312	0.044166	-0.044614	0.095325	-0.476888	-0.190976	-0.016198	0.277251	-0.128064	0.057010	-0.285857	0.007504	0.028416	-0.071190	-0.167272	0.075494	-0.087412	-0.187227	-0.222990	0.543878	0.337067	-0.032302	-0.086661	0.253738	-0.179610	-0.080343	0.402887	-0.206169	-0.307413	-0.107171	0.152800	-0.312604	-0.153525	0.015294	0.177826	0.045759	-0.181537	-0.153431	-0.051266	-0.094255	-0.270345	-0.106079	-0.118018	-0.326820	0.116409	-0.156018	0.031961	0.217729	-0.080735	0.031114	0.057288	0.136406	0.118755	-0.024694	0.011668	-0.066685	-0.004270	0.071167	0.055478	0.133066	0.008419	-0.533745	0.275013	0.134343	0.083644	-0.338840	-0.315534	0.128386	0.135114	0.002535	0.331636	-0.005562	-0.250186	0.283177	-0.106881	0.301948	-0.322588	0.004711	0.097272	-0.358968	0.174411	0.315039	0.003144	-0.004983	-0.331597	-0.177663	0.099618	0.161444	0.043830	-0.144288
0.022385	-0.278519	0.059434	-0.070608	-0.163534	0.038335	-0.433896	0.016430	0.053145	0.036801	-0.015407	0.185006	-0.006249	-0.035187	0.094350	0.081156	0.079503	0.182806	0.022302	-0.005115	0.242963	0.273203	-0.179916	0.065122	-0.016979	0.277195	0.138314	-0.013958	0.206386	0.141596	-0.402071	0.227878	0.099041	0.029204	0.028376	-0.151771	-0.317544	0.255606	0.026816	0.439522	0.041418	0.312426	-0.089774	-0.383210	-0.104131	0.331653	-0.140710	0.201289	-0.335056	-0.230422	-0.634935	0.007316	0.276693	0.521917	0.414926	-0.232555	-0.030900	0.052661	0.372963	0.129544	0.062418	0.202321	-0.056903	0.218156	-0.246139	-0.238250	-0.431932	-0.361274	0.025989	-0.063961	0.025768	-0.248520	0.024121	-0.314427	0.248818	0.203610	0.159907	0.079043	0.208698	0.033448	-0.256938	0.281847	-0.144954	0.163045	-0.010343	-0.176362	0.216241	-0.083290	0.175695	0.222446	-0.074924	0.202494	-0.166987	0.027155	-0.150432	-0.144245	0.063575	-0.138246	-0.304275	-0.309372	-0.104425	0.269452	-0.096925	-0.385600	0.062426	0.166074	-0.307423	0.307985	0.533458	0.221627	-0.083574	-0.363321	0.251973	0.373123	0.228194	0.290376	-0.012035	-0.297543	0.187876	-0.027546	0.389992	-0.155037	0.154397	0.025099	-0.300488	0.078858	0.267683	0.255332
0.141711	-0.029706	0.530032	-0.447179	0.061429	0.116981	0.279286	-0.248614	-0.676749	0.036954	0.056136	0.017670	-0.128976	0.096000	-0.122437	0.271489	-0.199938	-0.113911	-0.193909	-0.017732	0.013583	0.384136	0.194278	0.250388	0.129189	0.169581	0.094982	-0.050922	0.178988	-0.003534	0.252854	-0.333412	-0.212340	-0.087821	-0.062352	0.128309	-0.101617	-0.009592	0.284843	0.125521	0.094218	0.078937	-0.032633	0.070240	0.184190	0.187326	0.170452	-0.175050	-0.207413	0.334008	-0.288885	-0.159082	0.048424	0.372623	0.151336	-0.420280	-0.356163	-0.004931	0.161870	0.325358	0.017288	0.049061	0.001217	0.166821	0.139072	-0.156736	-0.034669	-0.067021	-0.320111	0.218383	0.122239	-0.006717	0.135449	0.198313	-0.197542	-0.030533	0.010975	-0.087063	0.263294	0.105032	0.179936	-0.113137	-0.156811	0.115157	-0.451190	0.329285	0.227417	-0.073951	-0.476538	0.119104	-0.241947	0.380172	-0.184935	0.017620	0.176146	-0.090229	0.083158	0.000281	0.137594	0.037873	0.245319	-0.209522	0.353859	-0.227872	-0.097738	0.149415	0.357006	-0.091395	0.137623	0.198742	-0.205986	0.014659	0.037745	0.212994	-0.006550	0.351638	0.040882	-0.057250	0.743728	0.206368	0.382503	-0.054072	0.027621	0.216773	-0.317241	0.173802	-0.177510	0.032545
0.243004	0.010051	0.036345	-0.041337	0.175580	0.462583	-0.103380	0.092697	-0.061756	0.251733	-0.073644	-0.070012	-0.132686	0.079426	0.187791	-0.032185	0.423945	-0.286255	0.039794	-0.645321	-0.174877	-0.067764	-0.156089	0.290371	0.348363	-0.249889	0.087769	-0.087038	-0.035570	-0.094697	-0.273351	-0.076317	0.108678	-0.071004	-0.622328	0.375479	0.069181	0.344965	0.206395	0.269406	0.283612	0.122074	-0.480780	-0.294609	0.203614	0.199042	-0.340423	-0.499886	-0.018704	0.040691	-0.235924	0.240151	-0.156649	-0.000853	-0.171214	-0.092175	-0.011850	-0.009517	-0.140216	0.091972	-0.096276	-0.118639	-0.368827	0.285472	-0.098821	-0.240677	-0.223823	-0.181438	-0.217002	0.413264	-0.114461	0.134794	-0.042270	-0.016755	-0.290582	0.528051	-0.340814	-0.491299	0.105137	0.291071	-0.252611	0.009511	-0.184250	-0.030473	-0.176352	0.193142	0.328293	0.036749	0.071956	0.092016	-0.062083	0.130286	-0.089521	-0.296295	0.273951	0.319210	0.024135	0.187374	-0.143952	-0.179044	0.223808	0.084434	-0.304519	0.314769	0.094154	0.106476	0.042149	-0.127795	0.066654	0.094742	0.416617	-0.094619	0.009936	0.015718	-0.062637	0.181008	0.171954	0.179489	0.122281	-0.020847	-0.067076	-0.412680	0.149093	0.347095	0.072875	0.107259	-0.233183	-0.260979
0.088157	-0.447198	-0.309299	-0.100680	-0.228789	-0.046506	-0.128700	0.111608	0.067486	0.074175	0.179875	-0.344233	-0.032263	0.028758	-0.173582	0.131016	0.039606	-0.330428	0.008105	-0.017141	0.023148	0.137970	-0.292855	0.133736	-0.024057	0.095591	0.002596	-0.147457	0.710099	-0.143612	-0.208378	0.036211	0.150450	0.437769	0.531153	0.163773	0.067977	0.067560	0.227451	-0.195510	-0.218843	0.305168	0.367610	-0.077953	0.106196	-0.181372	0.146403	-0.017266	-0.376486	-0.039386	0.233451	-0.033776	0.120505	-0.058048	0.341272	0.453213	0.011635	0.114809	-0.418802	-0.284719	-0.143715	0.054139	0.257312	0.505879	0.234887	-0.296258	-0.179889	-0.040179	0.035996	0.623907	-0.158749	-0.273679	-0.206143	0.169953	-0.186270	0.037605	-0.182849	-0.196381	0.034084	0.034254	0.408921	-0.367732	0.163191	0.047561	0.031910	0.041470	0.459272	-0.039418	-0.235305	0.066226	-0.218049	-0.149475	-0.257679	-0.022766	-0.054038	-0.053014	-0.407681	-0.048381	-0.136394	0.010640	-0.012609	-0.063602	-0.208846	-0.188947	-0.048879	0.128370	0.243440	0.200562	0.186225	-0.155271	-0.076604	0.098949	-0.120878	-0.023487	0.085342	0.364463	-0.199916	0.160180	0.211486	0.200274	-0.091735	-0.192560	0.220233	-0.054272	0.012613	0.077413	-0.300862	-0.170718
-0.225202	0.077713	0.525272	0.029478	-0.246798	0.264648	-0.185058	-0.382023	-0.032508	0.350562	-0.172107	-0.416697	0.352624	0.132711	-0.073232	-0.366787	0.246083	-0.035567	-0.299532	0.205289	0.053399	0.277836	-0.170207	0.274443	-0.063873	-0.261279	0.067070	-0.219222	-0.149495	0.023925	-0.144393	0.047122	-0.288760	0.220381	-0.022535	0.086925	0.123996	-0.109656	0.051777	-0.041798	-0.281904	0.212269	0.251032	0.061332	-0.081247	0.148429	-0.052121	-0.052268	-0.074690	-0.108662	0.399948	0.122711	0.330047	0.022646	-0.193295	0.257568	-0.062364	0.132303	0.037158	0.454679	0.033674	-0.008515	0.157264	0.030229	-0.339868	-0.200489	0.090450	-0.060925	-0.063622	0.002090	0.543429	-0.050242	-0.163158	-0.090241	-0.025383	0.128732	-0.164659	-0.076508	0.326169	0.291802	0.033355	-0.225678	0.107310	-0.039276	0.128374	-0.033622	0.198595	-0.166277	-0.060766	0.027082	-0.044204	0.089302	0.329818	0.026296	0.131426	-0.065651	0.233915	-0.323322	0.030308	-0.179186	0.354727	-0.103676	-0.180859	-0.012809	-0.380987	0.080823	0.229538	0.390639	0.276551	-0.140038	-0.057044	0.287841	0.079560	0.018683	0.101333	-0.010960	0.101548	-0.065457	-0.128535	0.171199	0.091867	-0.236128	-0.137673	0.192615	-0.153024	-0.375816	-0.109199	-0.111243
-0.064031	0.102320	0.094278	-0.189909	-0.450602	-0.110524	0.311153	0.361159	0.119702	0.631671	-0.020070	-0.031599	-0.212467	0.097095	0.199026	0.034087	-0.327938	-0.133321	0.211943	-0.241193	0.305460	0.096693	0.009453	-0.121475	0.124298	-0.046952	0.319030	-0.017590	0.188335	0.335073	0.066615	0.134980	-0.045522	0.043006	-0.004694	-0.130760	-0.497996	0.217581	-0.073602	0.525034	-0.410063	0.120954	-0.006409	-0.265993	-0.017280	-0.029075	-0.386726	-0.115067	-0.410888	0.118979	-0.409370	-0.182161	0.352433	0.078828	0.178756	0.006919	-0.155222	-0.072960	-0.200030	0.089703	-0.016273	0.146543	-0.124638	-0.247384	0.060382	0.275789	-0.051115	-0.171537	-0.093303	0.175787	0.371366	0.199688	0.230747	-0.086713	0.072906	0.210371	0.272489	-0.059607	0.055928	0.293676	-0.132271	-0.508769	0.261075	0.312782	-0.403766	-0.285088	-0.118292	0.041924	-0.229479	-0.192146	-0.317751	-0.166055	-0.128907	0.005862	0.018530	-0.168456	0.043649	-0.281081	0.007056	-0.019368	0.040830	0.342069	0.324622	0.030144	-0.198454	0.030487	-0.163577	-0.041871	0.229074	-0.345432	-0.164439	-0.101883	0.097090	-0.178049	0.053597	-0.013195	0.349803	-0.542544	0.094677	-0.385561	0.234209	-0.236333	-0.011981	0.324157	-0.260230	-0.209308	-0.118644	-0.064128
0.378577	0.011270	0.295303	-0.195760	-0.013181	0.376838	0.453521	0.257181	-0.185125	-0.328551	0.341703	-0.176165	-0.114125	0.041800	-0.173046	0.224484	-0.247613	0.135306	-0.032926	0.248192	-0.004463	0.015447	-0.100664	0.286226	0.303544	0.029314	-0.384015	-0.125266	0.102118	-0.155347	-0.183719	0.005956	-0.550513	0.008580	-0.164584	-0.152090	0.342746	-0.263516	-0.273413	-0.026511	0.120149	-0.329518	0.191353	0.103675	0.344335	0.830603	-0.314482	0.214317	-0.165745	0.274026	0.499835	-0.366615	0.103021	-0.203127	-0.211756	-0.182626	0.544223	0.045255	0.196236	0.084083	-0.034238	0.108608	-0.124831	-0.422873	-0.101529	-0.417842	-0.095529	0.012481	0.223681	0.091571	0.121274	0.025923	0.104028	-0.206261	0.065419	0.162272	0.039853	0.042358	0.285374	-0.193476	-0.098710	-0.108990	0.109914	0.008358	0.701641	0.026154	0.140708	0.241530	-0.061974	0.068402	-0.490104	0.171564	-0.313402	0.219155	0.213895	-0.050646	0.212470	0.226000	-0.176327	-0.162705	-0.076762	0.244183	-0.320500	-0.053158	0.109736	0.217361	0.475905	0.218474	0.010675	0.232333	-0.261975	0.285431	0.185763	0.286841	-0.362064	-0.046759	-0.016507	-0.196431	-0.061707	0.155277	0.348161	-0.132051	-0.291560	0.232039	0.215253	0.172092	0.152399	0.189256
-0.293247	-0.299262	0.178730	0.119151	-0.351795	0.167926	-0.201080	0.289238	0.222449	0.752034	-0.063616	0.024042	0.102087	-0.033520	0.519894	0.109585	0.146848	-0.029830	0.254903	0.073862	-0.470502	0.138857	-0.135624	0.326609	0.473426	-0.387375	0.132636	-0.249629	0.281288	-0.304526	0.476622	0.055140	-0.067346	-0.060227	0.060410	-0.018311	0.199652	-0.061162	0.250299	-0.071899	0.056257	-0.086439	-0.243378	0.014007	-0.168473	0.159428	-0.245332	-0.073394	-0.196106	0.156013	-0.051358	0.161704	0.147580	-0.249816	-0.017003	-0.186118	0.234267	0.119357	-0.145487	0.389565	0.027341	0.141715	-0.160833	-0.003343	-0.004284	-0.058635	-0.019723	0.086491	-0.193455	0.060760	0.100121	-0.273346	0.150847	0.309031	0.598146	0.320450	0.167908	-0.009169	-0.067358	0.131484	-0.216619	0.108591	0.122879	-0.153085	-0.038971	0.199130	-0.041451	-0.322842	-0.286208	-0.268021	-0.150228	0.233072	-0.209833	0.028013	0.239492	-0.243021	-0.034282	0.180806	0.001856	0.089667	0.114401	0.009482	0.077921	-0.293404	0.062447	-0.082596	0.232334	-0.049635	-0.020599	0.104255	0.019187	0.172647	-0.110330	0.347814	-0.040040	0.233382	-0.124366	-0.044856	0.112916	-0.083353	0.038016	0.068912	0.241769	0.363483	0.496289	0.034978	-0.296590	-0.098659
0.126190	0.061576	0.480429	-0.183374	0.043234	-0.092121	-0.045916	0.059855	-0.107491	0.070828	0.049184	0.288430	-0.225525	-0.168055	-0.061770	-0.188313	-0.124803	-0.192058	-0.294788	0.039541	0.414538	0.000826	0.086044	0.047443	-0.215874	0.051891	-0.295344	0.346720	0.043484	-0.122481	-0.349657	0.032181	-0.212847	0.002794	-0.074517	0.167838	-0.038998	0.072000	0.304264	-0.094208	-0.089345	-0.108515	-0.161465	0.179843	-0.027262	-0.400454	-0.167407	-0.247651	-0.059540	0.155006	0.048722	0.138513	-0.520317	0.208397	0.001052	-0.027775	-0.041461	-0.081585	-0.147519	-0.129970	-0.128997	0.494512	0.333995	0.123250	-0.107487	0.098883	-0.147644	0.078841	-0.186970	-0.259696	-0.075165	0.168551	-0.076656	-0.361076	0.140629	0.137475	-0.216159	0.253197	-0.450269	-0.123583	-0.161997	-0.058930	-0.076197	-0.118976	-0.143036	0.172478	0.274712	-0.325499	-0.354017	0.141938	-0.029461	0.380414	-0.026882	-0.378279	0.285316	-0.000805	-0.145944	0.251491	0.110537	0.177638	-0.419423	-0.162003	0.010895	-0.072665	0.222535	-0.057719	0.050739	-0.270151	-0.363584	0.151413	0.092015	0.352781	0.423309	0.193398	0.272349	0.420875	0.402608	-0.011332	-0.333460	-0.124742	0.005098	-0.077191	0.468575	0.357296	-0.055182	-0.015559	0.338110	0.089721
0.312103	-0.603705	0.029490	-0.226430	-0.496265	0.215183	0.133592	0.412572	0.048994	0.206370	-0.092284	-0.281448	0.102823	-0.103038	-0.075360	-0.008917	0.235095	-0.175495	-0.019180	-0.239581	0.241810	-0.013194	-0.234192	-0.091880	-0.272953	0.389194	0.037812	-0.280319	-0.214152	0.317849	0.156734	0.076389	-0.486117	-0.034269	0.078518	0.232402	0.482392	0.279864	0.012370	-0.451859	0.173643	-0.033017	-0.188859	0.019661	0.083291	0.280822	0.136828	-0.030764	-0.488650	-0.166694	0.012866	-0.102987	0.179874	-0.394876	-0.086158	0.069022	-0.113076	-0.533884	0.199863	0.429937	0.164418	0.083580	-0.062581	0.076605	-0.058838	-0.346884	0.227998	0.074350	-0.027938	0.036304	0.276231	-0.349156	0.178567	0.148005	-0.123567	0.171740	0.053080	0.167705	0.179886	-0.223877	0.017373	-0.188032	-0.133099	0.002625	-0.012977	0.478028	-0.076157	0.167300	-0.340350	0.034261	-0.038129	0.017018	-0.555409	-0.200052	0.092449	0.188801	0.007170	0.597357	-0.128945	0.081802	0.827277	-0.091524	0.072025	-0.050672	-0.187417	0.596119	0.713352	-0.099930	-0.254862	0.192614	0.076388	0.486946	-0.020029	-0.021404	0.201822	-0.214650	-0.255662	-0.188418	0.454997	0.000130	0.161399	0.481857	-0.218551	-0.137683	0.238441	0.264101	0.008949	-0.197872
-0.253234	-0.174620	0.091712	0.176651	0.136106	0.099675	-0.256369	0.139052	0.189984	0.281944	0.235895	-0.060920	-0.076028	-0.287078	-0.321726	0.395289	-0.237277	-0.048802	-0.312031	0.034863	0.188795	-0.168160	-0.041520	0.155126	-0.318948	0.210835	-0.209190	0.370564	0.124797	0.180980	-0.360335	0.458663	-0.620798	-0.054994	0.148981	0.150542	-0.101363	-0.391392	0.447762	0.183768	-0.696236	0.101035	-0.041677	0.042722	-0.265710	-0.101510	-0.049407	0.056707	-0.197971	-0.279244	-0.262516	-0.134529	-0.332130	-0.150030	-0.235234	0.078576	0.281695	-0.148343	-0.105617	0.072291	0.250661	0.338842	-0.575159	0.023496	-0.113961	-0.062266	-0.113601	-0.122625	0.117733	0.052438	0.597545	0.389450	-0.269659	0.105199	0.003288	0.469634	-0.291967	-0.243728	0.053457	-0.392778	0.228372	0.021806	0.301509	-0.069779	0.149112	0.214600	0.013354	-0.125720	-0.531168	-0.115779	0.052762	-0.278151	0.087859	0.115502	0.192766	0.042289	-0.291468	0.331344	-0.061838	0.011209	0.285443	0.341068	0.200618	-0.201697	-0.080666	-0.008105	-0.182390	0.394380	0.061020	0.025687	-0.100910	0.296699	0.096551	0.362636	-0.419602	-0.254844	0.306822	-0.094775	0.086863	0.140674	0.091883	0.013799	-0.055249	0.128101	0.271429	0.061914	-0.337460	0.207730
0.205884	-0.117159	0.211120	-0.189653	0.027431	-0.229886	-0.394149	-0.002172	-0.129267	0.365515	0.299681	-0.562983	-0.392301	-0.030308	-0.227385	0.011615	0.077262	-0.141483	-0.304227	-0.156684	-0.026923	-0.011469	-0.260475	0.075714	-0.416545	-0.210881	-0.275509	-0.094760	0.213449	-0.087223	0.077250	0.032889	-0.225297	0.017145	-0.199419	-0.164072	0.089771	-0.015869	-0.173347	0.230332	0.007266	-0.405147	0.194839	-0.168270	-0.244077	0.258357	0.071995	-0.167453	-0.311621	-0.078623	0.030647	-0.175795	-0.018802	0.191439	-0.145557	-0.057297	-0.044165	-0.132262	0.028967	0.188266	-0.079509	-0.474192	0.045027	-0.111307	-0.187456	-0.024899	-0.268383	-0.167235	-0.501695	0.098339	0.132417	0.323109	0.373778	-0.326692	-0.130249	-0.280943	0.325569	0.118818	-0.165973	-0.067828	0.059692	-0.163717	0.056697	-0.222625	-0.072419	0.078498	0.551717	0.278481	-0.548473	0.208062	0.242164	0.237585	0.797140	0.152485	-0.164950	0.045627	-0.189142	-0.195812	0.155634	-0.518173	-0.191319	0.543302	-0.221353	-0.080262	0.486511	-0.038057	0.184293	0.096498	0.364601	-0.172919	-0.072516	-0.224144	0.073883	0.282926	0.121408	-0.270239	-0.330361	0.057374	0.379189	0.253711	0.003768	0.176870	-0.267123	-0.060031	0.414932	0.077988	-0.072460	-0.007362
-0.388576	-0.144326	0.790765	0.085499	-0.059461	-0.215081	0.376896	0.244946	0.333957	-0.093050	0.443175	-0.311265	-0.385189	0.002445	0.272295	-0.037026	-0.182862	-0.097104	-0.296188	0.021962	-0.078284	-0.153156	-0.208135	-0.158894	0.276406	-0.055967	-0.185491	-0.213760	0.252308	0.265873	-0.091407	0.298906	-0.022964	0.214606	-0.507582	0.046257	-0.121341	-0.523142	0.109945	0.482088	-0.075694	0.119617	0.514511	0.204568	-0.430390	0.141160	0.059512	0.272796	-0.178329	0.047906	-0.074782	-0.118610	0.225105	-0.435846	0.014348	-0.569912	0.192410	0.136688	0.456634	-0.041602	-0.003811	0.339404	-0.463905	-0.299583	-0.486883	-0.131511	-0.128848	0.286831	0.129620	0.165957	0.404699	-0.351213	-0.136766	-0.041379	-0.180763	0.112049	0.140987	-0.158641	0.232035	-0.333569	-0.242092	-0.592752	0.468798	0.198807	0.082433	0.010696	0.191781	0.303248	0.035806	-0.220690	0.107423	-0.146390	0.049036	-0.536777	0.195742	0.274014	-0.232822	0.213353	0.156416	-0.049895	0.274011	0.079488	-0.019290	-0.106326	-0.121300	-0.021207	-0.061897	-0.052341	0.212863	-0.358551	0.341145	-0.163462	0.238513	0.123254	-0.456063	0.007319	-0.125336	0.061584	0.391890	0.261823	0.264885	-0.069752	-0.104373	0.089058	0.004011	0.112497	-0.165343	-0.132650
0.080072	-0.027806	0.314817	-0.102261	-0.327670	0.166512	-0.119047	0.444629	0.361425	0.244490	-0.328356	-0.308362	0.051674	-0.302900	-0.197450	-0.109368	0.768372	0.371425	-0.099401	-0.222455	-0.269205	0.080006	-0.224516	-0.175590	-0.066086	-0.325221	-0.214743	-0.231328	0.379260	0.483443	-0.310700	0.249981	-0.218730	0.177400	-0.034366	-0.092726	-0.627953	-0.099732	0.104746	0.357755	0.183559	-0.151344	-0.071328	-0.646224	-0.543620	-0.162772	0.028126	-0.017336	0.267424	-0.164257	-0.137318	0.452396	0.109352	0.024359	0.590642	0.279635	-0.069067	-0.116402	-0.060033	-0.262850	-0.328386	-0.193340	0.027879	-0.598762	-0.251512	0.053738	-0.079426	-0.000747	0.128387	0.072308	0.197563	-0.180841	-0.201244	-0.616322	-0.425470	-0.002257	-0.218271	0.224041	-0.146676	0.226230	-0.004202	-0.208644	0.340473	-0.091158	-0.409577	0.380358	0.160224	0.103186	-0.658631	0.029315	0.271584	0.014276	0.009752	0.275240	0.408183	-0.138201	0.382596	0.046466	0.073637	0.051942	0.222069	0.433422	0.351204	-0.638157	0.481833	-0.286184	0.125791	0.094404	-0.159015	-0.191886	-0.171624	0.342576	0.585562	0.187245	0.155173	0.259398	-0.488189	0.243995	0.176486	0.230294	0.019211	0.254419	0.033601	0.293115	0.657776	0.440661	0.124753	-0.091837
0.305891	0.422924	-0.218815	-0.440967	-0.023243	0.097663	0.014021	0.081972	0.031228	0.190017	-0.091568	-0.422830	-0.002116	-0.031535	0.217802	0.053145	0.000901	-0.126971	0.072684	-0.469067	0.180441	0.219948	0.440856	-0.209131	0.198337	0.130674	-0.074908	-0.462738	-0.224080	-0.231646	0.149128	-0.294532	-0.114596	0.330078	-0.196146	-0.113001	-0.233528	-0.144452	-0.023699	0.299109	0.104124	-0.043614	0.064573	-0.438528	0.094021	0.041823	-0.016296	-0.178010	-0.219510	0.414766	0.120168	-0.507922	0.205682	0.076657	-0.620549	-0.409270	0.400424	0.154174	0.173239	-0.109181	-0.084128	0.140006	0.158388	0.082068	0.579666	0.400044	0.051318	0.076694	0.122335	0.214844	0.115268	0.515979	0.044208	0.063562	-0.063354	-0.072979	-0.438312	0.100632	-0.242589	-0.127490	-0.042286	0.050861	0.061856	-0.009699	-0.129736	0.177738	0.080252	0.145250	-0.005407	-0.147328	0.047151	0.136248	-0.060697	-0.212370	-0.243261	0.039693	-0.181769	0.077554	-0.090883	0.273205	0.114227	0.002958	-0.186866	0.005699	-0.594570	0.345856	-0.083393	-0.236462	0.535523	-0.238409	-0.054135	0.207105	-0.012109	-0.068378	-0.421711	0.115427	0.038196	-0.308990	0.389210	0.639068	0.360255	0.022300	0.414751	0.421657	0.011698	0.082687	-0.530700	-0.094514
-0.067620	0.211009	0.273313	-0.210609	0.317856	0.211290	0.137297	0.219874	-0.285773	-0.038990	-0.404552	0.241597	-0.276956	-0.234976	0.227953	-0.077812	0.175913	0.321607	-0.236052	0.221724	0.154330	0.543951	-0.553373	0.059185	0.232273	-0.016369	-0.132662	0.284439	0.164976	0.070559	-0.303967	-0.151407	-0.538211	-0.114084	-0.165187	0.151514	0.521403	-0.259627	0.387769	-0.232004	-0.220165	0.057783	0.631364	-0.308422	-0.279951	-0.034943	0.181939	-0.154818	-0.146479	0.340825	0.510783	-0.291426	-0.454262	0.159400	0.147652	0.168524	-0.247888	-0.099511	0.228446	0.376150	0.106731	0.303398	-0.015171	-0.124113	0.158813	-0.058395	-0.206682	-0.139520	0.126173	0.497082	0.170682	-0.025121	0.078172	0.148906	-0.195090	0.243611	0.056971	-0.102287	0.048812	0.104410	0.044565	-0.113794	-0.071784	-0.454382	-0.080420	-0.222441	0.434140	0.366717	-0.035149	-0.175665	0.125993	-0.268247	0.091424	-0.289573	0.022693	0.414544	-0.189604	0.542191	0.025514	-0.173498	0.075335	-0.246909	0.078091	0.016004	-0.054049	0.100561	-0.181363	0.344407	0.059224	0.063074	0.101301	0.112089	0.170500	0.084009	-0.394880	-0.418192	-0.158700	-0.344715	0.300642	0.302950	0.039059	0.478534	-0.275397	-0.132378	0.266677	0.291518	-0.087401	0.129179
-0.462079	0.162845	0.002084	0.058858	-0.334540	0.047227	0.377663	0.407388	-0.089750	0.429959	-0.061252	-0.271644	0.084117	0.232839	0.011943	0.239650	0.082206	-0.218914	0.236316	-0.354206	-0.146796	-0.120115	0.122954	0.026671	-0.419962	-0.402405	0.207639	0.225948	0.250065	0.105428	0.333232	-0.195050	-0.250328	-0.480350	-0.168626	0.287185	-0.070928	-0.489798	-0.084436	-0.062832	-0.024989	0.384719	0.155887	-0.027310	0.481056	0.067750	-0.034483	0.147165	0.087460	0.273698	-0.418802	-0.008992	-0.284771	-0.412745	-0.195157	-0.139329	0.334038	0.357198	0.080881	-0.188790	0.355508	0.372120	0.180597	0.256928	-0.005328	-0.129412	-0.199669	0.017224	-0.126239	0.340861	0.067639	-0.232809	0.058299	0.226351	-0.220846	-0.232469	-0.282485	-0.186638	0.478451	0.116222	0.005773	0.069461	-0.194323	-0.262315	-0.420296	0.100910	-0.241326	-0.077839	-0.010864	0.099448	-0.162191	0.004040	0.118672	-0.217406	-0.035423	0.068241	0.112116	0.195614	0.101643	0.100047	0.511415	0.443806	0.057008	0.010258	0.426312	-0.299640	0.080639	0.194922	0.345612	0.142205	0.376884	0.013164	0.215527	0.124465	0.055220	0.141066	0.026349	0.246033	0.064036	0.522478	0.082860	0.084193	-0.059924	0.262387	0.356031	0.060172	-0.303009	-0.044310
0.182710	0.100227	0.547623	-0.142980	-0.085296	-0.346031	0.002711	0.136542	-0.119308	-0.116726	0.030638	-0.304179	-0.116410	-0.079377	0.081842	-0.219549	-0.229039	-0.253323	-0.228996	-0.587926	0.484655	0.357278	0.118830	0.283025	-0.075208	0.189845	-0.334014	0.174492	-0.078672	0.074770	0.400941	-0.067912	-0.148763	-0.169142	-0.552454	0.463358	0.202286	-0.022483	-0.051643	-0.065979	-0.302506	0.086037	0.103330	0.037400	-0.028894	0.016974	-0.332301	-0.240617	-0.221215	0.538629	0.019353	-0.086974	-0.171308	-0.331608	0.239200	-0.205351	-0.031064	0.385053	0.290492	0.297421	0.123807	0.068387	-0.128811	0.452048	-0.097485	0.163449	-0.044112	-0.153867	-0.068365	-0.033083	0.289090	0.144940	0.036356	-0.018002	0.216931	0.293817	-0.141593	0.167327	0.081090	0.211688	0.306310	-0.311709	-0.478635	-0.073214	-0.036476	-0.134947	0.247109	-0.002659	-0.670820	0.176453	-0.367284	0.796414	0.061709	-0.514898	0.191351	-0.137800	-0.132258	0.253805	-0.102040	-0.121460	-0.075137	0.006666	0.166456	-0.337839	0.185524	-0.021878	-0.309920	0.096006	-0.311909	-0.163774	-0.147096	0.152774	0.278980	0.032749	-0.197846	0.308654	0.008879	-0.184587	0.142390	-0.233492	0.390594	-0.231800	-0.008232	0.247796	-0.008840	0.025686	0.177271	-0.108188
-0.128826	-0.178549	0.015615	0.140636	-0.080695	0.604570	-0.001134	0.474379	0.316140	0.220856	0.168367	-0.059658	-0.617370	0.131366	0.743149	-0.404139	-0.232960	0.048886	-0.114939	0.016363	-0.310560	0.118326	0.100320	0.042299	-0.249804	0.109810	0.064904	0.271537	0.176424	-0.123162	0.366062	0.024309	-0.147411	-0.099123	-0.106799	-0.063792	-0.268220	-0.373918	0.243620	-0.089229	0.137137	0.103605	-0.069766	-0.285184	-0.242146	0.127319	-0.042238	0.294703	0.248102	-0.007818	-0.052598	0.012333	-0.272817	-0.278398	-0.202780	0.085822	0.443207	-0.067338	0.063205	0.389222	0.010110	-0.280968	0.290372	-0.094686	0.090093	0.102569	-0.098420	-0.375603	-0.043118	0.041089	0.065121	0.363343	-0.019578	0.002875	0.246266	-0.016784	0.079942	0.254716	0.071331	-0.073445	-0.104786	0.068217	0.306723	-0.012639	0.109271	-0.036982	-0.291580	-0.197033	-0.069742	-0.275807	-0.268694	0.132497	0.282660	-0.196092	0.297851	0.009118	-0.107478	0.219030	0.195259	-0.021246	-0.071066	-0.233573	-0.118651	-0.489932	-0.080516	-0.393250	0.034205	-0.044164	0.134723	0.662420	0.215994	0.239277	0.140742	0.229906	-0.727118	0.272275	0.209569	0.125933	0.405986	0.107522	0.310638	0.149477	-0.021091	-0.219419	-0.041888	-0.146523	-0.214967	0.247685
-0.154698	0.188435	0.055684	-0.159580	0.313446	-0.160685	-0.554097	0.365299	-0.269780	0.361375	0.211917	-0.208506	-0.110284	0.032692	0.093148	-0.131690	-0.192132	0.105182	-0.154597	-0.228788	-0.106326	0.381636	0.124522	0.009206	0.375528	-0.309428	0.126398	0.213238	0.292580	0.160549	0.249579	-0.113161	0.091012	0.164761	-0.089700	-0.111012	0.173200	-0.073420	-0.426194	0.323106	-0.095657	-0.027779	0.089393	-0.147037	-0.225270	0.221078	-0.106036	-0.142692	-0.076771	0.176331	0.395571	0.617990	0.279296	-0.257563	-0.439285	-0.062895	0.373778	0.181290	0.164344	-0.088424	0.155051	0.242999	0.003227	-0.248267	0.030565	0.093043	-0.075180	0.009682	-0.203558	0.121064	0.160193	-0.317243	0.183309	0.281302	-0.017188	0.032428	-0.052098	-0.577813	-0.193507	0.165877	0.244356	-0.088682	-0.019088	0.039919	-0.261070	-0.050000	-0.024518	-0.045081	-0.422499	0.242280	-0.431608	0.004049	0.174153	0.204938	-0.310363	0.108127	-0.222154	0.384971	-0.290384	-0.014007	-0.160737	-0.052973	-0.223743	0.118267	0.094167	0.120036	-0.064996	0.027407	0.118622	0.114393	0.158175	-0.116081	0.488180	0.192980	0.075238	0.125593	-0.117024	-0.037511	0.146779	0.125100	-0.090291	0.177448	0.210749	-0.052869	0.496340	-0.148835	-0.018794	0.326535
-0.036742	-0.202274	-0.019372	0.363996	0.520028	0.368134	-0.271562	0.310505	0.471600	0.035471	-0.812802	-0.166721	0.451828	0.357906	-0.223595	0.112406	-0.247340	0.064866	0.003169	-0.375134	0.191693	-0.078892	-0.490769	0.299947	-0.051436	0.000767	-0.211898	0.020084	0.011549	-0.093873	-0.271843	0.271943	-0.140886	0.054147	-0.239992	-0.423454	0.217651	-0.107364	-0.118013	-0.448614	0.311896	-0.019993	0.457344	-0.310227	-0.288217	-0.004923	-0.197207	0.238038	0.390906	-0.066059	-0.169756	-0.242781	-0.152355	-0.297459	-0.157272	0.417544	0.044300	-0.277097	-0.177410	-0.070849	0.043657	0.170288	0.119635	0.108085	0.617687	-0.214300	0.198143	-0.275201	-0.428100	0.155802	0.214090	-0.011611	0.163868	0.134434	-0.153154	0.000936	0.265947	-0.004423	0.038394	-0.117891	0.270437	0.506739	0.556406	-0.245173	0.003794	-0.234509	0.159669	0.395888	-0.014218	0.054290	-0.644074	-0.083743	-0.458925	-0.570271	-0.052852	-0.117477	-0.142091	0.360056	0.477033	-0.082447	0.277007	0.086780	-0.098065	-0.245431	-0.165803	0.023846	-0.263106	-0.026668	-0.241794	-0.079654	0.139705	-0.048345	-0.241051	0.539574	0.373597	0.329369	0.161446	-0.703059	-0.137660	0.099067	0.463332	0.432780	-0.068710	-0.148765	-0.014831	-0.042660	0.121757	0.115308
0.046480	-0.174351	0.600242	0.040920	-0.001053	-0.241721	0.050229	0.129754	-0.258398	0.322526	-0.508294	-0.029997	0.057702	0.073584	0.240394	-0.349595	-0.128963	0.016061	-0.316694	-0.390065	-0.068829	-0.048425	0.002099	0.291265	0.529899	-0.057352	0.052566	0.107230	-0.075034	0.071684	0.361935	0.081633	0.442746	0.154391	-0.100643	-0.022158	0.308124	-0.244142	0.145104	-0.076070	-0.468374	0.340999	0.074150	-0.513685	-0.035043	0.030727	-0.126992	-0.065457	-0.256621	-0.145759	-0.156674	-0.211435	-0.104259	-0.308500	-0.029191	0.147418	-0.426320	0.567918	-0.207473	0.230043	-0.146146	0.199443	-0.175853	-0.001241	-0.019722	-0.522410	0.098238	-0.300125	-0.259239	0.184994	0.159445	-0.324590	0.183154	0.104809	0.557874	0.466810	-0.419959	0.039810	-0.264096	0.156284	0.161328	0.124324	-0.075203	-0.061332	-0.238354	0.109620	0.224824	0.471353	-0.405200	0.163712	-0.220949	0.065956	0.338733	0.014614	0.496857	-0.055074	-0.298968	0.145729	-0.049436	-0.026055	0.260139	-0.000908	-0.041050	-0.296406	0.037062	-0.022299	0.021051	0.107381	0.017037	-0.129261	-0.176946	0.241520	-0.141805	0.162944	-0.202293	-0.105095	0.223252	-0.219896	-0.096481	0.249247	0.138405	-0.081942	-0.149394	0.066602	0.549072	0.048543	0.148115	-0.369463
0.013947	-0.106719	-0.168062	-0.387917	-0.077633	0.231795	-0.100549	0.134016	0.049882	0.497534	-0.339627	-0.174978	0.099424	-0.042941	-0.001169	-0.142885	0.416658	-0.065753	0.083145	0.227952	-0.298595	0.086491	-0.368258	0.133653	-0.395627	-0.029926	-0.104206	0.233214	0.606359	-0.092170	-0.008918	-0.220270	-0.174537	0.111750	0.102875	-0.111381	-0.300183	-0.192843	-0.218470	0.120719	0.555291	-0.167949	0.038345	-0.302065	0.065986	0.207417	-0.078151	0.009064	0.037178	-0.223666	-0.265503	0.219981	-0.431875	0.122618	-0.035224	0.147587	0.122674	-0.177463	-0.375457	-0.066819	0.184969	0.045686	0.135823	0.223180	0.232046	-0.252785	-0.195218	-0.284202	-0.066639	0.124221	-0.230795	0.229575	0.195158	0.020191	-0.018875	-0.333894	-0.101304	-0.011329	-0.104764	0.409507	-0.117876	0.188394	0.057524	-0.367065	-0.028834	0.235958	-0.005433	0.383636	-0.046609	0.046392	-0.415220	0.258420	0.226762	0.309975	-0.126456	0.166190	0.037667	0.179740	-0.169092	-0.151625	0.275059	-0.169330	-0.121776	-0.170515	0.383400	0.026436	0.286432	0.260739	0.002546	-0.161767	0.168936	0.343329	0.249178	0.253332	0.011886	-0.101799	0.165378	-0.152981	0.130159	0.032250	-0.062158	0.302292	0.186065	-0.339711	0.093208	0.356914	0.098373	-0.090108
-0.135665	0.305013	0.219213	0.171125	-0.192882	-0.431063	0.129603	-0.161723	0.196170	0.014751	-0.177166	-0.547680	-0.280113	-0.110951	-0.071658	-0.450055	0.093744	-0.100164	-0.138850	-0.276550	0.369731	-0.201136	-0.608113	-0.288866	-0.472989	-0.157504	0.186824	-0.117136	0.043129	0.184335	0.309199	-0.589597	0.069619	0.051975	-0.049221	-0.219259	0.449759	0.191323	0.408835	-0.517341	0.202306	-0.069958	0.707844	-0.475132	-0.305174	0.170289	-0.343993	0.495502	-0.068530	0.028158	0.186837	0.283558	-0.348502	-0.142857	-0.321630	-0.067210	-0.053295	-0.253768	-0.065216	-0.152283	-0.470088	-0.270906	-0.101188	0.009048	0.477079	-0.060248	-0.314568	-0.175118	0.075454	0.065981	0.081518	0.155186	-0.223771	-0.235810	0.020923	-0.109513	-0.143850	0.145523	-0.565286	0.098589	0.102256	0.381570	0.460748	-0.051594	0.052908	-0.092829	0.037665	0.217242	0.409373	0.159350	0.170449	0.081709	-0.282026	-0.049394	0.395979	-0.012081	-0.272961	-0.154405	0.136054	-0.435535	0.751259	0.090678	-0.051418	-0.010266	0.027827	-0.240306	-0.257805	0.365811	0.019774	-0.700780	-0.678768	0.390746	-0.390341	-0.046179	-0.169247	0.067234	0.092397	0.025723	-0.524104	-0.390218	-0.020977	0.015458	0.388016	0.518480	0.060134	0.155624	-0.006603	0.472446
0.146725	-0.131886	0.040385	-0.050855	-0.039571	0.131370	0.129800	-0.243135	-0.078392	-0.144493	0.048650	-0.141046	0.155745	-0.187315	-0.395652	0.456831	0.474491	-0.263588	0.125422	0.252446	0.146457	0.049997	-0.116776	0.213802	-0.202218	0.191196	0.101341	0.058395	-0.139285	-0.493382	-0.144991	-0.642048	-0.223600	-0.009476	0.370745	-0.084306	-0.240212	0.080546	-0.053061	0.355269	0.180055	-0.233766	-0.377350	0.273660	-0.057667	-0.296761	0.193814	-0.186462	0.120963	0.053432	-0.265907	-0.719311	0.158182	-0.002851	-0.002644	0.068720	-0.252303	-0.150931	-0.058404	-0.261934	-0.115071	-0.140758	-0.026746	-0.390470	-0.017680	0.371857	-0.186000	-0.074384	0.204680	0.045817	-0.015517	0.167351	0.298625	-0.121886	-0.253402	-0.297043	0.177888	-0.199216	-0.018222	0.052724	0.057007	-0.672220	-0.014902	0.056181	0.173052	-0.121728	0.121726	0.019845	0.294045	-0.280324	-0.313546	0.163884	-0.134073	0.117770	0.209179	-0.228993	0.413113	0.020411	0.340444	0.255651	0.459880	-0.544515	0.360633	-0.491663	0.024868	0.604728	0.111770	-0.282585	-0.242628	-0.025887	0.204824	-0.015376	-0.093859	-0.144543	0.250483	-0.085381	-0.016992	-0.314991	0.261506	-0.115902	0.113435	0.087351	-0.155040	-0.232078	-0.342518	0.293779	-0.175624	0.305432
-0.081619	-0.117979	0.452610	0.394405	-0.355642	0.098034	-0.321420	-0.021458	-0.071438	0.433398	-0.253859	-0.211816	-0.378603	0.037902	-0.347129	-0.246756	-0.294753	-0.181014	-0.542645	-0.565689	0.289088	0.061996	0.300548	0.032006	0.039875	0.117473	-0.028728	0.354068	0.342005	0.324414	-0.168869	-0.259683	0.201177	0.220537	-0.203633	0.450969	0.349860	0.177730	-0.041535	-0.307060	0.022598	-0.171248	0.322224	-0.459146	0.145011	0.433247	-0.266381	-0.083399	-0.068850	0.197375	0.224627	0.378657	-0.222251	-0.165642	-0.038170	-0.008685	0.269199	-0.301202	0.032766	0.209398	-0.271013	-0.138865	-0.168088	-0.104441	0.050256	-0.122916	-0.001658	0.300322	-0.298400	0.108548	0.798540	-0.058173	0.139727	-0.167661	0.086938	0.348797	0.306967	-0.397328	-0.173651	0.341811	0.160260	0.084758	0.266367	-0.152255	0.159093	-0.010013	-0.315344	-0.253816	-0.144185	-0.415680	-0.145679	-0.110018	0.299589	-0.241088	0.063269	0.154440	-0.509546	0.023757	0.180220	-0.352246	0.330622	-0.158778	0.071998	-0.265470	0.155654	0.130056	-0.072040	0.221389	-0.243861	-0.146411	-0.224206	0.120493	0.197239	0.211749	-0.635946	0.096785	-0.043590	-0.060904	0.086349	0.055682	0.512527	0.212606	-0.074292	0.081831	0.146911	-0.045389	-0.035690	0.421536
0.187957	-0.616689	-0.647966	-0.309138	0.277289	0.149950	-0.035087	0.121808	0.016746	0.001258	-0.268139	-0.355934	0.048868	0.071850	0.464729	-0.274734	0.501989	-0.116745	0.168226	0.233448	-0.241587	0.205975	0.106745	0.068155	-0.014075	-0.143587	0.012957	0.256948	0.366652	0.518685	-0.270483	-0.031011	-0.597218	0.837098	0.213587	0.240835	-0.065083	-0.177438	-0.040630	0.282651	0.354157	-0.786418	0.155659	-0.592547	-0.118427	0.539903	0.088942	-0.089162	0.313537	-0.218165	-0.185594	0.360661	-0.115733	-0.061816	0.002540	0.075196	0.230547	0.332680	0.083957	-0.193910	-0.075920	-0.134557	0.072508	-0.212552	0.384300	-0.112517	0.465745	-0.084519	0.147046	0.118564	-0.160668	0.004517	-0.016307	0.700705	0.172270	-0.022326	0.168645	0.062973	-0.496193	0.100028	-0.348893	-0.461299	0.050461	-0.233152	0.158519	0.338328	0.188300	0.505972	0.252876	0.130766	-0.130703	0.145486	0.341521	-0.080434	-0.409485	-0.125495	0.023923	0.224092	0.151087	-0.163039	-0.115530	-0.072291	-0.100092	-0.199381	-0.147693	0.199785	0.079228	0.086942	0.180454	-0.440533	0.445124	0.488366	0.236696	0.129381	-0.404956	0.195624	0.190710	0.454638	-0.147727	-0.024130	-0.136320	-0.071006	-0.243002	-0.289132	-0.153967	0.111615	0.209414	-0.306486
0.002137	0.034229	0.231072	-0.444823	0.293921	-0.003198	-0.209058	0.431758	0.182416	0.060737	0.131205	-0.220124	0.181634	0.145326	0.287416	0.095662	0.048838	-0.005547	-0.304949	-0.458483	-0.145537	0.180209	0.049919	0.301850	0.222388	-0.125037	0.074737	0.165469	0.278777	-0.000399	0.288989	0.422208	-0.253132	0.674322	-0.189469	0.322251	0.201757	0.034967	-0.125316	0.198372	-0.324089	-0.529655	0.526269	-0.258119	-0.004369	0.358531	-0.160359	-0.251505	-0.338581	0.164081	0.609463	0.029083	-0.256486	-0.102561	0.085540	0.126954	-0.221197	0.099508	0.125596	0.020288	0.012348	0.666894	0.008920	-0.353139	-0.097133	-0.638830	-0.082843	0.687241	0.100515	0.237072	0.345947	-0.024904	0.067665	0.036804	-0.038808	0.474892	0.051594	-0.012549	0.046353	0.221249	0.075848	0.187072	-0.451790	0.174917	-0.057028	-0.001805	0.329642	0.245825	-0.260323	0.144280	0.080083	-0.090838	-0.001789	-0.190954	-0.570161	0.541684	-0.180293	0.377144	-0.232755	-0.079558	-0.028170	0.021425	-0.192104	0.035451	0.071313	-0.022906	0.153662	-0.111492	-0.166098	-0.030425	0.069638	0.205888	0.305941	0.431421	-0.598105	-0.019399	-0.463746	0.455658	-0.193364	-0.039129	0.226771	-0.041404	-0.106633	-0.064228	-0.204178	0.109628	0.081228	0.269958
0.154018	-0.109785	-0.363877	-0.154103	0.176245	0.353148	0.011326	0.190062	0.311283	0.548292	-0.344703	0.009633	0.283484	0.213222	0.282875	-0.335708	0.289221	0.057103	0.036935	0.227781	-0.402462	0.037023	-0.025587	0.233506	-0.217689	0.118075	0.044053	0.471000	0.358463	0.174629	-0.093144	0.077332	-0.309811	0.267353	0.263854	0.112499	-0.051157	-0.153316	-0.228394	0.077826	0.469465	-0.140398	0.229739	-0.302391	-0.000873	0.529124	0.327946	-0.340264	0.157961	-0.351435	0.002409	0.335636	0.101079	-0.195801	0.113306	0.388861	0.042681	0.502085	-0.218348	-0.158270	0.105871	-0.079802	0.281331	0.164353	0.382797	0.052387	0.170652	-0.431040	0.088468	0.084941	-0.480696	0.481163	0.089226	0.280925	0.153208	-0.151130	0.327004	-0.046020	-0.300227	-0.037291	-0.241388	0.197078	0.226175	-0.080976	0.152302	-0.044771	0.060961	0.451570	0.238820	-0.210000	-0.091598	0.067725	0.169704	-0.517745	-0.509976	0.002037	0.065255	0.412263	0.020327	-0.230317	0.144989	-0.239179	-0.165186	-0.001636	0.035038	-0.013742	0.111754	0.612955	0.088242	-0.352876	0.219126	0.536362	0.163869	0.197274	-0.236097	0.303650	0.017471	-0.112012	-0.239246	-0.102418	0.236665	0.205503	0.016793	-0.226839	-0.220823	0.461527	0.611913	-0.451326
-0.218894	0.003503	-0.097243	0.400431	-0.269081	-0.327568	-0.212208	0.463850	-0.188909	0.394880	0.322759	-0.354423	0.245083	0.042241	-0.241187	-0.251869	-0.425128	-0.132230	0.092768	-0.218700	0.177753	0.048554	-0.081878	0.132997	0.016400	-0.191727	-0.170393	-0.041828	0.308702	0.059626	0.134557	0.248544	-0.143356	0.227692	-0.512979	-0.108502	0.409970	0.064898	-0.555032	0.408490	0.119638	0.672954	-0.142202	-0.144759	0.090991	0.004215	0.012807	0.394771	0.290452	-0.356047	-0.277145	-0.619759	0.014125	-0.297055	0.245912	0.073639	-0.213365	-0.017745	0.097804	0.113388	-0.101454	-0.225614	-0.359594	0.225549	-0.271241	-0.176131	-0.056443	-0.322217	0.036607	0.049571	0.024258	0.338253	-0.101267	-0.000138	-0.213478	-0.009017	0.237909	0.084188	-0.191482	0.197458	0.462982	-0.232174	0.050352	-0.033258	0.000216	0.135244	-0.175419	-0.061077	-0.290940	0.280707	0.143063	0.512730	-0.376030	0.122837	0.269343	0.228786	0.032341	0.162840	-0.222807	-0.109828	0.085925	-0.082692	0.045270	0.788357	0.002962	0.153566	0.197119	0.245237	0.439432	0.271835	0.123571	0.136840	0.288975	-0.146566	0.209352	-0.215635	-0.023361	-0.138872	0.439668	0.243529	0.096881	-0.226848	0.380571	-0.209963	-0.137881	-0.068020	-0.051374	0.027193
0.172178	-0.138574	-0.387609	-0.254126	0.223413	0.343726	-0.029986	0.035073	0.110493	0.531930	-0.378738	0.203215	0.300390	0.157457	0.530118	-0.157013	0.232354	0.040136	0.017106	0.251327	-0.410619	0.146806	-0.140003	0.085211	-0.263650	0.024587	-0.107941	0.465042	0.352401	0.026540	0.066100	0.027767	-0.260869	0.236077	0.220498	0.200311	-0.018509	-0.053619	-0.137900	0.259488	0.359995	-0.198531	0.518563	-0.274018	0.069760	0.406447	0.322939	-0.296068	-0.011692	-0.396948	-0.116152	0.258723	0.034727	-0.046492	0.132556	0.263499	-0.033198	0.244929	-0.357278	0.024751	0.233268	-0.083643	0.215651	0.094096	0.285253	-0.131766	-0.018569	-0.369465	0.267715	0.053712	-0.520124	0.381454	0.099234	0.292846	0.020936	-0.018929	0.141768	-0.151116	-0.378799	0.218226	-0.177442	0.251402	0.014332	-0.105431	0.045298	0.078690	-0.076999	0.526319	0.099641	-0.231521	-0.359623	0.179314	0.155299	-0.198039	-0.313459	0.020583	-0.082173	0.354249	-0.028986	-0.239055	0.107298	-0.301724	-0.309611	-0.018460	0.174918	0.046289	0.131682	0.531475	0.337691	-0.271357	0.142175	0.502963	0.251084	0.182890	-0.237696	0.047941	0.162022	0.121638	0.010465	0.130043	0.263315	0.281527	0.070349	-0.384239	-0.241241	0.180900	0.456628	-0.235328
-0.023000	-0.118856	-0.512431	-0.069916	0.197111	0.401288	0.011605	0.344184	0.357921	0.485215	-0.457257	-0.000695	0.516285	0.219008	0.475607	-0.372401	0.111797	-0.003874	0.084577	0.053372	-0.351050	0.355946	-0.137705	0.013069	-0.212509	0.157030	-0.053991	0.354156	0.262390	0.208745	-0.101035	0.180513	-0.086528	0.217981	0.141051	0.069187	0.086081	-0.110296	-0.134228	0.195997	0.486183	-0.351730	0.329091	-0.472156	-0.002948	0.293860	0.334194	-0.107146	0.115809	-0.259940	-0.108835	0.170565	0.101850	-0.214654	0.109894	0.253856	0.189163	0.343266	-0.398001	-0.140609	0.105975	-0.026215	0.135800	0.121919	0.365445	0.038146	0.193656	-0.348843	0.241406	0.019801	-0.385960	0.452763	-0.030943	0.287968	0.099306	-0.154183	0.284158	-0.114421	-0.371223	0.029004	-0.237551	0.072965	0.431230	-0.096229	0.173837	0.019720	0.100835	0.349130	0.077186	-0.218422	-0.140202	-0.038464	0.085243	-0.563288	-0.317287	0.076102	-0.060897	0.156998	-0.046370	-0.127553	0.024236	-0.365275	-0.482561	-0.015996	0.128573	-0.051914	0.167057	0.590034	0.112680	-0.351328	0.133238	0.603032	0.313674	0.222651	-0.331060	0.254939	0.116485	-0.310169	-0.098290	-0.041938	0.172191	0.475886	0.060907	-0.224491	-0.306843	0.259174	0.507282	-0.378119
0.037091	-0.045053	-0.602977	-0.224139	0.200909	0.366363	-0.086092	0.101711	0.280707	0.547937	-0.287028	-0.039791	0.284426	0.143571	0.483415	-0.318865	0.359588	0.130189	0.009316	0.181969	-0.450811	0.073710	-0.217880	0.096693	-0.349686	0.225014	-0.042620	0.388849	0.260988	0.078489	-0.144012	0.058070	-0.156683	0.335192	0.301818	0.245596	-0.014687	-0.177853	-0.170822	0.219601	0.397866	-0.201695	0.426518	-0.422956	0.133280	0.387345	0.391793	-0.168784	0.092853	-0.383224	-0.045728	0.398652	0.006961	-0.046833	-0.026609	0.212183	0.152806	0.363670	-0.328061	-0.036310	0.207255	0.060011	0.217135	-0.011457	0.270763	-0.098100	0.095207	-0.360037	0.266083	0.085626	-0.460294	0.361650	0.011871	0.260561	0.171729	-0.140057	0.089730	-0.161076	-0.247562	0.102150	-0.238241	0.078266	-0.075443	-0.212117	0.237279	0.107473	0.038531	0.504552	0.081004	-0.145050	-0.074644	0.083456	0.090631	-0.345761	-0.315851	0.147624	-0.124491	0.265766	-0.046596	-0.134104	0.003688	-0.313708	-0.253073	0.108778	0.138364	0.067241	0.043634	0.502724	0.224683	-0.346915	0.025580	0.370709	0.301086	0.194651	-0.331212	0.221787	0.234613	0.046213	-0.108923	0.092939	0.189583	0.367502	0.029855	-0.456782	-0.093671	0.243634	0.458518	-0.225665
0.010770	-0.216328	-0.653318	-0.214278	0.221413	0.340690	-0.184419	0.108242	0.238821	0.477798	-0.087019	-0.038098	0.320880	0.152006	0.435599	-0.163188	0.167079	0.235494	0.106755	0.274771	-0.240354	0.400174	-0.130400	0.083923	-0.303669	-0.102944	-0.017888	-0.051621	0.164976	0.000014	-0.044845	0.068306	-0.337266	0.182707	0.128660	0.143438	0.030374	-0.123274	0.067375	0.161080	0.395731	-0.225763	0.325529	-0.640350	0.089204	0.259888	0.117465	-0.026094	0.194068	-0.422211	-0.273988	0.104673	0.234918	-0.352041	0.081495	0.104170	0.174460	0.166314	-0.158916	0.181748	0.147889	-0.152210	-0.095647	-0.021722	0.014649	-0.306760	0.128323	-0.379294	0.346308	-0.037369	-0.453545	0.099948	-0.004550	0.063989	0.042234	-0.127965	0.461204	-0.128796	-0.160182	0.163983	-0.217433	-0.029280	0.048259	-0.078501	0.333505	0.067851	0.076102	0.565338	0.167532	-0.354086	-0.090538	-0.031210	-0.298392	-0.169189	-0.245139	0.187832	0.085939	0.273563	-0.327930	-0.086629	-0.108594	-0.526412	-0.434320	0.318172	-0.002810	0.226779	0.028470	0.255686	0.564842	-0.354802	0.045061	0.502101	0.285858	0.125761	-0.271987	0.213641	-0.034698	-0.025902	-0.096294	-0.014927	0.158494	0.215048	-0.117652	-0.678271	-0.264326	0.236765	0.278095	-0.317413
0.052509	-0.066979	-0.547558	-0.087781	0.159729	0.312987	-0.103295	0.136633	0.265994	0.552579	-0.264338	-0.071283	0.247174	0.177423	0.464675	-0.161602	0.343490	0.086748	0.204088	0.246891	-0.269001	0.224826	-0.196176	0.086441	-0.314299	0.067746	-0.015680	0.188458	0.261411	0.102086	-0.048357	0.002032	-0.319377	0.309583	0.113252	0.167860	0.133775	-0.039295	-0.150334	0.032251	0.317756	-0.354449	0.371363	-0.402956	-0.094132	0.321558	0.125985	-0.068643	0.185556	-0.382224	-0.037476	0.222908	0.120151	-0.180695	0.062355	0.204663	0.005410	0.186251	-0.249817	-0.082958	0.181874	-0.056236	0.188252	-0.142257	0.159201	-0.133423	0.110430	-0.289088	0.240333	0.090500	-0.433920	0.272955	0.123182	0.240599	0.124306	-0.234434	0.231565	-0.154926	-0.305200	0.165850	-0.228735	0.024705	0.025883	-0.040352	0.173606	0.160693	0.152430	0.393737	0.061817	-0.258976	-0.012014	0.185894	-0.057413	-0.291292	-0.317145	0.240686	-0.042300	0.311316	-0.102735	-0.196000	-0.063267	-0.464235	-0.241977	0.036554	0.242310	0.066073	0.037077	0.375852	0.286636	-0.202920	0.180667	0.374376	0.299718	0.151454	-0.271864	0.113759	-0.052621	-0.107899	-0.055077	0.088834	0.144115	0.443983	-0.127952	-0.433273	-0.130808	0.149886	0.285506	-0.229090
-0.060877	-0.074998	-0.482912	-0.021831	0.214505	0.308229	-0.051228	0.118891	0.305667	0.487054	-0.260507	0.092000	0.256976	0.204669	0.530432	-0.343073	0.246039	0.092818	0.126863	0.127378	-0.263894	0.131646	-0.206274	0.083120	-0.336334	0.167200	-0.108310	0.164148	0.227272	0.137315	-0.228877	0.125622	-0.239430	0.267024	0.260189	0.153822	0.038170	-0.031181	-0.142547	0.095543	0.283742	-0.206201	0.249997	-0.418188	0.010208	0.223150	0.341879	-0.083620	0.016537	-0.344273	-0.062172	0.215785	0.100678	-0.147891	0.049279	0.219171	0.002058	0.252367	-0.355263	0.045257	0.311356	-0.126507	0.131000	-0.054177	0.130469	0.058440	0.124284	-0.497196	0.371984	0.104348	-0.420580	0.324136	-0.035617	0.226487	0.128955	-0.068253	0.178115	-0.242727	-0.224533	0.086434	-0.154741	-0.013193	0.201633	-0.111940	0.255737	0.149314	0.033629	0.393771	0.065852	-0.265054	-0.051700	0.034284	-0.050399	-0.404249	-0.288266	0.206721	-0.106986	0.265516	-0.178755	-0.125912	0.038069	-0.372300	-0.321383	-0.045813	0.203577	0.042199	0.071617	0.471018	0.321250	-0.246125	0.100367	0.429485	0.290319	0.215258	-0.216942	0.218488	0.046625	-0.143096	0.092584	0.202541	0.234739	0.317080	0.074768	-0.381954	-0.143789	0.014583	0.475889	-0.201366
0.026255	-0.242613	-0.496501	-0.105534	0.164214	0.290629	0.080195	0.242532	0.275675	0.521094	-0.155639	-0.059011	0.263287	0.140030	0.499962	-0.315315	0.291338	0.066730	0.072224	0.108491	-0.334724	0.202899	-0.254350	0.017539	-0.261578	-0.050864	-0.018973	0.331837	0.301593	0.290161	-0.044254	-0.001386	-0.235038	0.361987	0.332633	0.058153	0.146338	0.049431	-0.144292	0.088908	0.313165	-0.226691	0.339266	-0.517800	-0.145279	0.436306	0.176915	-0.095184	0.115533	-0.303543	-0.077290	0.263544	0.100803	-0.303864	0.019905	0.205218	-0.007820	0.311572	-0.210480	-0.012249	0.277168	-0.016855	0.277936	-0.085792	0.154002	-0.058183	0.117261	-0.602668	0.232213	0.208623	-0.496027	0.310927	-0.054327	0.394804	0.185673	-0.110166	0.221951	-0.188318	-0.310432	0.136886	-0.306898	0.020135	0.044531	-0.082359	0.235846	0.055530	-0.058371	0.433086	0.007052	-0.319438	-0.085250	0.090261	0.041580	-0.352603	-0.260550	0.126013	-0.040522	0.354111	-0.047457	-0.172989	0.093818	-0.353210	-0.298507	-0.041760	0.162983	0.136718	0.045640	0.376489	0.348594	-0.116817	0.100655	0.336522	0.314393	0.071233	-0.176818	0.169308	0.121177	-0.100562	0.020520	0.068906	0.161477	0.341743	-0.105188	-0.382569	-0.265979	0.161653	0.385383	-0.167243
0.026830	-0.070005	0.150652	0.045926	-0.245364	-0.151692	0.104730	0.171610	-0.035169	0.220622	-0.221627	-0.181236	0.002906	0.035757	0.121936	-0.097390	0.016148	-0.083976	0.396996	-0.240892	0.219050	-0.128819	-0.236588	-0.123707	0.055036	0.289285	0.075702	-0.062731	0.111121	0.160222	-0.295610	-0.126008	0.025432	0.093194	0.137570	-0.086257	0.017962	0.227087	-0.074861	0.218342	-0.076916	-0.104531	0.127015	0.160756	0.150141	-0.036298	-0.237283	0.065959	-0.124716	0.101433	-0.047359	-0.050202	0.221853	0.030133	0.121240	0.147478	-0.034191	0.057258	-0.004413	0.314586	-0.009675	0.177162	0.014650	-0.077373	0.093911	-0.048762	0.079288	-0.081127	0.195163	-0.007656	0.190976	0.093584	0.278036	0.130404	0.142970	0.107291	-0.015708	-0.091933	0.078212	0.116087	-0.020030	-0.102187	0.117710	0.024279	-0.122280	-0.181000	-0.002526	0.058569	-0.018715	-0.281243	-0.284618	0.025599	0.042700	0.118828	-0.149551	0.192927	0.212843	-0.115096	-0.128550	-0.020736	0.007191	0.059921	0.080515	0.218549	0.191103	-0.000105	-0.140697	-0.081232	0.008176	0.018654	-0.156165	0.093679	-0.100369	0.004143	-0.007338	-0.147191	0.213925	-0.190394	-0.067258	-0.205071	0.081434	-0.176025	-0.035122	0.121650	0.042749	-0.281820	-0.268476	0.135975
0.018236	-0.127695	0.284377	-0.249860	0.043274	0.053315	-0.023556	0.158688	0.113802	0.083946	-0.154432	-0.015297	-0.247507	0.035163	0.269320	-0.135191	-0.213583	-0.085254	-0.192730	-0.104211	0.384317	0.281098	-0.288796	0.185443	-0.100610	0.005245	-0.165239	0.236661	-0.003539	-0.013055	-0.161079	0.277770	-0.337097	-0.028253	-0.187142	0.223562	0.455287	-0.307068	0.052293	0.165183	-0.259573	0.044369	0.451293	-0.104228	0.210592	0.112553	0.168781	-0.323729	-0.408320	0.141078	0.336492	-0.197722	-0.341391	-0.123002	0.161685	-0.115342	-0.102744	0.053197	0.051693	0.037702	-0.062989	0.180359	-0.086043	0.094833	0.149004	-0.288117	0.055757	-0.047795	-0.093531	0.297039	0.145332	0.177323	0.143931	0.117435	0.128040	0.373648	-0.156139	-0.106800	-0.047139	-0.045503	0.118280	0.151653	0.091377	-0.219736	-0.193523	-0.075361	0.380508	-0.025358	-0.434370	0.027930	-0.079104	-0.252545	-0.021079	-0.572950	0.050203	0.309590	-0.125431	0.355011	-0.033602	-0.284770	0.093846	-0.009092	-0.040859	-0.138460	0.128145	-0.003027	-0.043086	0.018035	0.086079	0.165883	-0.007571	0.266286	0.412720	0.348565	-0.014920	0.026767	0.264464	-0.104840	-0.091587	0.300605	0.285836	-0.112146	0.001283	-0.016412	-0.014693	-0.171140	0.046850	0.100285
0.447720	0.099238	0.061954	0.692927	0.408472	-0.073653	-0.160033	0.133879	-0.230861	0.325401	0.018851	-0.460587	0.182351	0.249291	-0.053278	0.445227	-0.480061	-0.098286	-0.179180	-0.141836	-0.314430	0.329011	0.408185	-0.069011	0.372776	0.040642	0.468053	0.187998	-0.680187	-0.323727	0.703555	-0.269026	0.095842	-0.837780	-0.813146	0.315856	0.381492	0.187906	-0.020992	0.330044	-0.566281	0.638588	0.328218	-0.785442	0.655294	0.019354	-0.054063	-0.715726	0.456905	-0.074873	-0.224986	0.467073	-0.869138	0.313452	-0.140860	-0.548924	-0.090585	0.384476	-0.403839	-0.266089	-0.256521	0.288266	-0.655420	0.447796	0.604817	0.606869	0.024290	-0.412773	-0.559233	0.302093	0.505011	0.253141	0.661390	0.418907	-0.433597	-0.356388	0.069771	-0.649988	0.137725	0.660019	0.113972	0.483541	-0.026105	-0.739677	-0.677139	-0.145273	-0.210016	-0.418209	-0.616077	0.177326	-0.173949	-0.132267	0.367561	-0.213247	-0.113902	0.153563	0.142207	0.087078	0.236314	-0.263323	0.256273	0.318277	-0.083107	0.725593	0.036478	0.278667	0.178766	-0.224427	0.296974	-0.236730	-0.229289	0.093545	-0.138754	-0.442726	0.030951	-0.169268	0.057071	-0.385570	0.639417	0.546690	-0.345301	0.446445	-0.020273	-0.091914	0.187668	-0.015712	0.168953	0.383609
-0.090494	0.191061	-0.010445	0.501877	-0.125215	-0.375265	0.205045	0.215991	-0.198197	0.768276	-0.531317	-0.295642	0.058227	-0.189616	-0.403547	-0.234389	-0.315296	0.054895	-0.219807	-0.106469	0.334043	0.238688	-0.356106	-0.155415	-0.088762	-0.497598	-0.117185	0.435466	0.019615	0.484244	0.073782	-0.126637	-0.051578	0.263912	-0.484607	0.274467	0.742091	-0.515342	0.377094	-0.284804	-0.020870	0.202301	0.578575	-0.464796	-0.015208	0.273499	-0.167869	-0.158211	-0.005102	0.036370	0.239505	0.088030	-0.315905	0.012976	-0.091339	-0.023987	-0.241505	-0.416114	-0.034570	-0.066683	-0.206931	-0.134659	0.300082	0.087950	0.423638	0.026551	-0.630555	-0.154816	-0.118446	0.009141	0.368449	-0.151788	0.235816	-0.430706	-0.169136	0.137552	-0.293179	0.268867	-0.672531	0.426897	0.202540	-0.048321	0.526688	-0.344967	-0.160350	-0.016118	0.103715	0.438970	0.116808	-0.127234	0.345898	-0.112651	0.125879	-0.593063	0.210772	-0.002198	-0.387804	0.201974	0.051672	-0.380552	1.033676	-0.060762	0.051878	0.312840	-0.088112	0.112902	-0.047382	0.103049	0.348656	-0.353204	-0.488718	0.355309	-0.501707	0.014454	-0.146731	-0.232659	0.078730	-0.106575	-0.125973	0.133854	0.319654	0.161424	0.024648	0.064538	-0.059504	-0.061860	-0.117522	0.243814
0.139721	-0.123051	0.112249	-0.122438	0.073936	0.210291	0.233244	-0.260938	-0.078015	-0.135869	0.079881	0.136406	0.086543	-0.165367	-0.340374	0.414410	0.325683	-0.268731	0.156682	0.197227	0.197493	-0.079937	-0.198615	0.204257	-0.285461	0.091702	0.063651	0.107701	-0.272867	-0.416240	-0.220755	-0.395932	-0.169884	0.006886	0.277151	-0.260058	0.001672	0.192316	-0.035988	0.390352	0.152770	-0.130071	-0.374804	0.246508	-0.192139	-0.337151	0.129665	-0.220496	-0.008921	0.138673	-0.106998	-0.947567	0.065937	-0.240737	-0.009905	-0.015846	-0.516950	-0.283221	-0.027977	-0.269433	0.003692	-0.036290	0.063408	-0.308335	-0.134338	0.344541	-0.180942	-0.048864	0.152500	-0.022649	-0.155850	0.228239	0.373229	-0.164072	-0.400558	-0.354588	0.177620	-0.049805	-0.107982	-0.035767	0.028428	-0.706478	0.155279	0.148981	0.213200	-0.057944	0.061255	-0.014530	0.431311	-0.342800	-0.207295	0.213280	0.042053	0.022347	0.241562	-0.169764	0.383871	0.007513	0.362017	0.274608	0.258989	-0.470230	0.340254	-0.364803	-0.123378	0.670341	0.189933	-0.410478	-0.279700	-0.175792	0.177199	-0.033408	-0.314132	-0.152727	0.378850	-0.052283	-0.074472	-0.408116	0.249677	-0.218495	0.162269	0.110824	-0.305431	-0.227166	-0.449007	0.139818	-0.074151	0.246479
0.125368	0.166990	0.197672	-0.062516	0.043020	0.253308	0.052642	-0.270718	-0.138525	0.103908	-0.167056	0.084555	-0.379924	0.149333	0.110578	-0.210994	-0.010576	-0.452766	-0.024476	-0.239607	0.220383	0.025445	-0.185508	0.196747	0.150230	-0.049593	-0.056963	-0.186396	-0.110307	-0.174600	0.129852	0.271752	-0.185416	0.018925	-0.312932	0.093440	0.312477	0.217043	-0.019884	-0.114236	0.109918	-0.087083	-0.054480	-0.126439	-0.049606	0.063047	-0.127386	-0.070022	-0.040966	0.130535	-0.138216	0.270516	-0.124351	-0.262244	0.129873	0.197108	-0.156065	0.105342	-0.143803	0.165457	0.140950	-0.051770	0.040588	-0.110000	-0.081911	-0.157364	0.247449	0.114693	-0.039222	-0.044731	-0.007771	0.296076	0.023781	-0.058619	-0.034894	0.400810	-0.002360	-0.147359	-0.143863	0.010910	-0.195822	0.051559	0.172350	-0.272725	0.023017	-0.106795	0.065720	-0.413151	-0.140213	0.071851	-0.288428	0.094473	-0.088290	-0.526075	0.414083	-0.186019	0.118851	0.219239	0.068313	0.015965	-0.126871	0.099376	-0.284800	-0.045782	-0.283377	-0.236460	-0.016628	0.096135	-0.066950	0.013097	-0.245785	0.220348	-0.201731	-0.146786	0.055009	0.228736	-0.033942	0.085407	-0.108996	-0.164065	0.124844	-0.107646	0.181519	0.037447	0.129193	-0.130072	0.068050	-0.160836
-0.039344	0.062396	0.013932	-0.106192	0.140662	0.230098	-0.153848	-0.219645	-0.119860	-0.175850	-0.226217	-0.211476	0.281795	-0.180662	-0.130741	0.312798	-0.167000	-0.010160	-0.162548	0.330743	-0.507631	-0.117619	0.134676	0.078876	-0.350763	0.426654	-0.146390	0.033722	0.079214	-0.166873	0.156570	-0.098338	-0.387130	-0.232736	0.018349	0.070698	-0.159546	-0.464552	0.136266	-0.212121	0.247856	0.478512	-0.018090	0.039483	0.727841	-0.066165	0.033362	0.053237	0.241982	-0.093548	-0.142244	-0.020138	-0.049378	0.002508	0.062328	-0.443759	0.131899	-0.215461	-0.137600	-0.151649	0.163700	-0.083520	0.429822	-0.075697	0.125981	0.124775	0.124820	-0.275502	-0.212239	-0.176260	-0.072667	0.144475	-0.204418	-0.064544	0.145364	-0.046769	-0.108396	0.120554	0.327441	-0.330619	-0.000240	0.733807	-0.165444	-0.187979	0.322240	-0.251090	-0.166784	0.031332	0.117555	-0.003954	-0.138336	0.189834	0.042928	-0.196712	-0.106684	-0.197226	0.007600	0.553464	0.090898	0.005355	0.123927	-0.322821	0.040961	-0.193635	-0.077621	-0.266993	0.134773	0.201590	-0.118068	-0.255244	-0.125081	0.121971	-0.291103	0.014792	-0.011480	0.239403	-0.138400	-0.178032	0.389098	-0.034881	0.153288	0.196694	0.242671	0.103501	0.149250	0.026385	0.081780	-0.073050
0.012716	0.108523	0.581253	-0.050874	-0.076283	-0.113869	-0.026314	0.165118	0.044880	0.324048	-0.059304	-0.194422	-0.053386	0.004411	0.243089	-0.148801	0.059828	-0.058274	-0.265458	-0.116819	-0.005455	0.103382	-0.339752	0.220905	0.154928	-0.265202	-0.103887	0.114083	0.081526	-0.005607	0.049850	0.163216	-0.142520	0.007172	-0.237984	0.046357	0.448339	-0.155559	0.033998	-0.006567	0.009449	0.006767	0.349789	-0.244113	0.230280	0.187050	-0.008964	-0.113268	-0.394226	0.069949	0.281796	-0.049862	-0.123435	-0.262202	0.144499	-0.279189	-0.020877	0.103093	-0.056425	0.101297	-0.136299	0.007247	0.047740	-0.041094	-0.012876	-0.158250	0.157779	0.189402	-0.226620	0.033186	0.261369	0.094970	0.437965	-0.001629	-0.032136	0.356482	0.050799	-0.000762	-0.100825	0.037288	0.090875	-0.108489	0.126089	-0.084785	-0.149425	-0.076235	0.181038	-0.077245	-0.344430	-0.004024	-0.033631	-0.138880	-0.102109	-0.371939	-0.118905	0.221674	-0.317951	0.327499	-0.065548	-0.213784	0.084025	-0.307129	-0.052841	-0.096899	-0.047418	0.018435	0.056301	0.091921	-0.095205	-0.046199	0.024647	0.236036	0.279890	0.408841	-0.419544	0.134026	0.063664	-0.040804	-0.099149	0.236575	0.313498	0.173402	0.052059	0.167595	0.140803	-0.034916	0.002857	-0.114160
0.052830	-0.375149	0.052916	0.169823	0.304594	0.187789	-0.427885	-0.014330	0.140460	0.137921	-0.405121	0.070285	-0.486837	-0.310669	-0.300570	0.312704	-0.075068	0.103030	0.052151	-0.038956	0.383034	0.128207	-0.114362	-0.272470	0.100608	-0.242687	0.008309	0.305999	-0.296958	0.745782	-0.293457	0.227016	-0.363089	0.334519	-0.095516	-0.066095	0.091636	-0.270707	-0.012977	0.194772	-0.200202	-0.185601	0.477767	-0.353142	0.143969	0.206505	0.084457	-0.019684	0.016826	-0.416898	-0.157048	0.488163	-0.125056	0.467648	-0.136919	0.366900	0.070140	-0.176234	-0.059534	0.011089	-0.504230	0.046786	-0.445019	-0.055237	0.096188	-0.045266	0.014003	0.234967	0.325094	-0.111379	0.339634	-0.042436	0.352448	0.015948	-0.242087	0.154033	-0.419272	-0.264520	0.198033	-0.046483	0.014180	0.251980	0.487241	0.159969	-0.012662	-0.107152	0.201831	0.717851	-0.112898	-0.401838	0.421399	-0.109446	0.299159	-0.271508	-0.202077	0.340906	0.470619	0.044266	0.051313	-0.413962	0.437738	0.629032	0.186030	0.218150	-0.441324	0.102534	-0.366307	0.242251	0.453909	-0.505156	0.009403	-0.516601	0.001946	-0.088448	0.064832	-0.138635	-0.129057	-0.017177	-0.135711	-0.029308	-0.155374	0.142023	-0.304804	0.446837	-0.347715	0.211272	0.312769	0.022976
0.195513	0.050805	-0.008732	-0.034351	-0.333770	0.522413	0.136754	0.035821	-0.031734	-0.116246	0.102844	0.137937	0.367665	-0.035804	0.332870	0.213062	-0.016450	-0.507792	0.014445	0.125425	0.467622	0.133110	-0.019935	-0.149204	-0.311021	-0.624019	-0.098945	0.412634	0.052525	-0.084257	0.127136	-0.101743	-0.030326	-0.065126	0.044125	-0.343717	-0.523892	0.037114	-0.034811	0.798812	-0.327704	0.417622	0.128707	0.160866	-0.104181	-0.328409	-0.167572	-0.206185	-0.012340	0.064299	-0.372412	-0.574631	0.017585	-0.086377	0.239560	0.360883	-0.476546	0.026306	-0.299190	-0.199624	0.025930	0.196673	-0.023122	-0.385371	0.118874	0.227553	0.129037	-0.088038	-0.293743	0.341743	0.018074	0.125236	0.266806	-0.256748	-0.153140	0.080908	0.267194	-0.311298	0.159569	0.260047	-0.364113	-0.743215	0.573758	-0.034848	-0.134332	-0.182507	0.125752	0.312303	-0.045914	-0.302853	-0.410681	0.196997	0.148136	-0.034666	0.143019	-0.516114	0.083704	-0.047526	0.255380	0.050814	0.165880	-0.058178	0.280601	0.104469	-0.466182	-0.329371	0.336327	-0.005911	0.384709	0.058721	0.059917	-0.040944	-0.134512	-0.037012	0.055936	-0.027101	0.017036	-0.411125	0.191160	-0.045180	0.467907	-0.078823	-0.058050	0.131555	-0.528444	0.150286	0.100246	-0.190136
