-0.012570	0.042118	0.041129	-0.026188	0.000211	-0.011509	-0.013787	0.049162	0.024025	-0.012558	-0.002869	0.018138	0.003603	-0.021888	-0.047392	0.009352	0.018178	0.014392	0.027656	-0.005036	-0.008943	0.003515	0.021210	-0.017931	-0.019445	0.033114	-0.021573	0.020903	0.010999	-0.000564	-0.014992	0.039452	-0.024669	-0.025736	0.002950	-0.040596	0.034265	0.011832	-0.001107	-0.000408	0.024229	0.025067	-0.012959	-0.026340	0.010187	-0.007968	-0.013279	0.021217	0.010646	0.039397	0.010117	-0.005381	-0.026501	-0.001943	0.005656	0.008923	-0.021581	0.005047	-0.007710	0.022590	-0.038106	-0.034346	-0.020916	0.023082	0.011238	-0.034388	0.010562	0.018750	-0.026212	0.007625	-0.017400	0.013819	-0.024289	-0.021191	0.004266	0.039007	-0.027229	0.035287	0.006642	0.001364	0.025683	0.004639	-0.020908	0.047888	0.031176	0.027123	-0.005098	0.012674	-0.014918	0.018396	-0.025914	-0.008905	-0.028864	0.003081	0.019616	0.034566	-0.000078	-0.015175	0.005508	-0.009826	-0.019240	0.019015	0.024511	0.024126	-0.023579	0.040824	0.044573	0.050738	-0.010522	0.011192	0.001563	-0.030803	-0.015424	-0.029149	-0.000615	0.021030	0.020567	0.019524	-0.013807	-0.037175	0.020282	-0.018888	0.002813	-0.016047	-0.033210	0.070511	-0.017229	-0.013291
0.141573	-0.153697	-0.097761	-0.159781	-0.125985	0.112104	0.018847	-0.113026	-0.138731	-0.020085	0.050623	-0.059880	-0.044845	0.034499	0.118401	-0.011790	0.049686	-0.166226	0.176332	-0.015955	-0.157481	-0.009942	-0.134738	-0.093715	0.193601	0.105696	0.036485	0.130381	-0.129243	0.232697	0.152797	-0.195733	-0.145056	0.053975	0.356515	0.010979	-0.143898	0.147062	-0.055627	-0.047787	-0.146530	0.236535	0.113446	-0.036798	-0.150825	0.049452	0.007167	0.210179	0.163391	-0.099129	-0.281427	0.169235	0.062222	0.137906	-0.212981	0.203931	-0.130245	-0.339418	-0.242049	-0.052722	-0.048084	0.129357	0.031334	-0.218658	0.170947	0.137482	0.068328	0.019557	-0.022329	0.161366	0.062143	0.061529	-0.012863	-0.087883	0.042141	-0.028588	0.057806	0.087641	0.038672	-0.103794	0.037457	0.061552	-0.191570	0.050966	-0.259517	0.090763	0.095461	-0.088462	0.067638	0.147569	-0.001983	0.234023	0.016462	-0.123531	0.086402	0.075397	-0.139353	0.097579	-0.053533	0.347557	-0.207052	-0.070213	0.040767	-0.222602	-0.069330	0.009256	-0.084290	-0.054236	-0.040683	0.130656	0.046452	-0.018054	-0.014443	0.130681	0.043983	0.044355	-0.247740	0.051133	-0.034254	0.080959	-0.128301	0.055957	-0.068955	-0.019961	0.256588	-0.190676	0.040293	-0.039071
-0.029833	-0.122528	0.218451	0.054637	0.026815	-0.054718	-0.095649	-0.221642	0.122268	0.187695	0.225019	0.023358	0.082637	0.143735	0.087616	0.189033	-0.010845	-0.012366	0.028404	0.088028	-0.075962	-0.068745	-0.237489	0.041893	0.230600	-0.108508	0.032503	-0.078794	-0.200514	0.148316	-0.030807	-0.204683	0.053506	-0.057399	0.009388	0.085959	0.024245	0.171784	0.027147	0.084339	-0.045683	0.033095	-0.066090	0.266184	-0.122173	-0.091257	-0.410780	0.151301	-0.009205	0.117519	0.147952	0.120993	-0.235750	0.098974	0.228756	-0.056255	0.235627	0.092310	0.196725	0.151941	0.157396	0.246543	0.104095	-0.066210	-0.102631	-0.125978	0.231714	-0.077726	0.073963	0.227788	0.205460	0.031228	0.101150	0.156582	0.206516	-0.146999	0.113552	0.083955	-0.101803	-0.111625	0.137107	0.178297	0.191200	-0.126202	0.070984	-0.072454	0.035469	-0.086722	-0.055635	-0.124763	0.272638	-0.041987	-0.204085	-0.006460	-0.143201	-0.246769	-0.063636	-0.024895	0.200571	-0.002442	-0.284062	-0.050888	0.123441	-0.184029	0.091393	-0.047993	0.069083	-0.195914	-0.037092	-0.158084	0.131230	0.108679	0.018449	-0.083246	-0.196196	-0.050006	0.006948	0.096804	0.061637	-0.165612	0.134712	0.238664	-0.082134	-0.105405	-0.108347	-0.130621	-0.207040	0.069963
-0.022904	0.054403	-0.232179	-0.211044	-0.488448	0.437400	-0.059471	-0.182863	-0.080806	0.105451	-0.028521	0.152617	0.069045	-0.039693	0.052561	0.035881	0.039963	-0.029078	-0.027461	0.055035	0.007519	0.192372	0.120599	-0.149511	-0.077996	-0.287055	-0.143098	-0.158089	0.079341	-0.029843	0.188836	-0.050990	0.075192	-0.048399	-0.010873	0.130138	0.077848	-0.175016	-0.135355	-0.160239	-0.135066	-0.233769	-0.124146	0.161836	-0.050832	0.158119	-0.129072	-0.217400	-0.144721	-0.013368	0.302646	-0.089480	-0.245175	0.091601	0.141346	0.107527	-0.022352	-0.110638	0.010309	0.031281	0.069360	-0.092952	0.000356	0.011839	0.082495	0.233825	0.096929	-0.090669	0.067186	-0.010528	-0.252579	0.053836	-0.026464	-0.004906	-0.057016	-0.004661	-0.056355	-0.180563	0.214230	-0.137828	-0.137802	-0.112558	-0.041510	0.040733	-0.143148	-0.021418	-0.206407	0.203264	-0.444123	-0.071185	-0.107905	-0.060276	0.116888	0.077889	0.033612	-0.218623	0.025781	-0.153767	-0.083913	0.000606	-0.086337	0.044203	0.024133	-0.122918	0.038245	0.058658	-0.005885	-0.110642	0.082713	0.034943	0.050452	-0.023621	0.005988	0.034759	-0.115746	0.393352	0.041411	0.060172	0.120278	0.136670	-0.055413	-0.194228	-0.004426	0.188760	-0.093169	-0.225160	0.006811	0.287529
-0.074576	0.055472	-0.072715	0.089864	-0.388129	0.098707	0.005224	0.027303	-0.181181	0.094574	0.010383	-0.388034	-0.170485	0.005303	-0.183269	-0.083757	0.068908	0.222175	-0.183490	0.310187	-0.106168	0.094140	0.120505	-0.256512	0.138163	0.116838	0.171822	0.100842	-0.045118	-0.260308	-0.123804	0.107080	-0.088419	-0.017477	-0.195115	0.003999	-0.171866	-0.255170	-0.056031	-0.279903	-0.066023	-0.014979	0.253976	0.146803	-0.262346	0.328855	0.344505	-0.456276	-0.107944	-0.125861	0.016175	-0.172229	-0.019330	-0.034202	-0.002782	0.171385	0.193325	0.035567	0.008036	0.109462	-0.152299	0.191776	0.068188	-0.141607	0.131139	-0.049557	0.040081	0.029377	0.310860	0.072170	0.088726	0.216111	-0.110459	0.100713	-0.125041	0.142565	0.056728	-0.254282	0.095695	0.304626	0.130041	0.034438	-0.024413	-0.056117	0.234775	-0.119161	-0.148322	-0.244067	0.335965	0.053218	0.013456	-0.268409	0.253310	0.235736	-0.257642	0.012281	0.040572	0.062829	0.137562	0.068635	0.469619	-0.200402	-0.292723	-0.216412	0.231602	-0.182793	-0.035732	0.019779	-0.029929	-0.049500	-0.190939	0.049669	0.142961	-0.075198	-0.300938	-0.231739	0.030473	-0.021883	0.191861	0.015315	0.122146	0.040793	-0.096536	-0.093229	0.187184	-0.047523	-0.115866	-0.070142
-0.058882	-0.168925	-0.131356	-0.145068	0.191736	0.126463	0.047564	0.030980	-0.065841	-0.149677	-0.249337	0.126798	-0.262632	-0.118718	0.280665	0.041855	0.000443	0.128416	-0.104090	-0.210248	0.252416	-0.222195	-0.150661	0.294129	0.061829	-0.122914	-0.090615	-0.016289	0.253447	-0.033836	0.107131	-0.118326	0.172419	0.133476	-0.052793	0.139227	0.038451	0.131514	0.203843	-0.175344	-0.040714	-0.193913	-0.070888	0.016270	0.051232	-0.131696	0.115235	-0.160247	-0.342598	-0.071715	0.239860	-0.214331	-0.045521	0.269809	0.334392	-0.013459	-0.071333	-0.074800	0.079002	-0.096493	0.195796	0.002990	0.285827	-0.072161	-0.165160	0.114089	0.054493	0.074117	-0.102158	0.029400	0.254453	0.158163	-0.028796	0.211757	-0.017726	0.048762	0.128465	0.164846	-0.286753	-0.095760	0.026208	-0.117489	-0.063388	-0.102535	0.079862	0.270953	-0.153072	0.180686	0.025139	0.138275	0.409167	-0.097019	-0.057057	0.201024	-0.254313	0.007228	0.097578	0.037065	0.050763	0.027939	-0.126590	-0.101343	-0.238731	0.152244	-0.108619	-0.274048	0.087813	-0.209832	0.052538	0.114829	-0.381950	-0.046100	-0.014355	0.069815	0.237925	0.031020	-0.176423	0.282747	0.137366	0.094274	0.151051	0.311760	0.350956	0.017841	0.089856	0.122568	0.004169	-0.006992
0.089854	-0.103850	-0.047725	0.056082	0.004576	-0.100463	-0.167333	-0.001117	0.044384	0.218154	-0.079535	0.119231	0.121756	-0.239577	0.211172	0.040517	-0.149329	-0.127132	-0.080727	-0.207968	0.113698	-0.008636	-0.012964	0.028068	-0.227329	-0.007896	0.071568	0.194716	0.127047	-0.212475	-0.076134	-0.131238	-0.292420	-0.074371	-0.113222	0.293398	-0.074586	0.087151	0.079141	0.500060	0.158584	-0.051080	0.043994	0.201361	-0.038211	-0.201478	0.284306	0.061765	0.130481	-0.079289	-0.268524	-0.173488	-0.164496	-0.181194	-0.208509	0.010525	0.167209	-0.044765	-0.003983	0.131925	0.120524	0.031515	0.056085	0.211701	0.100829	0.200257	0.222212	0.193784	0.096323	-0.117329	0.099992	-0.119022	0.364528	0.063393	-0.250541	0.004771	0.245177	-0.096578	-0.236868	-0.107187	-0.352313	-0.074159	0.223774	-0.021074	-0.253129	-0.214868	-0.128108	0.063397	-0.008608	0.101285	0.159049	0.278991	0.311522	-0.072812	-0.224150	-0.043631	0.299730	-0.096029	-0.038659	0.046055	0.120285	0.219963	0.275456	0.065736	-0.016437	-0.183490	-0.124584	-0.004944	0.187157	-0.209031	-0.095179	0.183625	0.030226	0.044877	0.127738	-0.194083	0.014365	-0.150091	-0.174403	0.350644	-0.025784	-0.007336	0.151902	-0.117894	0.115997	-0.045179	0.117998	0.051545
-0.207677	-0.177868	0.061307	0.137000	-0.180518	-0.043937	-0.041384	-0.090850	0.208542	-0.214788	0.062982	-0.082956	-0.054722	0.128825	0.147630	-0.321905	-0.127305	0.271886	-0.237863	-0.040195	0.015842	0.065926	0.029894	0.043809	0.249188	-0.103336	0.173054	0.264535	-0.031000	0.039921	0.235337	-0.159548	-0.023377	-0.039023	-0.011800	0.081580	-0.279335	-0.167440	0.037322	0.149226	-0.109887	-0.065807	-0.148165	0.100110	0.229180	-0.007598	0.439724	0.032758	0.010665	0.045577	-0.276566	-0.245426	0.118327	-0.261650	0.016976	-0.129686	0.080444	0.004477	-0.104667	-0.236154	0.075846	0.145010	-0.155621	0.152768	-0.019762	0.113979	-0.061559	-0.132729	0.232420	-0.270614	-0.211659	0.055006	-0.084371	0.088612	0.312668	0.160426	-0.080288	-0.153845	0.016798	-0.007407	-0.165231	-0.033077	-0.023079	0.010243	-0.131687	-0.056611	0.206279	-0.098182	-0.030861	0.039628	-0.142355	-0.048824	-0.136903	-0.108665	0.119683	-0.072089	-0.286004	0.054834	-0.110015	-0.133858	0.066497	-0.182840	0.104736	-0.190906	0.197995	0.014513	-0.197576	-0.089314	0.190199	0.303038	-0.183807	0.013777	0.025574	-0.182546	0.107170	0.104339	-0.139837	-0.090554	-0.171802	0.110898	-0.085087	0.177806	-0.015431	0.094555	0.122330	0.044314	-0.016300	0.150176
0.024331	-0.194048	0.152787	0.137768	0.042818	-0.165772	0.083115	-0.031813	-0.377729	-0.315929	-0.152815	-0.178244	-0.070660	0.127756	-0.187203	-0.092388	0.070086	-0.479919	-0.193930	-0.125797	0.202839	-0.056054	0.115837	-0.054043	0.135697	-0.240896	-0.114442	0.035062	0.073920	0.229347	-0.256776	0.174185	0.085195	0.008905	-0.255260	-0.100889	-0.160216	-0.004016	0.213044	0.049822	-0.100531	-0.250224	-0.022438	0.008113	-0.110042	-0.014080	0.087969	0.180884	-0.130735	-0.221424	-0.086524	0.002261	0.378006	0.037864	-0.155191	-0.140440	0.107045	-0.193276	0.041935	-0.009553	0.178502	-0.295316	-0.069870	0.028124	-0.196682	-0.199147	0.112760	-0.221960	-0.042158	-0.262051	-0.050159	-0.264437	-0.074487	-0.123233	-0.119734	-0.083245	-0.293354	0.223451	0.160605	0.064407	0.253873	-0.074134	-0.044984	-0.167824	0.164677	-0.035925	0.022989	-0.063885	0.215235	-0.089476	0.181955	0.095035	0.258658	0.181283	-0.038906	0.029321	0.148195	-0.196046	-0.099956	-0.005038	0.039621	0.189326	-0.056263	-0.040646	-0.094578	-0.069187	-0.253908	0.105271	-0.202751	-0.037940	-0.078704	0.322990	0.227957	0.007055	-0.052520	0.011367	-0.242492	0.006732	-0.141666	0.097239	0.048813	-0.151104	0.209233	-0.176254	0.139176	-0.285074	0.177147	-0.040372
0.237534	0.039615	-0.073706	-0.080193	0.218963	-0.065565	-0.037736	-0.271599	-0.058549	0.049935	-0.080254	-0.224160	0.005351	0.048209	0.166941	-0.185122	0.013338	0.124753	-0.118829	-0.004441	-0.201547	0.184183	0.177126	0.114281	0.015409	0.155069	-0.172494	-0.149796	0.094686	-0.014170	-0.051603	0.136289	0.353175	0.132612	0.253270	-0.019879	0.301486	-0.038786	0.203534	0.132033	0.241484	-0.357227	-0.025199	0.028541	0.203237	-0.240904	-0.092214	-0.142483	0.039545	-0.309431	-0.011421	0.055902	0.030993	-0.085726	-0.175028	0.018874	-0.077207	0.318056	0.231959	-0.131285	-0.197083	0.001181	0.050145	-0.045849	-0.102683	0.093823	0.083661	0.448892	0.149403	-0.173928	0.000258	0.143187	-0.048381	0.181116	0.245047	-0.211542	0.113275	-0.265464	0.067825	0.212654	0.117054	0.044761	0.285728	-0.115257	0.115319	-0.165284	-0.107056	-0.255407	-0.014370	-0.357584	0.141401	0.196863	-0.179342	0.235942	0.158840	-0.215562	0.018649	0.066849	0.206552	0.394357	0.157552	-0.187745	-0.109966	-0.313293	0.058010	-0.238842	-0.252782	-0.266909	-0.105908	-0.275463	0.035555	0.314865	-0.052166	-0.099600	0.021044	0.009692	-0.121061	-0.005905	0.048475	-0.093445	-0.114606	-0.225903	0.158784	-0.073214	0.097022	0.104087	0.078068	0.045744
-0.226230	0.245816	-0.302852	0.129183	0.158023	0.304701	-0.145781	0.177543	0.049286	0.160708	0.046525	0.146974	0.259867	-0.269592	0.370492	0.102764	0.129141	0.202663	-0.083995	0.102165	-0.066585	-0.304758	0.003196	-0.294741	-0.144151	0.149627	0.024541	-0.116142	-0.172632	-0.039674	0.305331	-0.160340	0.348351	-0.003195	-0.005726	0.350280	-0.209793	0.046270	-0.267896	0.087289	-0.324434	-0.024138	-0.139406	-0.046655	-0.244677	0.135457	-0.093796	-0.093004	-0.190959	0.038534	0.098726	0.051745	0.062340	0.165708	0.181947	0.061430	-0.103834	0.295945	0.077830	-0.044577	-0.099864	0.071077	-0.086734	-0.002651	-0.127334	-0.025786	-0.228307	-0.101772	0.071584	0.066677	0.162198	-0.022849	-0.106145	-0.032531	0.016721	0.086267	-0.139482	0.020493	-0.095642	-0.222114	0.038217	0.259698	0.251406	-0.314728	0.095295	-0.033699	-0.023652	-0.054318	0.244827	-0.097446	-0.123304	-0.141089	0.082171	-0.234686	-0.125642	-0.026147	0.032656	-0.087871	0.207038	-0.266818	0.198700	-0.322795	0.078188	0.166620	-0.032633	0.074490	-0.323113	0.169895	-0.004860	0.171090	0.093264	-0.071742	-0.016791	0.395268	-0.011915	-0.326896	0.062191	-0.438110	0.273515	0.156216	0.177785	0.016306	0.248600	0.180860	-0.032795	-0.013973	0.224655	-0.087772
-0.027484	0.132071	-0.287190	0.299628	0.016084	-0.076792	0.078179	0.027099	-0.054937	-0.124392	-0.130287	0.097565	-0.194496	-0.114789	-0.077056	0.011842	0.051352	-0.048719	0.192149	-0.009547	0.120371	-0.137229	-0.243109	-0.314954	0.159956	0.073215	0.202666	-0.172035	-0.009137	-0.017498	-0.097522	0.049670	-0.028357	0.044871	-0.112538	-0.107117	0.103998	0.045361	0.029162	-0.087604	0.148893	0.397419	-0.001609	-0.125413	0.124309	0.191554	0.303324	0.282700	-0.047889	0.093806	-0.027709	0.216763	-0.048357	-0.143909	0.334879	-0.099736	0.523191	0.127325	0.105050	0.212971	0.392834	0.198956	-0.309963	0.039927	-0.050887	-0.004938	-0.259173	-0.232402	0.267421	-0.304977	0.251724	-0.433870	0.388250	0.126374	-0.224049	0.018977	0.042369	-0.187480	-0.089560	-0.171763	0.169851	-0.139694	-0.010843	-0.100903	0.258877	-0.278491	0.197840	0.298056	0.256215	0.115747	-0.145858	-0.235092	0.124760	0.234595	0.059303	-0.013699	0.281177	-0.073348	-0.105433	-0.074795	0.104788	0.015185	-0.153279	0.079328	-0.299980	0.045948	-0.052885	0.061021	0.037124	0.114562	0.012659	-0.155818	-0.110813	0.119751	0.122472	0.209239	0.396046	0.201476	-0.150854	-0.196870	-0.019628	0.296177	-0.185815	0.435068	0.094399	-0.207747	0.006984	0.157906
-0.093088	-0.039189	-0.277362	0.253648	0.106988	0.306970	-0.053755	0.095687	-0.034899	0.146162	0.246507	0.057683	0.115912	0.216698	-0.048104	0.042745	0.160310	0.040208	0.252080	0.005409	0.133140	0.043994	-0.050619	0.307003	-0.040001	-0.293759	0.122284	-0.334026	0.130493	0.176361	0.103583	0.004833	0.085029	-0.139444	0.059455	0.137335	-0.158764	-0.106849	-0.312017	-0.254590	-0.092066	-0.239169	0.314801	-0.053146	-0.117637	0.063210	-0.020004	-0.178970	-0.040453	0.184967	0.184325	0.373974	0.015305	-0.135155	0.247805	-0.066412	-0.023568	-0.021532	-0.000595	-0.049190	-0.071330	-0.155813	0.130519	-0.159481	-0.035003	0.281513	-0.253887	-0.010962	0.000001	0.139200	0.074334	-0.034641	-0.124943	-0.137113	-0.284221	0.027480	0.108214	-0.260712	-0.133346	0.164495	-0.139514	-0.155848	0.093276	-0.294992	-0.144306	-0.038526	0.008601	0.168752	0.124852	-0.182692	-0.052857	0.186791	-0.155917	-0.188140	-0.095603	-0.143997	-0.084218	0.118328	0.087397	-0.040124	0.202684	0.048028	-0.337069	-0.135953	0.138390	0.276969	-0.186315	-0.145837	0.265264	0.097467	0.228636	-0.065806	-0.210335	-0.315031	0.173938	-0.194890	0.202082	-0.045700	-0.320930	0.067479	0.068447	0.052879	-0.222916	0.220875	-0.046179	-0.127868	0.034130	-0.302795
-0.000211	-0.127805	-0.218549	0.094863	0.212075	0.145810	-0.148563	-0.178609	-0.061065	-0.234904	0.083231	0.213717	0.000663	0.169728	-0.236270	0.045484	-0.242297	0.325419	-0.104475	-0.065125	0.152409	-0.100538	-0.065319	0.087217	-0.169313	-0.053490	0.078758	0.047892	-0.360414	-0.154305	0.137901	0.067280	0.343012	0.127645	-0.160669	0.115077	-0.041204	-0.452819	0.018903	-0.070687	-0.038297	0.171450	-0.050577	-0.159752	0.155428	0.101980	-0.153077	0.157479	0.026017	-0.162402	0.162746	0.257047	-0.172313	-0.055997	0.046492	-0.011803	0.118159	-0.110861	-0.212856	0.014114	0.048539	-0.052807	-0.102298	0.120438	-0.117541	0.114469	0.053977	0.051792	-0.069707	-0.240946	0.209725	0.095648	0.107018	-0.261760	-0.127019	0.194081	-0.056807	0.017432	-0.141211	0.312610	0.107954	-0.350942	0.237566	-0.017700	-0.115463	-0.198245	-0.049085	-0.230414	0.285336	0.132263	-0.263554	0.000382	-0.256162	0.077104	0.147408	0.215490	0.300289	0.346988	0.092953	0.003376	0.021871	-0.084122	0.031978	-0.023697	-0.232473	-0.179586	-0.104558	0.302612	0.355654	0.042904	-0.209803	-0.018521	-0.239062	-0.183956	0.097565	-0.029223	-0.218066	-0.413863	0.091171	-0.117878	-0.191893	0.221468	0.025451	-0.037650	0.000696	-0.067009	0.321964	-0.047659
0.106866	0.050764	0.011935	-0.316533	0.192099	-0.055993	0.359753	-0.189949	0.120806	0.173024	-0.246298	0.021502	0.000378	0.166366	0.026294	-0.002533	-0.028392	-0.244387	-0.373702	0.133861	0.194304	-0.148836	-0.054857	-0.018456	-0.238668	-0.119854	0.028608	-0.147016	-0.021580	0.020259	0.141624	-0.086035	0.044802	0.035880	-0.313742	-0.179815	0.036324	0.051060	0.063590	-0.105553	0.047777	0.066068	-0.188912	-0.120872	-0.090635	-0.114548	0.083230	-0.080444	-0.276559	-0.075470	-0.140935	-0.184894	0.208314	0.002264	-0.188957	-0.274942	-0.044043	0.000949	0.349615	-0.107853	-0.025783	0.224153	0.102136	0.166340	-0.346904	0.241412	-0.169139	-0.031302	0.070307	0.009913	0.078196	0.070327	0.171488	-0.118548	0.122103	-0.451628	0.119305	0.073561	-0.197280	-0.108995	-0.298809	-0.128818	-0.198994	-0.054022	-0.022130	0.182460	0.174661	-0.266955	0.131771	0.069604	-0.030659	0.037534	0.110330	-0.055978	0.048293	0.021117	0.124568	0.135802	-0.141168	-0.177801	-0.080916	0.021127	0.025729	0.238251	0.349853	0.053363	0.046050	-0.082377	-0.106419	-0.304733	0.370249	-0.028647	-0.260657	-0.157837	0.028619	-0.159447	-0.033276	0.030071	0.112104	-0.022604	0.041935	-0.021177	-0.186604	0.163293	0.047109	-0.228772	-0.039622	0.175707
-0.069520	-0.162536	-0.111115	-0.208820	0.142377	-0.042890	0.498435	-0.122571	0.203722	-0.215162	-0.214511	0.135611	0.107287	0.414461	-0.231296	-0.224074	-0.009958	-0.030540	0.180889	-0.197824	0.114773	-0.102025	0.055030	-0.231383	0.268304	-0.041876	0.059230	-0.283981	-0.276583	-0.204190	-0.380532	0.033557	-0.308747	0.196697	-0.064842	-0.317742	0.004999	-0.172250	-0.234283	-0.183541	0.081211	-0.408965	-0.085431	0.092302	0.030534	0.185734	0.151422	-0.063656	0.052666	-0.211602	-0.090117	0.102310	0.209914	0.061574	0.061701	0.180681	0.131965	-0.003313	0.248304	-0.175366	-0.037825	0.097827	0.139175	0.005388	-0.074113	-0.122570	0.077676	-0.042311	-0.039285	0.043793	-0.021232	0.122379	0.284200	0.161835	0.174471	0.233719	0.459126	-0.097043	-0.230689	0.000868	0.091384	-0.037887	0.389550	0.175266	-0.071513	0.305377	-0.272717	-0.250887	0.273856	-0.221271	0.190062	0.393099	-0.058364	-0.069450	0.184109	-0.249659	-0.276667	0.280933	0.089015	-0.077552	0.022035	0.087498	-0.281048	0.077716	-0.148996	-0.183971	-0.116935	-0.274096	0.013167	0.045129	-0.049517	-0.064577	0.224594	0.213805	-0.352621	-0.075342	0.173747	-0.161637	-0.105768	0.123461	0.140044	0.224923	-0.258262	0.289966	0.272332	-0.503716	0.314169	0.141966
0.158171	0.193875	-0.444197	0.180588	0.071806	-0.388576	0.059829	-0.075736	-0.255082	-0.108653	0.319571	-0.076004	-0.090081	0.036010	0.409234	0.125405	-0.040917	-0.047174	0.031800	0.133024	-0.085790	0.116621	0.158268	0.233261	0.123125	-0.145235	0.252952	0.258086	0.001775	-0.318828	0.022566	0.093395	-0.107264	-0.042983	0.094230	-0.109469	-0.520664	0.091764	0.126460	-0.161351	0.160840	0.056159	0.204474	-0.159518	0.226976	-0.173553	-0.315656	0.007074	0.211690	0.225525	-0.063779	-0.073497	0.037982	0.024975	-0.107328	0.074990	-0.132666	0.072108	-0.085183	-0.017580	0.487685	-0.222971	0.437143	-0.155017	-0.090529	-0.056458	-0.333157	-0.296382	-0.338125	-0.021559	-0.074972	-0.146107	0.352993	0.045047	-0.258899	0.191120	0.032048	-0.097848	-0.257851	0.125069	-0.193421	0.000007	0.064290	0.306932	-0.076048	-0.337467	0.023974	-0.120137	-0.185732	-0.223812	0.050915	-0.273614	-0.054596	-0.189604	-0.104085	-0.077647	0.121394	0.112687	0.406024	0.141804	-0.016428	-0.168376	-0.355274	0.008316	0.137399	-0.349111	-0.098683	-0.342415	0.052379	-0.331430	0.168522	0.167277	-0.106619	0.328283	0.135023	-0.008115	0.089890	0.005256	0.203763	0.542799	-0.288627	0.165408	-0.150681	-0.045674	-0.051042	-0.034755	0.184033	0.029511
0.382139	-0.128359	0.145681	0.166514	0.093836	0.048432	0.177454	0.048334	0.261304	-0.139606	0.034997	0.040227	-0.133983	-0.004730	-0.018119	-0.097153	-0.476293	-0.210893	-0.402712	0.039186	-0.072429	-0.051048	-0.223178	0.157511	-0.049557	-0.236864	0.314936	-0.210091	-0.099526	-0.220311	-0.039565	0.301506	0.057540	-0.125829	0.236371	-0.077404	-0.168959	-0.055898	0.065207	0.232379	-0.312942	0.251486	-0.048153	-0.078417	-0.017224	-0.170638	-0.230465	-0.271962	0.194796	-0.011094	-0.146101	0.208302	0.152113	-0.381123	-0.151377	-0.130340	0.172951	0.053171	-0.086910	-0.196280	0.189337	0.134224	-0.107435	0.154961	0.146843	-0.170075	-0.371830	-0.010772	-0.246950	0.112198	0.229515	-0.370989	-0.550590	0.149826	-0.163309	-0.194059	0.052094	-0.005059	0.134565	-0.247509	-0.069180	0.273978	0.149144	-0.167341	-0.404753	-0.035511	0.149729	0.232386	0.237517	0.185197	-0.236098	0.118776	-0.183529	-0.118805	0.313091	-0.075955	0.264249	0.044051	-0.393992	-0.002800	-0.040951	0.030816	0.093514	0.317028	0.038882	0.075505	-0.206579	-0.139296	-0.248661	-0.357487	0.004378	-0.157566	0.313351	-0.176979	0.032463	-0.315901	-0.123239	-0.229697	0.225339	-0.176798	-0.250896	0.023124	-0.238437	0.097585	-0.281421	-0.233745	-0.006044	-0.217509
-0.118150	-0.042485	-0.178519	0.072316	-0.439950	-0.145426	-0.102482	0.165226	0.138330	0.078792	0.193890	-0.196092	0.263754	-0.183389	0.187301	0.519310	-0.039168	0.089900	-0.142115	0.046654	0.155041	-0.045425	-0.034788	-0.085033	-0.075343	-0.138199	-0.184873	-0.081647	-0.181167	-0.154201	0.118344	0.062714	0.146066	0.294312	0.147948	-0.071214	0.264346	-0.262516	-0.303670	0.092854	-0.125699	0.174915	0.037127	0.026112	0.134886	-0.229084	-0.073243	0.294978	0.076333	0.224808	-0.021341	0.159700	0.194707	0.023049	-0.144241	0.017286	-0.146240	-0.054188	0.354393	0.197837	0.004546	-0.015777	0.099342	0.232224	-0.070546	0.117937	-0.320911	0.112393	-0.093968	-0.243218	-0.130423	0.289424	0.499504	0.192055	-0.223571	0.033990	0.116072	0.004062	0.293674	0.146412	0.122408	0.131713	0.059135	-0.263842	-0.016087	-0.517468	-0.283599	0.285989	0.113728	0.056928	0.273913	0.185979	-0.594583	-0.384187	0.182648	-0.136447	-0.318364	-0.010574	-0.414495	0.439167	0.371098	-0.028321	-0.009080	-0.477198	0.118666	-0.010444	-0.127193	-0.141644	-0.350660	-0.126265	-0.026001	0.209485	0.066396	0.687598	0.070075	0.431947	0.214674	-0.255026	-0.014571	0.221013	0.206793	0.391521	-0.289741	-0.416224	0.263345	-0.121266	0.184295	-0.271555
-0.497629	0.210889	0.014018	-0.023378	0.394943	-0.058828	-0.114753	0.529580	0.212890	0.228284	0.149404	-0.178225	-0.152730	0.392461	-0.032684	-0.184171	0.107198	0.034304	-0.190435	0.217925	-0.142613	0.091720	-0.052745	0.071849	0.125190	-0.013237	0.076367	-0.153412	0.042195	-0.453014	0.086579	-0.069139	0.360370	-0.382045	-0.320156	0.334706	0.289142	0.170834	0.227675	-0.301166	-0.193526	-0.254610	0.006393	0.035611	-0.111152	-0.217064	0.000592	-0.040013	0.282930	0.317569	0.307106	-0.129389	0.178997	0.224445	-0.186564	-0.393893	0.331658	0.450195	-0.029494	0.043820	0.248856	0.296478	0.427402	0.246764	0.116502	0.316277	0.072663	-0.254320	0.038832	0.221107	-0.225319	0.383484	0.119299	-0.167091	-0.208028	-0.159201	0.015587	0.236927	-0.285801	0.260708	0.001793	-0.064175	-0.011323	0.063032	0.058785	-0.072304	0.084143	-0.010330	0.390322	-0.057296	-0.035658	-0.141524	0.052971	-0.113101	-0.151202	0.029511	-0.085837	0.157289	-0.055222	0.276881	0.102242	0.113276	0.108124	0.164651	-0.018582	0.118372	0.338900	-0.040800	0.196459	0.045784	0.039719	0.245030	0.390763	-0.042620	-0.211822	-0.067341	-0.120659	-0.120162	0.043332	-0.356584	-0.412558	-0.384838	-0.076306	0.005397	0.311012	-0.023206	0.307503	0.378256
0.070478	-0.460317	-0.008356	0.125043	-0.165157	-0.164842	0.252283	-0.077695	0.027616	0.266258	-0.212632	-0.378376	-0.086093	0.232505	-0.059199	-0.303148	-0.051331	0.030516	0.050469	-0.149518	-0.004441	0.159526	-0.314201	0.000311	-0.060759	0.163341	-0.014842	-0.237107	-0.278582	0.228926	0.290821	0.024601	0.127937	0.250719	-0.009872	-0.064921	-0.080662	-0.154803	-0.105756	0.098311	-0.012912	0.062107	-0.346247	-0.038439	0.605610	-0.101809	-0.253967	0.070897	-0.013674	-0.365639	0.184751	0.081723	-0.011276	-0.168013	-0.220546	0.253518	-0.198541	-0.026407	-0.054285	-0.016244	0.065367	-0.240210	0.059924	-0.231057	-0.275950	0.005694	-0.296534	-0.076959	0.196897	-0.172793	-0.004615	0.126545	0.108344	0.184779	-0.083314	-0.279434	-0.125605	0.096691	0.314694	-0.148624	-0.132334	0.157810	-0.084609	0.286951	0.100096	-0.040435	0.274044	-0.008524	-0.503845	0.021969	0.182025	0.048178	0.516135	-0.148138	0.191807	-0.126482	0.062840	-0.113279	0.140833	0.093268	0.003504	0.451039	0.017523	-0.068196	-0.047007	0.058133	0.256160	0.107276	0.139764	0.001639	0.081497	-0.405766	-0.125288	0.181038	0.038366	0.006109	-0.478070	0.078324	-0.031714	-0.021510	0.006322	-0.120429	0.040844	0.220606	-0.016487	0.006720	0.095853	0.259845
0.071744	-0.066479	-0.165727	0.138509	0.086421	-0.172872	-0.124638	0.211711	-0.027644	0.282526	-0.049689	0.054062	0.229236	-0.185354	0.199009	0.093601	-0.082091	-0.068862	-0.092007	-0.165063	0.193388	-0.120826	-0.175144	0.114979	-0.101426	-0.051868	-0.035258	0.281468	-0.028946	0.111410	-0.122811	-0.133193	0.016007	0.100781	0.031133	0.346774	-0.161458	0.183375	0.021610	0.145485	-0.098710	-0.315539	-0.080739	0.115388	-0.241850	0.094995	0.241846	-0.117411	-0.128354	0.012655	-0.031852	-0.219683	-0.046961	-0.051504	-0.244889	-0.111979	0.190311	0.148529	-0.207160	-0.197390	0.035717	-0.145781	0.003663	0.215801	-0.017123	0.013237	0.198140	-0.027533	-0.034760	-0.151996	0.139447	-0.214938	0.030382	0.047780	0.030341	-0.156810	-0.056374	-0.124504	-0.126874	-0.139360	-0.195478	0.066708	0.217296	-0.122963	-0.246587	-0.049393	0.157230	0.158706	-0.059687	-0.150875	-0.020983	0.140577	0.126945	-0.030975	-0.078448	0.009696	0.171059	-0.133899	-0.012253	-0.388891	0.145812	0.136618	-0.019448	0.309863	0.062827	-0.164539	-0.207996	-0.132984	0.102499	-0.001128	0.245563	0.224148	-0.026526	0.426969	0.099230	-0.193614	0.270205	-0.244033	0.221305	0.004357	-0.200041	0.068953	-0.143789	-0.057367	-0.034213	0.066723	-0.101897	-0.062453
0.161867	0.036769	-0.048000	-0.106872	-0.141912	0.132850	-0.071840	-0.090974	-0.062795	0.091609	-0.177828	-0.292810	-0.093049	-0.077096	0.137403	-0.143109	-0.086614	0.127112	-0.089544	0.123162	0.121033	-0.040555	-0.248452	0.512225	-0.058085	0.396251	0.079918	-0.161879	-0.225898	0.081139	-0.115471	-0.052056	-0.114243	0.426566	-0.050001	0.168456	0.260013	0.101971	-0.261665	0.106963	-0.311154	0.075602	0.538541	0.221295	0.390065	0.106816	0.333948	0.085054	-0.207444	-0.067033	0.149634	0.008246	0.202889	0.520941	0.132528	-0.364429	-0.318490	0.183480	0.431006	-0.144174	-0.121709	-0.134919	0.035907	-0.064403	-0.249078	-0.093571	-0.195841	0.120917	0.057241	-0.215682	-0.033728	-0.217167	0.169118	0.183034	-0.045609	-0.276528	0.122296	0.007130	-0.036935	-0.070401	-0.259354	-0.164735	-0.099478	0.058852	-0.175805	0.299105	0.352014	0.056665	-0.127763	-0.164960	0.182800	-0.219945	-0.074639	-0.502205	-0.127186	-0.101827	0.086633	0.028199	-0.207022	0.298140	-0.086308	-0.443768	-0.087842	-0.049174	-0.629752	0.245133	-0.086312	-0.256710	0.268487	0.135295	0.023792	0.114649	0.172748	-0.008738	-0.050351	-0.306845	0.180992	0.353309	0.383337	0.478303	0.099624	-0.017606	0.040265	-0.012822	0.296795	-0.437178	-0.074277	0.213671
0.130248	0.040444	-0.567400	0.007172	0.161974	-0.223634	0.198929	-0.406964	-0.115081	-0.114524	0.161606	-0.014318	-0.033937	0.019459	0.213256	-0.150095	-0.129038	-0.322665	0.087091	0.205410	-0.124059	0.103590	-0.267604	0.143848	0.023287	0.334748	-0.555380	-0.291211	0.153831	-0.186477	0.157046	-0.135803	-0.056312	0.490063	0.058614	0.144242	-0.031408	-0.173287	-0.151268	0.116387	-0.068987	0.156271	0.239651	0.203646	0.349924	0.041626	0.038512	-0.101558	0.259159	0.010465	0.114452	-0.226429	0.166310	-0.069118	0.057481	0.109141	-0.178122	-0.243764	-0.224180	0.347659	-0.306126	-0.173417	-0.132238	-0.254332	-0.114726	0.091411	0.268674	0.240230	0.286465	-0.020977	-0.186091	0.196275	0.530786	0.027742	-0.106850	0.220851	0.022012	-0.301889	0.014668	0.241346	0.078829	0.072378	-0.153098	-0.164188	0.034617	-0.021720	0.139467	-0.241704	-0.000497	-0.120715	0.021696	0.352967	0.445098	0.274815	-0.132452	0.114057	-0.201166	0.264162	-0.114164	-0.148512	0.134449	-0.023785	-0.181815	-0.039335	0.279953	0.148984	0.019183	0.136636	0.049006	-0.098421	0.052177	-0.073405	0.111064	-0.195190	-0.000960	0.078696	-0.089719	-0.077493	-0.226502	0.301986	0.042453	-0.223302	-0.064862	-0.040017	-0.409601	0.038038	-0.266595	-0.240946
-0.260285	-0.008241	0.170942	0.021406	-0.052221	0.057057	0.105964	-0.362187	-0.107027	-0.030793	-0.048730	-0.350958	0.606270	0.050728	0.121674	-0.040122	-0.011005	-0.077387	0.048113	0.199109	-0.039110	0.139781	0.078935	-0.250293	0.155269	-0.215909	0.287647	-0.240761	0.279144	-0.037101	-0.122179	-0.153384	0.149495	0.539341	0.077697	0.168488	0.126822	0.005671	-0.201520	0.018979	0.153776	-0.033537	0.418477	0.073401	0.163916	0.177897	0.073737	-0.370961	-0.070787	0.081507	0.166195	0.156581	0.229442	-0.036747	-0.008087	-0.267665	0.050229	-0.147673	0.086626	0.082505	-0.191442	0.288442	0.083257	-0.397767	0.032288	0.093264	-0.230069	0.211412	0.095570	0.112056	-0.105533	-0.207071	-0.209169	0.182671	0.524097	-0.131073	-0.007339	-0.158861	0.146752	0.172115	-0.273150	0.125125	-0.334202	0.321560	-0.382145	-0.023176	-0.182628	-0.053973	-0.109716	-0.222452	-0.036222	-0.478771	-0.031909	0.164578	-0.064522	-0.052415	-0.218399	0.152956	-0.047428	0.216711	0.013011	0.056249	0.043943	0.217654	0.658263	-0.570839	0.295616	0.111608	0.193624	0.055055	-0.236879	0.040658	-0.109073	0.400543	0.215612	-0.140718	-0.403247	-0.442844	0.358850	-0.003215	-0.217727	-0.042956	0.046043	-0.400464	-0.005902	-0.060756	0.075085	0.264754
0.349949	-0.083936	0.372710	0.139429	0.392237	-0.197037	-0.449820	-0.128394	0.147757	-0.271934	0.216610	0.003769	-0.756520	-0.330110	-0.010132	0.113259	-0.373100	-0.095453	0.303947	-0.207366	-0.121348	0.173997	-0.175599	0.093030	-0.255919	-0.315534	0.088729	-0.084749	0.117389	0.330284	0.361877	-0.278608	-0.342287	-0.067088	0.086218	0.156478	-0.024035	-0.423977	0.037764	0.237136	-0.034345	-0.127297	0.175054	-0.228161	0.025046	0.241762	-0.070490	0.409308	0.356937	0.033472	-0.120279	0.120051	0.094612	-0.302726	0.006040	-0.283864	0.181795	-0.212299	-0.236571	-0.083173	-0.217123	0.081502	-0.091200	-0.005576	0.222150	-0.021197	-0.067602	0.010733	0.042907	0.015678	-0.289458	0.191903	-0.349150	0.009075	-0.439961	-0.014639	0.213529	-0.147074	0.002752	0.087521	-0.123438	-0.022359	-0.122643	-0.504105	0.170021	-0.272080	0.028174	-0.267757	-0.054401	-0.046527	0.228108	-0.438233	0.267327	0.090388	-0.332563	-0.305106	-0.004992	0.163363	-0.328738	-0.167641	0.278696	0.187422	-0.085594	-0.230868	-0.075962	0.029324	0.111294	0.048493	-0.421215	0.180481	0.186131	0.308809	0.290603	0.285901	-0.468257	-0.018161	0.285012	-0.400209	-0.077857	0.179174	-0.217567	-0.032285	-0.171346	-0.147433	-0.492467	0.315200	0.031517	0.041325
-0.097591	-0.182949	-0.041267	0.337457	-0.022102	0.267150	-0.027866	-0.163199	-0.033555	-0.108580	0.482256	-0.132160	0.173425	0.255863	0.230833	0.154962	-0.282303	0.034900	-0.286542	-0.026365	-0.326521	-0.303592	0.187046	0.463962	-0.109429	-0.221929	0.082450	0.245252	-0.316521	-0.413172	0.349845	0.057961	0.331327	-0.257215	0.037626	0.259455	-0.316624	-0.331859	0.093326	0.056581	-0.034696	0.246256	0.194574	-0.030727	0.052236	-0.054405	-0.344975	0.137599	-0.063970	-0.047692	0.002503	0.243025	0.085424	-0.025826	-0.064565	-0.008135	0.104934	-0.021005	-0.115711	-0.376579	0.392371	0.018497	-0.043837	0.051146	-0.384135	0.262175	-0.232795	0.181591	-0.086285	-0.132801	0.205140	0.146312	0.166067	0.007183	-0.364077	0.081654	-0.128171	0.080892	-0.171854	0.437744	0.182510	-0.257883	0.112648	-0.141172	-0.407246	-0.296385	-0.142056	0.021915	0.169131	-0.073827	-0.085316	0.092233	-0.163381	-0.457152	0.018141	0.296084	0.101744	0.450598	-0.019941	0.063997	0.227575	-0.167289	-0.049460	-0.164982	0.115400	-0.206184	-0.098266	0.105109	0.357165	-0.052802	-0.102113	0.074055	0.027858	-0.118428	0.264465	0.033942	-0.602920	-0.366188	-0.050025	-0.105999	-0.267319	0.107752	0.264243	-0.015483	0.206148	0.161101	0.569610	-0.054676
0.201231	-0.333520	-0.017634	0.440420	0.012532	0.089851	-0.160730	-0.459059	0.042771	0.014906	0.284957	-0.242767	0.212628	0.299675	0.177967	0.533092	-0.110994	0.196977	0.322758	0.167685	0.037071	0.166820	-0.081072	-0.182551	0.060277	0.119582	0.006289	-0.140648	-0.339919	-0.165105	-0.239308	-0.444436	0.128903	0.089607	-0.006680	0.133060	0.186313	0.286238	0.194691	-0.055700	-0.182402	-0.097294	-0.138360	0.127466	0.090555	0.199784	-0.113798	0.205325	-0.064706	-0.333792	0.002369	0.152031	-0.335128	0.367631	0.147755	-0.356406	0.169668	0.204716	0.153482	-0.021260	-0.064573	0.538881	0.295954	0.040054	0.171507	-0.290662	0.101369	-0.337727	-0.119218	0.438390	0.269486	-0.098927	0.159726	-0.001684	0.217392	-0.217424	0.040525	0.245654	0.040534	0.100026	0.120443	0.125559	0.536347	-0.331588	0.154489	-0.091574	-0.055476	0.082335	0.028206	-0.353178	0.249109	0.054760	-0.220002	-0.123123	0.009152	0.167799	-0.361418	-0.213419	0.127122	0.084494	-0.456625	0.042762	-0.124245	0.066107	0.229287	-0.146528	0.099425	-0.118317	-0.150171	-0.161851	0.103751	-0.230650	0.034886	0.089385	-0.080688	0.292371	0.199885	0.084814	0.090791	-0.207324	0.039701	0.038651	0.091741	-0.160208	-0.195187	-0.010275	-0.484336	0.041292
0.557891	-0.002162	0.052521	0.450569	0.136522	-0.027987	0.165573	0.241733	0.343822	0.073723	0.203551	0.251737	0.022511	-0.026949	0.055411	0.144479	-0.469809	-0.138539	-0.251382	0.162537	0.012523	-0.172957	0.019127	0.047527	-0.484436	-0.088912	0.384848	0.098895	-0.099456	-0.227149	-0.121544	0.174225	0.018588	0.016673	0.381154	0.155469	0.395122	-0.314201	0.483601	0.029790	-0.103693	0.463496	-0.139258	-0.126211	-0.366397	-0.177402	0.154950	-0.223216	-0.125272	-0.416337	-0.330444	0.053325	-0.047782	-0.225805	-0.142067	0.023757	-0.027181	0.284501	-0.026181	0.015375	0.277872	0.128671	-0.352295	0.091414	-0.043343	-0.047050	-0.111291	-0.285430	-0.720002	0.316965	0.478225	-0.127851	-0.204530	-0.201962	-0.256149	-0.039926	-0.193219	-0.184877	0.292227	-0.121360	0.020526	0.029661	0.151054	-0.194372	-0.318201	-0.076978	0.420949	0.236640	0.134677	-0.182422	-0.032072	0.369391	0.029476	-0.135961	0.258295	0.047963	0.089907	0.134046	-0.406100	-0.326452	0.026570	0.118544	0.002291	0.130260	-0.027784	0.035427	0.064403	-0.158860	-0.044252	-0.162764	-0.155085	-0.056512	0.247337	-0.003010	0.076894	-0.123470	0.043718	0.160789	0.191859	-0.199521	-0.196428	0.029968	-0.407905	0.037112	-0.301657	-0.031039	-0.152388	-0.340489
0.338468	-0.018415	0.191926	-0.250438	0.028011	-0.223942	0.140315	-0.076751	0.218479	0.021991	-0.202924	0.005777	-0.041120	0.439200	-0.031537	0.168873	-0.083454	-0.246644	-0.320696	0.200517	0.101139	-0.308255	0.015215	0.401121	-0.400931	-0.134336	-0.141335	0.053079	-0.255791	0.028919	0.010853	-0.092802	0.024561	-0.086860	-0.533543	-0.272803	0.219057	-0.010717	0.021553	-0.290689	0.211440	-0.151269	-0.130511	-0.119204	-0.383649	0.061364	0.055062	-0.304971	-0.075401	-0.233782	-0.010883	-0.138894	0.401543	0.064725	-0.199850	-0.182102	-0.195949	0.253247	0.405118	-0.006237	-0.028607	0.180807	0.093409	0.099977	-0.132474	0.212708	-0.028584	-0.177328	-0.204764	-0.264658	0.154096	-0.148067	0.240489	-0.515213	0.154440	-0.598636	-0.063404	-0.087165	0.085178	-0.031153	-0.341211	-0.085824	0.071238	-0.194527	0.248415	0.310149	0.105995	-0.093016	-0.265412	0.020264	0.047845	0.094566	-0.133712	0.127221	0.117634	-0.031246	-0.156863	0.329051	-0.297772	-0.300915	-0.327276	-0.122539	0.046508	0.142002	0.244829	-0.138171	0.131820	-0.098534	-0.482641	-0.528832	0.254432	-0.141194	-0.166213	-0.051538	0.198184	-0.282874	-0.006456	-0.063144	0.063425	-0.076033	0.030286	-0.365574	-0.023639	0.117902	-0.071099	0.029060	-0.110734	-0.117988
0.089748	-0.019597	-0.044497	0.150078	-0.166864	0.168171	0.500912	0.039439	-0.071948	0.326593	0.056089	-0.518729	0.233197	-0.057786	-0.425440	0.069266	-0.186977	0.072453	-0.027788	0.415532	-0.270600	-0.172206	0.324694	-0.184694	0.216176	0.398132	0.397529	0.152533	0.054126	-0.143450	-0.221433	-0.069534	0.169650	0.247085	-0.259588	-0.016153	-0.096416	-0.331326	0.210438	-0.537821	0.161406	-0.015578	-0.206838	0.256147	-0.405923	0.295094	0.101486	-0.275317	-0.570006	0.037841	-0.168421	-0.187781	0.178234	0.066584	0.087487	0.319446	-0.042350	-0.156366	-0.336672	-0.162240	-0.121823	0.161478	-0.126598	-0.208024	0.588447	0.057853	0.137958	0.060335	0.034047	-0.146846	0.037994	0.045712	0.051924	-0.215725	0.030152	0.080957	0.068898	-0.172032	-0.069033	0.396699	-0.101534	-0.192022	0.342088	0.131687	0.269396	-0.241296	-0.310159	0.046950	0.078395	0.289094	0.005666	-0.276384	0.270350	0.063777	-0.162317	-0.360354	-0.339927	0.219582	0.253701	-0.053404	-0.011397	-0.108133	-0.557780	-0.341605	-0.068381	-0.354824	0.025199	0.198254	-0.161933	-0.351556	0.015719	0.212892	-0.003017	-0.212251	0.008720	-0.165455	0.134524	0.358755	0.340748	-0.052280	-0.016819	0.070593	-0.252076	-0.115921	0.097123	0.254426	-0.133197	0.056498
0.071261	-0.198388	-0.135563	0.087569	0.057261	-0.002590	0.360939	-0.047709	-0.659664	0.012991	-0.093752	0.106918	-0.023731	0.028830	-0.271241	0.064128	0.474957	-0.230945	-0.098173	0.018636	0.166017	0.183718	0.200171	-0.175163	-0.379943	0.021975	-0.138134	0.370497	0.005719	0.479112	-0.365325	-0.045375	0.013196	0.108462	-0.104280	-0.122985	-0.058928	0.030571	0.427133	-0.045042	0.251056	0.031958	-0.173274	0.126706	-0.348256	-0.082040	0.127237	-0.057511	-0.447488	-0.356385	-0.448946	0.181308	0.549464	0.122256	-0.255616	-0.272360	-0.141356	-0.081919	-0.181810	0.018744	0.242864	-0.237728	-0.196612	0.032551	0.061572	-0.006779	0.187787	-0.226960	-0.342674	-0.353727	-0.255253	-0.177992	0.096696	-0.016861	-0.048895	-0.334375	-0.333719	-0.100726	0.199592	0.027859	0.373756	-0.251057	-0.321198	-0.121335	-0.163896	0.145616	-0.156916	-0.315470	0.338281	-0.215520	0.414005	0.093774	0.341629	-0.012254	-0.072758	0.073760	0.010155	0.081562	-0.176483	-0.018715	-0.094467	0.226535	-0.091228	-0.039401	-0.351649	-0.064864	-0.037776	0.255471	-0.183883	-0.140297	-0.083093	0.630045	0.568878	0.124680	0.106631	-0.037337	0.079517	0.328204	-0.216752	-0.279854	-0.110002	-0.090622	0.290902	-0.105435	0.064278	0.019794	-0.008144	-0.334596
0.089180	0.015673	0.410648	0.222692	-0.317206	-0.068948	-0.082555	0.001811	0.058068	-0.166960	-0.024725	0.082486	0.110315	0.139121	-0.037241	-0.201880	-0.207579	0.276448	-0.090557	0.124014	-0.031969	-0.001587	0.328879	0.188798	-0.230385	0.038792	0.406854	0.093955	0.052529	-0.003887	-0.134183	-0.285730	-0.078510	0.104526	-0.020314	-0.070318	-0.024564	0.132097	0.162461	0.064984	0.193692	-0.084848	0.022654	0.161027	0.217374	0.363448	0.129997	-0.147774	0.025452	-0.104260	-0.276298	0.100299	0.070860	-0.195975	0.048577	-0.120980	-0.196346	-0.178595	-0.205111	-0.513171	0.126733	0.398786	0.160636	-0.036305	0.493365	0.051001	0.008136	-0.251582	0.352690	-0.388700	0.034241	-0.018151	0.003249	0.374902	0.280957	-0.111280	-0.193325	-0.039502	0.212220	0.054773	-0.173021	-0.223016	-0.016152	-0.105215	-0.024342	-0.036870	0.158876	-0.132896	-0.349863	0.405313	0.036887	0.019869	0.000115	-0.141854	0.208779	0.303334	-0.178250	0.344932	0.123276	-0.326239	0.079748	-0.368773	0.091912	0.053008	0.304165	0.053858	-0.077382	0.124340	0.114338	0.370472	-0.113067	0.259735	0.190009	0.091454	0.288875	-0.055439	0.085467	-0.296876	-0.521492	0.018684	-0.396482	0.114774	0.445560	0.043648	0.210998	0.365969	-0.025693	0.199272
-0.051448	0.067218	-0.194180	0.363046	-0.026115	0.328384	-0.101014	-0.162154	-0.057319	-0.115876	0.333044	-0.003105	0.233971	0.066495	0.155696	0.204658	-0.366717	-0.045136	-0.479431	0.027242	-0.311573	-0.180458	0.149729	0.361165	-0.150678	0.029257	-0.108394	0.242740	-0.402717	-0.470847	0.194831	0.065502	0.353371	-0.263887	-0.080693	0.354660	-0.226064	-0.302576	0.250849	0.109530	-0.169138	0.119466	0.124715	-0.003646	-0.046690	-0.037887	-0.316011	0.119439	-0.131886	-0.113410	0.028065	0.109183	-0.012975	0.172915	-0.126137	-0.115147	-0.000315	0.161220	-0.147241	-0.198951	0.515746	0.237504	-0.015999	0.160570	-0.203917	0.206402	-0.204909	0.250338	-0.068648	-0.277385	0.141388	0.194350	0.062738	0.164217	-0.267668	-0.018648	-0.213416	0.060507	0.086105	0.216225	0.231090	-0.186932	0.112502	-0.193821	-0.470488	-0.387499	-0.076728	0.037612	0.262304	-0.099619	-0.005714	0.117187	-0.203730	-0.273691	0.086758	0.180793	0.147475	0.352980	-0.231693	0.289818	0.045779	-0.453332	0.071163	-0.187944	0.027327	-0.054315	-0.248747	0.209321	0.276138	-0.112656	-0.172167	0.078784	0.240965	-0.021749	0.270160	-0.001442	-0.607520	-0.552771	0.127459	-0.087982	-0.317800	0.147404	0.304096	-0.056537	0.138594	0.038439	0.492115	-0.186947
-0.001996	-0.090100	-0.195504	-0.024354	-0.065766	0.349555	0.237661	0.205936	-0.167757	0.057645	0.213597	0.115807	0.471935	0.225086	-0.258059	0.031071	-0.080921	0.103850	0.518668	0.397969	0.352423	0.035861	0.048237	0.546270	0.006880	0.078445	0.172741	-0.231499	-0.152350	-0.091857	0.167795	-0.255557	-0.045192	0.057060	0.231982	0.211796	0.157954	0.075408	-0.289655	-0.141555	-0.002394	-0.574622	0.355492	0.049838	-0.186155	0.101884	-0.109691	-0.094046	0.095526	0.094621	0.222437	0.181179	0.433898	0.093862	0.164000	-0.207601	0.005195	-0.038922	0.236898	-0.287229	-0.007746	-0.026982	0.149314	-0.133421	0.264524	-0.019151	-0.341406	0.097420	-0.102192	0.294544	0.085008	-0.222224	-0.229750	-0.256124	-0.180833	-0.123938	0.313768	-0.124897	-0.036548	0.374867	-0.151867	-0.094761	0.453253	-0.381558	-0.154307	0.114901	0.040018	0.312458	0.266146	-0.030550	-0.270056	0.014296	0.077860	0.164196	-0.282221	0.000461	-0.243483	-0.143403	-0.465601	-0.331708	0.214086	-0.147971	-0.418572	0.226767	0.030881	0.116744	-0.080724	-0.198786	0.332933	-0.109885	-0.070675	0.481316	-0.070505	-0.008065	0.348421	-0.096734	0.511845	0.431525	-0.474267	-0.075011	-0.196927	0.046055	-0.046367	0.250328	-0.086567	0.256502	0.031645	-0.490745
0.024688	0.220592	-0.312544	0.027146	0.017451	-0.222450	0.037172	-0.444163	-0.050829	0.146365	0.100605	-0.200658	-0.028504	0.061024	0.261451	0.276983	-0.067775	-0.139665	0.144725	-0.261453	-0.037815	0.095809	-0.159594	0.064827	-0.140481	0.484191	-0.136089	0.076608	-0.030397	-0.107592	-0.161296	-0.290471	0.009620	0.583892	0.088340	0.125610	0.093303	-0.153736	0.114759	0.004406	0.192702	0.147433	0.036182	-0.022828	0.004148	0.428842	-0.251568	-0.351389	0.277937	-0.158152	0.137603	-0.165343	0.133123	0.155796	-0.143860	-0.108072	-0.172034	-0.405566	-0.318304	-0.168703	-0.053781	-0.326398	-0.174392	-0.049479	0.385175	0.071818	0.128574	0.171491	0.270289	-0.235288	-0.264801	0.073724	0.521185	-0.074136	0.124632	-0.039779	0.052080	-0.306269	-0.140880	0.271535	0.245212	-0.184888	0.136853	-0.264474	-0.154209	0.036744	0.209528	-0.297195	-0.307010	0.360862	-0.071738	0.598126	0.399939	0.367576	-0.018884	0.210075	-0.315787	0.446903	-0.045097	-0.320425	0.070135	0.078803	-0.245827	-0.002600	0.169479	-0.231600	0.056240	-0.014076	0.616115	-0.217208	0.234870	-0.037957	0.077771	-0.076465	0.068656	0.206727	-0.147210	0.038479	-0.064085	0.269614	0.211575	-0.452833	-0.104279	-0.104342	-0.081076	0.243489	-0.524278	-0.042839
0.075236	-0.070566	0.341757	0.092156	-0.161250	-0.001076	-0.380702	-0.005894	-0.168684	0.036101	-0.187833	-0.047634	-0.315137	-0.105122	-0.128959	-0.123895	0.006304	0.022150	0.148054	0.056286	0.180897	-0.085066	-0.278638	0.251626	-0.034389	-0.056672	-0.078414	0.052126	0.015424	0.166392	-0.468601	0.170174	0.038362	0.097725	0.329016	0.119013	0.209142	0.177322	-0.243655	-0.182675	-0.029056	0.028929	-0.026271	0.220753	0.014027	-0.185620	0.290489	-0.250016	-0.069411	-0.011310	0.117463	-0.089038	0.211011	-0.041954	-0.183151	0.289340	0.006336	-0.061061	0.195577	0.253839	-0.041951	-0.098420	0.093694	0.030455	0.021489	0.092759	0.477412	0.232886	0.315308	-0.137590	0.061379	-0.232005	-0.055171	0.023235	-0.073798	-0.082758	0.119359	-0.294606	0.114450	-0.006122	-0.202531	0.301746	-0.055436	-0.083525	0.136509	0.102995	0.052459	0.156510	-0.214145	0.130807	0.306749	0.129571	-0.282772	-0.118828	-0.258755	-0.128641	0.015492	-0.236947	0.035583	0.181001	0.199413	0.116480	0.097612	0.004535	-0.045592	0.082616	-0.122448	-0.182875	-0.167755	0.175609	-0.194184	0.267086	-0.124454	0.316415	0.199577	-0.169257	-0.073104	-0.006783	0.229570	-0.091348	0.008767	0.260250	-0.141095	-0.211894	0.003269	-0.113327	0.259972	0.026081
0.136575	-0.210841	-0.068154	-0.128681	0.014517	0.191089	0.205207	0.147672	-0.341370	-0.253306	-0.544023	-0.024098	0.063116	0.759604	0.123939	-0.077084	-0.123937	0.278733	0.271961	-0.137424	0.019959	-0.191971	0.085164	0.070406	0.178924	0.077152	0.388853	-0.219244	-0.254239	-0.009824	-0.482275	0.011855	-0.174203	0.248836	-0.246087	0.199571	-0.013946	-0.247033	0.022614	-0.012721	0.174419	-0.241821	-0.370914	-0.226342	-0.112157	0.283626	0.057993	0.012395	0.046153	-0.151361	0.293762	0.112135	0.080514	0.049498	-0.132733	0.286840	-0.026930	-0.119705	-0.055287	-0.392901	-0.103486	0.102214	0.175599	-0.020778	0.083519	-0.174540	0.265581	0.080282	-0.134689	-0.041021	0.159731	-0.019310	0.762315	0.018675	0.457231	-0.160311	0.273318	-0.178893	-0.034196	0.256996	-0.041874	-0.536215	0.637615	-0.089747	0.195248	0.293796	-0.487820	-0.079325	0.261041	0.022724	0.180010	0.354819	-0.130149	0.091837	-0.083231	-0.203829	-0.630616	0.528440	-0.219783	-0.056706	0.040801	-0.044509	-0.214869	0.079915	0.068595	-0.038267	-0.191394	-0.349117	-0.130386	0.030182	-0.206271	-0.056747	0.583226	0.217103	-0.124632	0.100716	0.271022	0.179609	-0.364022	-0.164343	0.107452	-0.033034	-0.374119	0.044842	0.112797	-0.071011	0.186385	-0.362020
0.133115	-0.057363	-0.192165	-0.110358	-0.332833	0.029579	0.032077	0.278871	-0.056289	0.107975	0.075260	0.067042	0.210061	0.224608	-0.170490	0.562430	-0.173543	0.022960	0.098388	0.553134	0.107344	-0.188156	0.008268	0.205060	-0.107279	0.070901	-0.032715	0.094824	-0.400624	0.217055	-0.178594	-0.295788	0.441737	0.127160	0.202611	0.120576	0.402541	-0.279105	0.063302	0.205576	0.096369	0.098860	0.024130	0.452031	0.020204	-0.119736	-0.095888	0.106356	0.016832	0.196371	-0.231538	0.344210	0.080253	-0.019846	-0.413372	-0.378639	-0.072991	0.133194	0.226248	-0.033789	-0.145923	-0.283918	-0.152326	0.002936	0.041067	0.309867	-0.435717	0.204789	0.211031	-0.008250	0.024451	0.160569	0.728951	-0.092840	-0.063454	-0.024941	0.078518	0.098556	0.100213	0.176957	-0.255254	0.141657	-0.112837	0.027005	-0.037557	-0.533879	-0.563014	0.474716	0.170569	-0.004111	0.031920	0.057494	-0.430417	-0.298491	0.102405	-0.183176	-0.422209	-0.003882	-0.208483	0.194742	-0.024886	-0.015662	-0.240647	-0.478230	-0.106231	-0.324832	-0.129171	0.234477	-0.108753	-0.094840	-0.062647	0.304094	0.227377	0.472756	0.463926	0.611283	0.341754	0.339942	0.068269	-0.031594	-0.033988	0.702244	0.025252	-0.708975	0.018118	0.148240	0.093185	-0.271744
-0.235629	0.374233	-0.074228	0.260502	0.403651	0.341164	-0.216586	0.318992	-0.032768	0.133917	-0.085733	0.289551	0.463969	0.383269	0.145699	0.009834	0.084004	0.086082	0.193738	0.132747	0.127264	-0.392575	-0.018572	-0.273733	-0.007483	0.395777	0.385430	0.058514	-0.315504	0.015591	0.249175	-0.627934	0.210170	0.029150	0.104481	0.111061	-0.379798	-0.236077	0.017650	-0.018156	-0.116339	0.102029	0.204217	0.348435	-0.538444	-0.122730	-0.001629	-0.122500	-0.002762	0.174158	0.144034	-0.196022	0.252946	0.692839	0.141139	0.152029	-0.138720	0.574993	-0.505832	-0.361230	-0.041285	0.026573	-0.165382	-0.098777	0.293492	0.201582	0.170013	0.056707	-0.030365	-0.011575	0.033762	-0.477274	-0.178557	0.316052	-0.023307	-0.112533	-0.546376	-0.058379	-0.224832	-0.150923	0.032726	-0.137612	0.125220	-0.322489	-0.191973	0.066766	0.082312	0.187324	0.145937	-0.236326	0.002367	-0.012180	0.208188	-0.042547	0.036574	0.159177	-0.241835	-0.151501	-0.293351	-0.059087	0.087718	-0.659292	-0.085862	0.373060	-0.115675	-0.020652	0.061785	0.228864	0.273176	0.360945	0.570088	0.156265	0.082700	0.640082	0.341454	-0.081859	0.138576	-0.281378	0.270314	-0.186680	0.078347	0.255417	-0.094326	-0.136288	-0.417719	0.107573	0.261644	-0.157157
0.199192	0.358750	-0.209130	0.027268	0.020816	-0.152306	-0.219544	0.032440	-0.353775	0.222389	0.245389	-0.423288	0.043889	0.353141	0.335149	0.367036	-0.157135	-0.199143	0.192341	0.184889	0.048540	0.168640	0.001312	0.462168	0.125587	0.071704	0.138950	0.136391	-0.251502	-0.075050	-0.012624	-0.128784	-0.016751	0.210258	-0.241494	-0.376387	-0.615339	0.342293	0.016536	-0.266706	0.508361	-0.047563	-0.213922	-0.262791	-0.174384	-0.017909	-0.388976	-0.174079	0.305937	0.215187	-0.072545	-0.448392	0.332078	0.236271	-0.305073	-0.167289	-0.054796	0.415373	-0.675518	-0.024633	0.391254	-0.038795	-0.032024	-0.013425	0.452587	-0.046054	-0.309318	-0.259418	-0.455393	-0.031996	0.009124	-0.128878	0.545071	-0.016194	0.017019	0.326478	0.167933	-0.341794	-0.080590	0.139973	-0.196668	0.186155	-0.052754	-0.034163	-0.174180	-0.204981	-0.109630	0.028041	-0.308649	-0.265620	-0.358737	-0.190208	-0.176191	-0.192648	-0.672727	-0.426842	0.171560	0.518381	-0.066839	0.101312	-0.135925	-0.119823	-0.591363	0.199050	-0.291861	-0.478343	-0.044387	-0.159735	0.423580	-0.327143	0.132277	0.122942	0.171946	0.356596	0.233406	0.043355	0.092181	-0.037600	0.178985	0.469393	-0.348984	0.193821	-0.081547	-0.100935	0.066061	0.144544	0.123973	-0.435149
-0.358020	0.383289	-0.123072	0.090165	-0.124417	-0.029491	0.223721	0.153868	0.098087	0.680950	0.320343	0.198814	-0.351464	-0.482052	-0.000816	0.082358	-0.428516	-0.518302	-0.425079	0.201079	-0.225043	0.239465	-0.172823	0.175944	0.263269	0.618704	-0.835913	-0.026708	-0.175809	-0.233337	0.175134	-0.062869	0.387955	-0.303131	0.365037	0.193957	-0.148282	-0.267736	-0.263100	-0.143491	-0.064921	-0.073361	0.232643	0.073009	0.021420	-0.351906	-0.381354	-0.273829	0.478673	-0.908608	-0.462496	-0.237410	-0.041773	0.301744	0.077814	-0.133795	-0.118271	0.238359	0.218171	0.140012	0.470054	-0.086009	0.282131	-0.480894	-0.117874	0.003231	-0.170113	-0.197624	0.021484	0.046533	0.138224	-0.364321	-0.004818	0.080244	-0.136297	-0.534530	0.102722	0.377230	0.355458	-0.235362	-0.239148	0.016881	-0.050120	0.236111	0.448647	-0.364660	0.263025	0.140857	-0.073166	0.051084	0.252833	-0.175787	0.112826	-0.555518	-0.402947	-0.242670	-0.441615	0.060637	-0.286725	-0.122248	0.085428	-0.545642	-0.173929	0.038359	-0.358297	-0.271197	0.417825	-0.346554	-0.016916	-0.191085	-0.275453	0.074160	0.667073	0.222408	0.033866	0.107132	0.286007	-0.251890	-0.239586	0.189635	0.240914	0.084670	0.210554	-0.112841	0.183882	-0.514598	-0.021647	0.135663
0.149004	-0.206179	0.065168	-0.094388	0.124589	0.099475	-0.176135	-0.115956	-0.192376	0.016466	-0.483318	0.142542	-0.115268	0.130300	0.097227	0.354651	-0.138664	0.293868	-0.227302	-0.204421	0.105757	-0.069181	0.265504	0.540929	-0.269615	0.207279	-0.387156	0.137808	0.098499	-0.193053	0.077005	-0.651359	0.035489	-0.068101	-0.226728	-0.141997	0.210749	0.083979	0.250838	-0.411772	-0.057328	-0.208300	0.010061	-0.134709	-0.376506	-0.106249	0.347174	-0.056486	-0.091162	0.026340	-0.042126	-0.103963	-0.094841	0.302551	0.198957	0.025254	0.049512	0.186645	-0.504394	-0.283782	0.336499	0.135875	0.068910	-0.002263	-0.277936	0.123497	0.226851	-0.058559	-0.347306	-0.032762	0.285542	0.056637	0.138171	-0.184913	0.125158	-0.086765	0.479686	0.097853	-0.441992	0.136290	0.089700	-0.368113	0.307732	-0.596066	0.200291	0.351594	-0.171108	-0.003371	-0.265448	0.260787	0.154712	0.099474	0.062774	0.201104	-0.357004	0.044225	0.036017	0.210827	-0.040868	0.024447	0.112761	-0.186985	-0.447393	0.316572	-0.173799	0.029124	-0.019800	-0.133883	0.201925	-0.053064	-0.440665	0.091529	-0.428306	0.159028	0.063670	0.332996	0.121267	0.273134	0.335916	-0.147177	0.068835	0.411495	0.217808	0.052572	-0.025459	0.087979	-0.240565	0.127095
0.202254	0.118602	0.262591	0.212754	-0.149429	0.167406	-0.035585	-0.082228	-0.149548	0.120608	-0.462232	-0.121123	0.037718	0.046324	-0.131581	0.109790	0.010305	0.125500	-0.051106	0.040561	-0.170285	0.276620	-0.210214	0.472301	0.087789	0.473962	0.175180	-0.122661	-0.443954	-0.216918	-0.388648	-0.068660	0.015567	0.477588	-0.125896	0.079837	0.135570	0.250758	-0.285413	-0.273502	-0.150944	-0.043178	0.223932	0.054552	0.217891	0.218230	0.162284	0.243558	0.095336	-0.290228	-0.103158	-0.272149	0.062292	0.480832	0.025066	-0.283114	-0.077631	-0.043045	0.467288	-0.376306	-0.139362	-0.220946	-0.118083	-0.342200	-0.095675	0.001299	-0.203738	0.050803	0.133167	-0.320842	0.222571	-0.234136	0.233498	0.104274	-0.092189	-0.256723	0.124962	0.103113	0.033633	0.073934	-0.508808	-0.271292	0.275042	-0.044026	-0.255438	0.232964	-0.039045	0.256818	0.050624	-0.146369	0.187107	-0.148597	0.018481	-0.278564	-0.471539	-0.169452	-0.267520	0.146460	-0.609514	0.061637	-0.433325	-0.596340	-0.030106	0.213928	-0.664466	-0.174867	0.118350	-0.102979	0.249686	0.188877	0.179567	-0.109229	0.155297	0.188373	0.193347	-0.247302	0.376053	0.229042	0.413322	0.320748	-0.154693	-0.112065	0.432699	-0.097509	0.360372	-0.089587	-0.085332	0.028138
0.018611	-0.000069	-0.204049	-0.026325	-0.138136	0.229649	0.048335	-0.256551	-0.124695	0.273740	0.218314	0.051946	0.006164	0.016073	0.022323	0.132250	-0.066344	0.051371	0.013702	0.144961	0.262811	-0.149758	0.153613	-0.067375	-0.342773	-0.065449	-0.002451	0.138142	0.116606	0.197445	0.034942	-0.628970	0.112123	-0.049492	0.159555	0.123508	0.176541	-0.102018	-0.329765	-0.282921	-0.440601	-0.293139	-0.704213	0.181613	-0.189418	0.330223	-0.089063	-0.373124	-0.199169	-0.160518	0.168416	0.078690	-0.324818	0.038648	-0.275001	0.498308	-0.044218	-0.307288	-0.131758	-0.198217	-0.258252	-0.052217	-0.063530	0.012666	0.366191	0.205489	0.241905	-0.255802	-0.258745	0.058067	-0.161917	0.093770	0.067102	-0.084733	-0.072583	-0.304686	-0.070714	-0.252963	0.552348	-0.128083	-0.130229	-0.118196	-0.262662	0.641488	0.245573	0.446017	-0.195575	0.528448	-0.309628	-0.116213	-0.214287	0.157630	0.019805	-0.246200	0.018335	-0.163990	0.122346	0.138597	-0.263988	-0.243920	0.045017	0.035715	-0.265594	0.017043	-0.158943	-0.476065	0.567281	0.054380	-0.006709	-0.059094	-0.047748	0.254243	-0.076572	0.117886	0.364083	0.444004	0.111862	0.294385	0.534789	0.200752	0.036633	-0.151990	-0.245296	0.269545	-0.081017	-0.240889	-0.182946	0.276629
-0.080450	0.203189	0.513467	0.215210	-0.376964	0.045070	-0.252206	-0.260247	-0.196745	-0.120806	0.043816	-0.047230	0.160387	0.140790	-0.189257	0.337651	-0.065599	-0.209823	0.146111	0.064025	-0.019611	-0.214428	0.048898	0.257688	-0.296856	0.226423	-0.130507	0.106336	-0.347904	-0.096977	-0.571425	-0.125121	-0.161462	0.115906	-0.076167	-0.069310	-0.007810	0.287530	-0.007783	-0.108974	0.287839	-0.033807	0.125573	-0.200685	0.234362	0.373761	-0.142937	-0.505283	-0.139384	0.125205	-0.284927	-0.084652	0.505848	0.551728	-0.095880	0.429031	0.052818	0.339487	0.221760	-0.470671	-0.106906	-0.213102	-0.251379	0.276742	-0.084236	0.215101	0.523651	0.055768	-0.062772	-0.221205	0.158910	-0.149380	0.056516	0.191425	-0.015175	-0.357803	0.061880	-0.644182	0.485357	0.364847	0.121193	-0.109802	0.165710	-0.393242	0.009251	0.009046	0.076533	-0.056669	-0.139932	-0.121081	-0.054481	0.095899	-0.261677	-0.072654	-0.258318	-0.021056	-0.095254	-0.138906	-0.193267	-0.323708	-0.581838	0.025302	0.067328	0.065236	-0.091343	0.000075	-0.113214	-0.108324	0.123396	0.180037	0.347590	0.263777	0.057928	0.164067	0.162621	0.024900	0.090278	0.547616	0.551948	-0.132416	-0.149158	-0.385507	-0.105077	-0.119926	0.154712	-0.026127	-0.051299	0.035387
0.413369	-0.377184	0.034451	-0.097347	-0.122785	-0.264931	0.411775	0.101809	-0.222795	0.183208	-0.353650	-0.404852	0.139336	0.611716	-0.357184	-0.026492	-0.006467	0.163908	0.018311	-0.045857	0.023022	0.216912	-0.054330	0.102750	-0.039109	0.319960	-0.046788	-0.233903	-0.264258	0.126178	0.146906	0.013801	0.022167	0.465719	0.146253	0.003782	-0.014320	-0.026510	-0.254745	0.063676	0.217913	0.281363	-0.305536	0.241524	0.209750	0.081711	-0.274636	0.105939	0.248803	-0.476305	0.175181	-0.143555	-0.000318	-0.006133	-0.183739	0.068735	-0.135380	-0.316965	-0.208569	-0.550858	0.174108	-0.300839	0.222108	-0.187350	-0.219802	0.120809	-0.251594	-0.285029	0.272164	0.033029	0.089090	0.279382	0.211713	0.163922	-0.153881	-0.278185	0.214452	0.027136	0.209723	-0.174273	-0.286102	0.014147	0.161486	0.197269	-0.026028	-0.022283	0.293174	0.219310	-0.386373	-0.007480	-0.414277	-0.022186	0.214260	0.092228	0.392826	-0.018673	0.121512	0.015984	0.045702	-0.096185	-0.046142	0.363746	-0.170730	-0.043866	-0.042094	-0.002761	0.144333	-0.077235	0.382139	-0.028587	0.020134	-0.171458	0.157716	0.072771	0.147699	0.413610	-0.063424	0.168529	0.215316	-0.033014	-0.120086	-0.161672	0.074882	0.298079	-0.025819	0.045783	-0.169891	0.042023
0.303792	-0.194634	0.086385	-0.475387	-0.299238	0.086188	0.128807	-0.450259	-0.341361	-0.048743	0.371561	-0.384380	0.310893	0.382204	0.095565	0.271706	0.165231	-0.167618	0.071845	0.031500	0.021896	-0.279691	0.081931	0.185488	-0.305724	0.206365	0.538042	0.357103	-0.201545	0.183351	0.172657	-0.366387	-0.158958	0.117624	0.396379	-0.083363	0.077051	-0.063745	-0.244711	-0.173021	0.163267	0.288285	-0.186893	0.402476	0.026775	0.195067	-0.133110	0.285523	0.124120	-0.124749	-0.460817	0.127196	0.368959	0.443192	-0.245870	0.405332	-0.032226	-0.169281	-0.308979	-0.291544	-0.270146	-0.042469	-0.023457	-0.181591	0.102853	0.410704	0.122934	-0.193626	-0.087006	0.277565	-0.063312	-0.037146	0.140735	-0.156892	0.054367	-0.002300	-0.202001	0.092073	-0.084694	0.127566	0.104695	0.018161	0.093897	-0.031083	-0.186647	0.031643	0.007761	0.023656	0.031595	0.292246	-0.134467	0.059706	-0.092364	0.119676	0.181893	0.334060	-0.197662	0.114651	-0.174666	-0.003671	-0.142217	-0.000968	0.129983	0.031633	-0.223603	-0.242962	0.079737	-0.279556	-0.086905	-0.022969	0.092004	-0.063214	0.204377	0.125041	0.253021	0.249697	0.113203	0.425627	0.000400	0.085434	-0.125510	0.199432	-0.195811	0.022898	0.547870	-0.120602	-0.110282	0.014520
-0.241898	-0.275045	-0.019529	0.500192	-0.439429	0.207462	0.342497	0.225995	-0.016137	-0.446141	-0.386779	-0.015624	0.047842	-0.150762	-0.053038	-0.497807	-0.261082	0.235316	-0.011368	-0.419383	0.218269	0.517902	0.046097	0.180383	0.359083	0.301565	-0.554570	-0.179228	-0.119025	-0.109259	-0.226996	-0.135875	0.416609	-0.277000	-0.434369	0.437788	0.572414	0.389145	0.499310	-0.045783	0.414750	-0.429325	-0.113056	0.012164	0.563249	0.297319	-0.029307	-0.276000	0.056196	-0.523730	-0.554669	0.046216	0.235197	-0.149990	0.301554	0.228340	-0.027954	0.008152	0.438359	-0.001253	-0.134832	0.336156	0.173509	-0.249749	0.220745	0.181132	-0.402517	-0.158183	0.148292	0.187150	0.141172	-0.356764	0.185393	0.016543	-0.027447	-0.270136	0.365528	-0.133645	0.295343	0.407142	-0.030134	-0.129638	0.300917	-0.630927	-0.226231	0.139627	-0.030648	-0.228704	0.033159	-0.113677	-0.229843	0.198159	0.016464	0.143487	-0.679269	0.019981	-0.134394	0.243190	-0.189146	-0.145802	0.006890	-0.203541	0.149672	0.113481	-0.037210	0.030025	-0.138991	0.071352	-0.052600	0.095843	-0.067712	0.279636	0.339235	-0.262129	0.077267	0.012782	0.138746	-0.103903	-0.486749	0.247552	-0.054256	-0.001530	-0.011475	0.315206	0.105016	-0.334929	-0.083053	0.007763
0.057092	0.124201	0.233130	-0.146294	0.081813	-0.156860	0.315443	-0.048114	0.099363	0.066379	-0.242259	0.011269	-0.096180	0.133120	-0.113987	0.058005	-0.170867	-0.040799	0.041164	-0.322704	0.064359	-0.072800	0.144809	0.085322	-0.092335	0.403028	0.058793	-0.027018	0.166427	-0.210626	-0.152683	-0.379113	0.563218	0.509906	0.340706	-0.023272	0.415576	0.118729	0.510397	-0.084062	0.245354	-0.433840	0.145757	-0.045745	0.282800	-0.163926	-0.022713	-0.332439	-0.057460	-0.263743	0.003335	-0.026266	-0.019982	0.023633	-0.189915	0.342545	-0.173177	-0.056902	0.263344	-0.478874	-0.212759	-0.199571	-0.294366	-0.147006	0.070606	0.147756	-0.047461	0.206950	0.186474	-0.175968	-0.113971	0.000245	-0.143207	0.316482	0.324841	-0.142072	0.061052	-0.220730	0.323505	0.340433	0.195165	-0.268525	0.492253	-0.285443	0.397462	-0.061557	-0.090440	-0.000415	0.145223	-0.201173	0.008641	0.241540	-0.598558	0.566991	-0.023722	-0.273872	-0.147244	-0.035710	0.082564	0.152146	-0.217055	-0.526827	-0.258806	0.055714	0.044088	-0.371792	-0.264864	-0.092021	0.125094	-0.312248	0.294735	0.272328	0.158684	0.083605	0.212664	0.059636	0.184613	0.242285	0.025947	0.206610	-0.510496	-0.040482	-0.071751	-0.249650	0.162798	-0.037687	-0.268480	-0.114881
0.137399	-0.179499	0.006936	0.112348	0.164875	0.032225	-0.312001	-0.055247	-0.159841	0.431213	-0.020580	-0.153569	-0.346220	0.186612	-0.343166	-0.021932	-0.109610	-0.216489	-0.098333	0.209191	0.171946	0.151831	-0.006120	0.024524	-0.206298	0.061082	-0.074799	0.047413	0.034237	0.418849	0.219529	-0.425245	-0.207055	0.067592	0.104058	-0.011979	-0.266953	-0.174620	-0.098001	0.311234	0.145471	-0.092345	-0.193427	0.301726	-0.172493	0.018441	-0.145382	0.018858	0.142805	-0.415634	-0.052193	0.205722	-0.160219	-0.138400	-0.054534	0.007628	0.038131	0.099251	0.208305	-0.350642	0.209785	0.021163	0.186604	-0.364872	0.072523	-0.188982	-0.079467	-0.531027	0.055936	0.485996	0.075402	0.015206	-0.326631	0.172355	0.168956	-0.221700	0.005538	0.045821	0.162412	-0.042791	-0.194858	0.086632	-0.119447	-0.013401	0.240457	-0.174782	-0.003807	0.118312	-0.176758	-0.221520	-0.265175	-0.396667	0.095501	-0.185911	0.108072	-0.190171	-0.159445	-0.095991	0.109602	-0.197076	0.082948	0.076720	0.015944	0.050376	-0.354616	-0.050759	0.087591	-0.268007	-0.115898	0.187884	0.152740	-0.222948	-0.106570	0.085077	0.082878	0.159017	0.109981	0.146024	-0.252238	-0.130965	-0.275728	-0.036772	-0.030671	0.552351	-0.325883	-0.038999	-0.005281	0.487947
-0.296466	-0.081589	0.453210	0.245220	-0.028569	-0.029420	0.418953	0.048955	0.092572	0.253364	-0.441858	0.478869	0.456585	0.020638	0.214443	-0.156977	0.018134	0.630082	-0.233270	-0.117554	-0.420220	-0.213992	0.139818	-0.005126	0.094520	0.077917	-0.135892	0.044172	-0.073895	0.032574	0.155874	-0.521688	0.002753	0.077122	0.415503	-0.008619	-0.033340	-0.165916	0.351747	-0.013601	-0.197468	-0.178818	0.388725	-0.007495	-0.013589	-0.252184	0.184854	-0.170126	0.006312	-0.293815	0.322413	-0.203174	-0.202905	-0.206377	0.239427	-0.268265	-0.026306	0.352839	-0.004984	-0.315171	0.011464	-0.071144	0.319178	-0.115069	0.017373	0.504628	0.059030	0.038061	0.227521	0.192815	0.283723	0.513430	-0.229231	0.219178	0.308632	-0.122102	-0.059032	-0.085900	-0.278619	-0.059238	-0.195124	-0.080721	0.033794	-0.087498	0.346593	-0.204407	0.209605	0.143647	0.100152	0.193600	-0.049421	0.454417	-0.358449	0.231730	-0.303157	-0.271742	-0.485290	0.012052	0.361690	0.126157	0.031975	-0.223300	-0.189505	-0.281089	0.496187	0.032430	0.242305	-0.205208	0.066418	0.024292	-0.137520	0.016953	-0.464297	0.043878	-0.161231	0.255437	-0.180578	-0.017759	0.238654	-0.041639	0.265868	0.118732	0.525881	0.070549	-0.052102	0.203373	-0.371871	-0.231207
-0.301604	0.091753	0.191741	-0.114759	0.143326	0.042210	-0.002950	0.143375	0.107869	0.042584	0.374913	0.140343	-0.080314	0.644985	0.046611	0.003323	-0.129293	0.179878	0.017254	0.054651	0.016111	-0.001000	-0.293895	0.100606	-0.003354	-0.212181	0.012457	-0.406118	-0.080556	-0.178724	-0.234403	0.152027	0.452003	-0.203040	-0.350231	0.154579	-0.088689	0.150427	-0.302866	-0.311101	-0.145208	-0.127263	0.170453	-0.125848	-0.021041	-0.042817	-0.043461	-0.091578	0.249223	0.172504	0.102690	0.041640	0.071549	0.092136	-0.211731	-0.187878	0.116356	0.158185	-0.290644	-0.079935	0.214628	0.244086	0.248367	0.326792	0.012441	0.384966	0.074012	-0.556202	-0.063870	0.255128	-0.316122	0.101385	-0.082110	-0.202940	0.028741	-0.040943	-0.006448	0.164109	-0.097257	-0.074782	0.017074	0.020477	-0.125450	-0.145566	0.013435	0.089970	0.158983	-0.154041	0.163785	-0.122166	-0.147190	-0.039025	-0.160712	-0.136725	0.108419	0.179858	-0.142494	0.000941	0.158492	-0.028084	0.339768	-0.057335	0.107751	0.101681	0.010945	0.248501	0.123693	-0.095708	0.162837	0.159886	0.166011	-0.037266	0.116555	-0.214781	-0.155474	-0.049536	-0.289931	-0.597303	-0.317753	-0.401903	-0.608193	-0.208879	-0.010168	0.259155	0.238657	0.074235	0.323895	0.029868
-0.331347	-0.179190	0.219736	0.445745	-0.008996	-0.314111	-0.068564	-0.364690	-0.174635	-0.207063	-0.335476	-0.267841	0.504676	0.092077	-0.023233	0.036537	-0.125908	0.112030	0.136629	0.193410	0.139433	0.111888	-0.070394	-0.245978	0.234626	0.183595	0.264602	-0.419301	-0.249709	0.044388	-0.437884	-0.280520	0.496972	0.578373	0.289741	-0.046584	0.304127	0.082990	-0.087698	-0.184127	0.269468	-0.399141	0.256739	0.100653	0.117882	0.307565	-0.251330	-0.272919	0.010506	0.207451	0.147172	0.158005	0.340604	0.076869	-0.287451	-0.035479	-0.040112	0.000840	0.008167	-0.246792	-0.181533	0.061839	-0.223985	-0.444088	0.208902	0.327571	-0.027232	0.250101	0.110531	0.282985	-0.328446	-0.125753	-0.085030	0.253858	0.222404	-0.389284	-0.015011	-0.088790	-0.090479	0.286995	-0.283497	0.104735	0.153564	0.127606	-0.239125	0.171995	0.000860	0.195892	-0.314389	-0.022250	-0.176776	-0.327464	-0.105250	0.448850	-0.084097	0.015617	-0.275663	0.203989	-0.397443	-0.119177	0.021657	0.304007	-0.085148	0.384319	0.220297	-0.449274	0.067922	0.212089	-0.021948	0.057302	-0.220019	0.379168	0.064013	0.600941	0.289909	0.058368	-0.139512	-0.256679	0.406229	-0.135104	-0.548700	0.001231	0.373124	-0.555604	0.119664	0.134536	-0.372127	0.056951
-0.119369	0.029007	0.001554	0.325754	0.327895	0.322107	-0.033327	-0.201301	-0.429168	0.653762	0.357176	0.064306	-0.361791	-0.250617	-0.119606	-0.501459	0.020902	0.196280	-0.132030	0.273535	-0.098237	0.389351	0.330033	0.264554	0.128389	0.274000	-0.057775	-0.177508	-0.291751	0.523987	0.160341	-0.475486	0.468919	0.189313	0.116446	0.028963	0.037779	-0.026595	-0.187472	0.016526	0.164953	0.526044	-0.250175	0.093045	-0.156267	0.062813	-0.305385	0.114127	0.342684	-0.466096	0.197001	0.362090	-0.432516	0.290938	0.223452	0.245742	-0.030717	0.106546	-0.595078	-0.313093	0.228995	0.240311	0.309636	-0.055308	-0.060186	0.048063	-0.251018	-0.177157	-0.116289	0.348478	0.419183	-0.012980	-0.177163	0.201491	-0.029362	-0.214295	-0.055595	0.145562	-0.151997	-0.003558	0.044002	0.401695	0.387822	-0.117816	0.179880	-0.413786	-0.061258	-0.352268	-0.293737	0.066596	0.130726	-0.425706	0.164142	0.269083	0.102202	-0.119894	0.068762	-0.149364	0.315564	-0.169998	0.033256	-0.336458	0.257219	-0.159805	-0.154436	-0.268415	0.501093	-0.273001	0.004115	-0.290309	0.136866	0.178089	-0.282483	0.121578	-0.100019	0.314517	-0.111065	-0.104943	-0.334797	-0.245373	0.133194	-0.316548	-0.066044	0.394064	0.048388	-0.006539	0.125862	-0.077997
0.251543	-0.161887	0.373208	0.301519	0.280840	-0.249402	0.007443	0.007796	-0.019149	-0.269340	0.128894	-0.191629	-0.320557	0.007829	-0.026177	0.160540	-0.529593	-0.002172	-0.041185	0.173003	0.220404	0.292563	-0.045403	0.161991	-0.170194	0.333530	-0.275354	-0.141894	0.015534	0.271166	-0.199140	-0.416973	0.205728	0.090729	0.206165	0.081112	0.331084	-0.099674	0.228301	-0.101801	0.536029	0.244943	0.373747	-0.311660	0.002613	-0.058384	0.099965	-0.006706	-0.145713	-0.237872	-0.069316	0.247779	0.137921	0.046887	0.005468	-0.180549	-0.214814	-0.105174	-0.097968	-0.351847	-0.278896	-0.196233	-0.143337	-0.308895	-0.050541	-0.346249	-0.214842	-0.022724	0.119425	0.158037	-0.150159	-0.046122	-0.007695	0.141723	-0.269699	-0.341249	0.240370	-0.314651	0.071002	0.529120	-0.074326	0.013455	0.036498	-0.311254	-0.142326	-0.104822	-0.111222	0.202128	-0.076806	-0.205346	-0.020208	-0.760614	0.186190	0.025919	-0.400381	-0.077938	-0.143918	-0.166361	-0.282218	-0.234636	0.080653	-0.018172	0.046507	-0.061569	-0.076433	0.012003	0.101379	0.296867	-0.458431	-0.061763	0.391802	0.234107	-0.290264	0.211397	-0.103519	0.087333	0.228781	0.041622	0.238955	-0.095132	-0.455223	0.196937	-0.066832	0.008795	-0.345471	0.229875	-0.238959	0.110272
0.000471	-0.246646	0.073826	0.224128	0.323795	0.282343	0.081472	-0.127689	-0.219854	0.333750	-0.043493	0.079365	-0.306766	0.149356	-0.022522	-0.188796	-0.350591	0.052033	-0.054441	0.355917	-0.029883	0.184503	-0.223994	0.334994	0.001329	0.345666	-0.291992	-0.287131	0.025198	0.272120	0.274095	-0.372720	-0.017971	0.282436	0.257016	-0.010816	-0.019913	-0.131568	0.192681	0.163077	0.482140	0.344834	-0.373001	0.209913	0.025676	-0.266713	-0.600797	-0.187997	0.403544	-0.614230	-0.031990	0.330006	-0.218823	-0.266888	0.076985	0.171219	-0.028820	0.204579	0.113282	-0.197365	-0.107866	-0.149161	0.364481	-0.502780	0.116204	-0.260087	-0.338158	-0.029166	0.204323	0.467533	0.151764	0.028846	-0.223666	0.540080	0.401392	-0.130566	0.250666	-0.142875	0.155579	0.122872	-0.243440	0.223676	-0.165651	-0.057553	0.189747	-0.137270	0.100612	0.246460	-0.201656	0.033732	-0.160281	-0.080691	0.121050	0.063718	0.112662	-0.355102	-0.283059	0.039471	0.100011	-0.102118	0.106504	0.047110	0.326788	-0.176468	-0.198600	-0.132332	0.394099	-0.312633	0.312509	-0.360723	0.089762	-0.123336	-0.203336	0.093525	-0.072253	0.434815	0.257679	0.049745	-0.204730	-0.103720	0.018603	-0.003700	0.015374	0.652120	-0.303290	0.017838	-0.258046	0.088190
-0.003786	-0.119073	-0.436024	0.330749	-0.149552	-0.491453	-0.189011	-0.117514	-0.283654	-0.362600	0.064781	0.009315	0.187038	0.445088	-0.365799	0.257405	-0.031383	0.126224	0.034150	0.266037	0.080497	-0.533828	-0.051229	0.010007	-0.301392	-0.126965	0.147194	0.065288	0.247745	-0.024821	0.005215	-0.465944	0.085139	-0.181559	-0.224730	-0.188851	0.010029	0.140779	0.248346	0.021357	0.070456	0.067842	-0.069826	-0.171174	0.000420	0.160316	0.113131	0.339442	-0.404314	0.198646	-0.023295	0.264165	0.038201	-0.164721	0.187992	-0.004905	0.168788	0.222941	-0.079087	-0.069593	0.224294	0.438146	0.065051	0.174925	0.322917	-0.299764	-0.524927	-0.186206	-0.034570	-0.424904	0.057383	-0.290297	0.141752	-0.200539	-0.048734	0.103091	0.209916	-0.104410	-0.242734	0.107855	0.013144	-0.353952	-0.161474	-0.301119	0.183588	-0.092259	0.124747	0.046242	-0.090482	0.016024	0.027849	-0.231164	0.010539	0.236597	-0.185001	0.164089	0.030505	-0.113941	0.054235	-0.253658	0.250922	0.109208	-0.354473	0.176714	-0.641026	0.049088	-0.308660	-0.313719	0.114322	0.266298	-0.332338	-0.083862	-0.120883	0.127780	0.252822	0.172246	0.700288	0.424646	0.227536	-0.298725	0.049240	0.217589	-0.154773	0.484484	-0.018957	-0.099081	0.160778	0.084449
0.132324	-0.286613	0.036050	0.134898	0.139580	0.097044	-0.041621	-0.156050	-0.293914	0.389526	-0.019513	-0.097607	-0.363053	0.160926	-0.239716	-0.074015	-0.345810	-0.075893	0.036200	0.351454	-0.007561	0.207562	-0.192278	0.280342	0.019574	0.139973	0.000080	-0.264785	-0.025867	0.308059	0.281582	-0.432617	-0.010777	0.179565	0.179980	-0.057160	0.049241	-0.119864	-0.036191	0.190086	0.412502	0.119678	-0.214406	0.222605	0.077444	-0.091543	-0.368466	0.092647	0.177401	-0.569736	0.064023	0.166504	-0.039797	-0.170852	0.222434	0.096021	-0.053399	0.104363	0.192057	-0.282857	-0.062411	-0.097801	0.287768	-0.563441	0.152578	-0.115583	-0.201202	-0.406414	0.245448	0.515617	0.173697	0.094418	-0.086695	0.411170	0.131413	-0.220785	0.152301	0.077452	0.257976	0.036266	-0.280804	0.314521	-0.174781	0.018816	0.217358	-0.174500	0.080252	0.402915	-0.297913	-0.083239	-0.022330	-0.406425	0.093126	-0.076879	0.080576	-0.332473	-0.144836	-0.252027	0.132547	-0.104053	0.041918	0.049872	0.331142	-0.136952	-0.274991	-0.134818	0.271881	-0.432861	0.175701	-0.258128	0.049181	-0.126433	-0.002026	0.116140	0.020045	0.353555	0.232921	0.111922	-0.306275	-0.033442	-0.178227	0.059127	-0.092318	0.555777	-0.243887	0.061458	-0.184213	0.273070
-0.065080	-0.263874	0.089929	0.140124	0.253233	0.348234	-0.003649	-0.199137	-0.371746	0.272279	0.104781	0.043632	-0.499178	0.147153	0.038632	-0.061680	-0.418378	-0.106292	0.021545	0.267050	0.098329	0.217966	-0.191421	0.253201	0.073765	0.110653	-0.279188	-0.245497	-0.032854	0.494953	0.252233	-0.424125	-0.020613	0.277625	0.219622	-0.161398	-0.011409	-0.064343	0.333652	0.225046	0.406542	0.298023	-0.518074	0.194478	0.033873	-0.368985	-0.438047	0.045719	0.467725	-0.516362	0.136915	0.427962	-0.224164	-0.317657	0.277331	0.096022	-0.099039	0.219571	0.154870	-0.134143	-0.039240	-0.035245	0.380037	-0.351303	0.033162	-0.253277	-0.390417	-0.398306	0.187373	0.563896	0.120959	-0.012438	-0.110378	0.556585	0.199187	-0.242856	0.090023	-0.149795	0.336078	0.043873	-0.245441	0.287719	-0.240722	-0.020958	0.204229	-0.132813	0.094270	0.465644	-0.247491	-0.073376	0.035532	-0.168339	0.095538	0.060697	0.068314	-0.309273	-0.213729	-0.105532	-0.010031	0.012204	0.306537	0.075354	0.452797	-0.292045	-0.234111	-0.332981	0.445687	-0.524098	0.044030	-0.319681	0.094902	-0.111179	-0.164500	0.162156	-0.046123	0.350283	0.135735	0.116546	-0.315394	0.094628	-0.099426	0.099202	0.052593	0.517394	-0.355665	-0.042444	-0.183981	0.084551
0.056670	-0.232799	0.128033	0.174320	0.175047	0.245489	-0.128541	-0.161330	-0.335285	0.234017	0.055091	0.113470	-0.458935	0.178156	-0.153066	-0.062529	-0.312273	0.035810	0.067344	0.379684	-0.036449	0.244226	-0.210755	0.256646	0.044415	0.127719	-0.071238	-0.211685	-0.076048	0.308926	0.283930	-0.362553	0.008549	0.263332	0.175629	-0.157613	-0.087869	-0.018361	0.178844	0.220721	0.446691	0.243734	-0.393521	0.146619	0.160039	-0.184319	-0.398800	-0.026229	0.270661	-0.473399	0.114930	0.249264	0.024265	-0.182740	0.246130	0.035841	-0.152260	0.093788	0.159934	-0.262817	-0.009303	-0.100344	0.336722	-0.494107	-0.013051	-0.310241	-0.368560	-0.356682	0.165561	0.414502	0.000009	-0.072881	-0.084629	0.459250	0.286027	-0.235043	0.104294	-0.059144	0.198405	-0.095243	-0.309794	0.178576	-0.137082	-0.015633	0.299554	-0.131291	0.039936	0.344769	-0.384885	-0.127261	-0.094028	-0.294074	0.057416	-0.062459	-0.022004	-0.290642	-0.127819	-0.040570	-0.006659	-0.082949	0.120238	-0.033780	0.277166	-0.202371	-0.148603	-0.116395	0.268646	-0.300947	0.162033	-0.280476	0.179232	-0.075141	-0.038184	0.188916	0.101085	0.366275	0.150409	0.211451	-0.400769	0.033057	-0.125905	-0.082304	0.033271	0.487669	-0.373082	0.031429	-0.092589	0.088512
-0.154350	-0.308707	0.365147	0.341094	0.286765	0.312631	0.040583	-0.181826	0.005522	0.236048	0.196294	-0.035700	-0.485001	0.080309	0.019918	0.098096	-0.634754	-0.115603	0.289904	0.082300	-0.079695	0.262365	-0.050892	0.269726	0.051618	0.051543	-0.163481	-0.420731	-0.133866	0.244051	0.206934	-0.260495	-0.046091	0.448121	0.392363	-0.077928	0.011114	-0.113346	0.138212	0.099479	0.352686	-0.057184	-0.520276	0.054128	0.068112	0.011136	-0.421340	0.042627	0.014802	-0.369062	0.324095	0.412463	-0.077115	-0.105011	0.182605	0.091430	-0.180341	0.144220	0.271825	-0.330128	0.118834	0.017537	0.428468	-0.555255	-0.121652	-0.426169	-0.721801	-0.377939	0.014996	0.506518	0.182593	-0.126627	-0.259380	0.502661	0.287191	-0.229866	0.099959	0.166823	0.168615	-0.102179	-0.197673	0.273671	-0.181598	-0.043957	0.035996	-0.308911	-0.034691	0.325144	-0.408953	0.016657	0.008139	-0.175529	0.058919	-0.233552	0.170552	-0.033131	-0.097234	0.174387	0.031902	-0.087444	0.061048	0.113206	0.176924	-0.143206	-0.033863	-0.349469	0.328422	-0.346802	0.372451	-0.234483	0.222326	-0.370985	-0.023805	0.021365	0.263924	0.263116	-0.042663	-0.082413	-0.422025	0.136653	0.034571	-0.046655	0.001575	0.683768	-0.197856	0.164389	0.060670	0.122292
0.009022	-0.268971	0.203127	0.216908	0.143359	0.167005	0.034039	0.010886	-0.097884	0.222112	0.149494	0.002152	-0.464880	0.054297	-0.153690	-0.004352	-0.308311	-0.127674	0.101717	0.240544	-0.098026	0.239415	-0.157352	0.373826	0.122223	0.085201	-0.129490	-0.119694	-0.032845	0.357056	0.289388	-0.457773	0.051416	0.333773	0.260868	-0.091409	-0.099307	-0.107817	0.114805	0.147882	0.322499	0.163762	-0.360618	0.179397	0.104032	-0.057191	-0.425356	0.070562	0.162772	-0.333161	0.184317	0.279244	0.016227	-0.156692	0.237853	0.118625	-0.142850	0.022315	0.171140	-0.359467	0.034595	-0.054234	0.345572	-0.442252	0.053240	-0.272420	-0.343643	-0.369858	0.237535	0.496931	0.165399	-0.034751	-0.114188	0.440092	0.067140	-0.122867	-0.027774	0.128084	0.240933	-0.048997	-0.171835	0.248241	-0.084872	-0.041816	0.017121	-0.124735	0.048184	0.331295	-0.322798	-0.057616	-0.085849	-0.295800	-0.068541	-0.179470	0.178193	-0.212037	-0.110424	-0.008826	-0.061662	-0.239866	-0.049707	0.027935	0.253616	-0.214473	-0.169189	-0.186999	0.239899	-0.418903	0.160580	-0.080507	0.205977	-0.049271	0.037122	0.211729	0.160450	0.268455	0.182408	0.166757	-0.351537	0.025680	-0.132467	0.035266	-0.144534	0.444311	-0.285754	0.100076	-0.238558	0.115714
0.088778	-0.295103	0.143732	0.148418	0.238808	0.177289	-0.043244	-0.029532	-0.248402	0.208430	0.024918	-0.013916	-0.538701	0.171215	-0.214762	-0.019650	-0.236259	-0.235594	0.059041	0.303390	-0.092367	0.161845	-0.217516	0.151466	0.077554	0.129202	-0.216568	-0.312108	-0.034361	0.346784	0.341307	-0.231784	0.104270	0.295143	0.255509	-0.169521	0.026374	0.041480	0.164711	0.093323	0.428880	0.243751	-0.422284	0.058181	0.022521	-0.164959	-0.479567	0.078079	0.193537	-0.509026	0.206245	0.494747	-0.156530	-0.339770	0.148421	0.044989	-0.104413	-0.029149	0.166255	-0.330711	-0.107200	-0.065138	0.269152	-0.493211	0.122549	-0.162626	-0.493012	-0.220242	0.151859	0.438070	0.228589	0.083509	-0.130356	0.525250	0.063104	-0.168718	0.098451	0.119480	0.186619	-0.003430	-0.199109	0.239066	-0.290678	-0.163969	0.163355	-0.236164	0.018541	0.256943	-0.149418	-0.074708	-0.120930	-0.270758	0.052166	0.023664	0.152216	-0.179238	-0.072447	0.056483	-0.062435	-0.038709	0.093029	0.042777	0.283548	-0.163224	-0.175517	-0.145177	0.259851	-0.344405	0.180464	-0.168624	0.214845	-0.126250	0.002684	0.252384	0.038350	0.278593	0.196942	0.076350	-0.265994	-0.209786	-0.087001	0.141681	0.040971	0.471817	-0.260862	0.091907	-0.213615	-0.043393
0.181615	-0.367700	0.143805	0.118520	0.185061	0.210194	-0.154717	-0.030839	-0.202580	0.148596	-0.054937	0.116413	-0.477490	0.017105	-0.195830	0.024220	-0.282210	-0.089325	0.086065	0.223630	-0.038410	0.236585	-0.181039	0.312604	0.013382	0.025862	-0.080719	-0.140542	-0.011950	0.436791	0.293989	-0.340797	-0.151431	0.238939	0.236386	-0.142972	-0.097388	-0.142354	0.093141	0.126715	0.323203	0.144205	-0.463499	0.183754	0.104122	-0.143960	-0.444867	-0.050203	0.219986	-0.417719	0.081631	0.183939	-0.146628	-0.187022	0.219230	0.095672	-0.242429	0.013503	0.114938	-0.436484	-0.033604	-0.046090	0.398242	-0.539210	0.040794	-0.207852	-0.406284	-0.367834	0.193246	0.513244	0.079889	0.088726	-0.267371	0.534497	0.116673	-0.032981	0.047807	0.015532	0.184692	-0.074207	-0.198496	0.147571	-0.119119	-0.045996	0.143334	-0.245896	0.084019	0.329464	-0.356797	-0.030898	-0.046931	-0.317119	0.027560	-0.112426	0.147624	-0.268824	-0.096347	0.002415	0.054148	-0.203716	0.041582	-0.034980	0.273727	-0.200121	-0.188471	-0.077467	0.300791	-0.447317	0.173700	-0.148009	0.065347	-0.010531	0.182065	0.189737	0.164768	0.319905	0.125418	0.049704	-0.225959	-0.004856	-0.157129	0.026149	0.008538	0.409097	-0.290043	0.079702	-0.339841	0.076161
0.099972	-0.182640	-0.014401	0.191499	0.011686	0.131105	0.056279	-0.153532	-0.174518	-0.086813	0.065907	0.140789	0.032301	-0.072825	-0.182507	-0.133444	-0.265139	0.083119	-0.269250	-0.101732	-0.216173	-0.127741	0.142321	0.044580	-0.128773	0.091306	-0.145238	0.148766	-0.068687	-0.209782	0.257734	-0.033995	0.113878	-0.021724	-0.011776	0.050707	0.044236	-0.285344	-0.002903	0.077171	0.144665	0.132500	0.099822	0.063262	0.247798	0.128534	-0.100856	0.132411	-0.201653	0.119712	0.265514	0.264321	-0.015986	-0.038741	0.093906	0.078301	-0.007256	-0.218655	0.128812	-0.203372	0.198688	0.094714	-0.121411	0.100488	-0.135333	0.149730	-0.009587	0.226125	0.039427	-0.163655	0.066015	0.126365	0.103337	0.126699	-0.067554	-0.083899	0.183386	0.011183	-0.039196	0.305462	0.011179	-0.306851	0.004429	0.053850	-0.153118	-0.037020	-0.183499	-0.100361	-0.027618	-0.130374	-0.176751	-0.165671	-0.026869	0.089046	0.006799	0.186905	0.189241	0.381762	-0.114347	0.016527	0.030020	-0.149255	-0.054113	-0.083234	-0.075260	0.055680	-0.015169	0.110376	0.307910	-0.038817	-0.051979	-0.113292	0.020863	0.142358	0.014762	-0.195199	-0.183209	-0.191009	0.151396	-0.141658	-0.260604	0.006634	-0.060528	0.073719	0.086439	0.075882	0.172907	-0.020089
0.204333	-0.032311	0.480510	0.209703	0.043170	0.045809	-0.141086	-0.060070	-0.073049	-0.108691	-0.025406	0.159673	0.013226	0.259915	-0.294930	0.314752	-0.048378	0.067741	0.266426	0.088863	-0.021756	0.070170	0.034299	0.359878	-0.116183	0.246940	-0.103597	-0.047060	-0.438959	-0.075977	-0.333952	-0.210528	0.023449	0.385372	-0.017567	0.076297	0.262759	0.027898	0.082041	-0.019884	0.253903	-0.036739	0.164411	-0.096428	0.252020	0.263496	-0.279561	-0.039087	-0.040261	0.157935	-0.029108	0.085896	0.233131	0.153949	-0.019700	-0.040412	-0.139770	0.168780	0.198808	-0.297261	-0.127343	-0.258222	-0.133667	-0.202034	-0.005376	0.112884	0.045104	-0.071620	0.145783	-0.089053	-0.002526	-0.088174	0.013267	0.127577	-0.149417	-0.279425	0.104044	-0.326778	0.300215	0.150775	-0.007512	-0.014919	0.104754	-0.250410	0.259476	0.072004	-0.085433	0.401462	-0.177582	-0.323791	0.077486	-0.066391	-0.200065	0.065123	-0.310950	-0.125348	-0.227975	0.066159	-0.227320	-0.083729	-0.262563	0.047817	-0.348748	0.058114	-0.128915	-0.095773	-0.009346	0.092640	0.044328	-0.078502	0.111755	0.205413	0.089180	0.326070	0.232916	0.005283	0.315274	0.247075	0.296844	-0.083678	-0.236947	0.050900	0.128449	-0.245246	-0.058229	0.034918	-0.095212	-0.155380
0.064743	0.277401	0.155943	-0.265066	-0.051985	0.208635	-0.200560	0.084301	0.011108	0.221129	0.268098	-0.379691	0.173193	0.393628	-0.098426	0.091682	0.166964	0.273747	0.484170	0.340586	-0.014518	0.237211	0.525981	0.109157	0.256453	-0.270242	0.408397	0.018181	0.379050	-0.150950	-0.233128	-0.112498	0.017735	-0.020456	-0.133555	-0.040470	0.498233	-0.223505	0.025764	-0.261357	0.232940	-0.142786	0.652058	-0.186102	-0.550221	0.259965	0.105466	-0.317966	0.029452	0.064330	0.052160	-0.078483	-0.125340	0.009389	-0.120048	0.389273	0.023086	0.173648	0.218166	0.324841	-0.481511	0.396495	0.379639	-0.390211	0.330924	0.517101	0.465275	0.196661	0.120806	0.282768	0.007298	0.182715	-0.042912	-0.180272	-0.018386	-0.008222	0.153571	-0.325233	0.209150	0.630836	0.053169	-0.313720	0.032233	-0.116457	0.255390	0.443730	-0.526048	0.294926	0.140317	-0.339098	0.278735	-0.329380	-0.032235	0.494235	-0.289912	-0.426721	-0.102665	0.184265	-0.031138	0.705759	0.315693	-0.347875	-0.319782	-0.307890	0.453640	-0.395980	0.138895	-0.146186	-0.434136	-0.068733	-0.028642	0.369724	0.260872	-0.312990	-0.340957	-0.149874	0.093805	0.026246	0.214078	0.001116	-0.035634	-0.191800	0.067823	-0.394644	0.135821	0.257966	-0.035459	-0.127752
-0.374610	0.077217	0.148133	0.110222	0.229222	0.119136	0.315209	-0.308629	0.082850	0.333483	-0.471461	0.523690	0.886600	0.598570	0.146689	-0.004789	0.188518	0.417342	-0.200682	-0.265849	-0.271868	0.072420	0.307433	-0.195082	0.229007	0.337657	0.336637	-0.030936	-0.121977	-0.227850	-0.315267	-0.621284	-0.066033	0.549801	0.074673	-0.066948	0.110796	-0.074339	0.119704	0.059082	-0.005495	-0.462254	0.091726	-0.300412	0.167972	0.070600	-0.082604	-0.191264	0.325595	-0.274467	0.236221	0.122366	0.355316	0.160905	0.157403	-0.156050	-0.128122	0.863139	0.161080	-0.559406	-0.272388	0.071752	0.049237	-0.434549	-0.032147	0.082596	0.039163	-0.474785	0.040267	0.327652	0.106795	-0.005421	-0.244274	0.127861	0.630334	-0.277434	0.064442	-0.287878	-0.304630	0.113473	-0.154228	-0.073692	0.384042	0.079507	0.323529	0.087801	-0.080623	0.471260	-0.204332	-0.156407	-0.461091	0.688632	-0.359878	0.109650	-0.062073	-0.167847	-0.617368	-0.037759	-0.071300	-0.056777	-0.027906	-0.251558	-0.324317	0.348881	-0.040833	-0.084574	0.329245	-0.041129	0.522647	0.209764	-0.371634	-0.119589	-0.255039	0.505185	0.138668	0.365857	0.297653	-0.136158	0.405962	-0.003222	-0.233420	-0.093286	0.672076	0.098543	0.030921	-0.034074	-0.372337	-0.118367
-0.225299	-0.047412	0.134350	-0.019482	0.090813	0.034541	0.051455	0.096022	0.172930	0.058089	0.333492	0.305747	-0.144995	0.513604	-0.046257	-0.095805	-0.159192	0.180748	0.017129	0.167526	-0.042122	0.144666	-0.243833	-0.024811	0.077390	-0.305914	-0.057853	-0.380141	-0.077708	0.062315	-0.377531	0.156142	0.423616	-0.185951	-0.146056	0.087206	0.006944	0.176400	-0.206586	-0.378162	-0.151134	-0.105030	0.364963	-0.023896	0.000325	0.039200	0.031693	-0.092134	0.242481	0.299244	0.124911	0.094489	0.162196	0.278782	-0.156185	-0.133996	0.103708	-0.005071	-0.269312	-0.178794	0.267420	0.223319	0.146604	0.356008	-0.043996	0.213126	-0.135509	-0.537582	0.054426	0.201271	-0.396187	0.039708	-0.103963	-0.172119	0.058808	0.008847	0.048883	0.179660	-0.050844	-0.184132	-0.055759	-0.033364	-0.273572	-0.234442	-0.162912	0.025064	0.093565	-0.276054	0.095145	-0.315840	-0.110149	-0.064733	-0.124203	-0.256434	0.119855	0.298241	0.093354	-0.285352	0.170990	-0.008696	0.377707	0.089846	0.088501	0.125323	-0.076805	0.267500	0.260859	-0.067568	0.051570	0.143752	0.068775	-0.014591	0.048341	-0.217626	-0.170919	-0.138651	-0.318283	-0.548531	-0.073486	-0.453892	-0.740444	-0.340372	0.177980	0.040371	0.215350	-0.017566	0.317098	-0.076112
0.027283	0.097753	0.063411	0.080584	-0.197479	-0.072715	-0.083838	-0.239278	-0.038628	-0.001307	0.076757	-0.209926	-0.131605	-0.043873	0.018363	-0.032585	-0.011720	0.270757	0.067878	0.024399	-0.330322	0.061137	-0.017413	0.066492	0.306029	0.507870	-0.155096	0.034796	-0.165684	-0.321758	-0.260094	-0.203322	0.092675	0.309878	-0.045812	0.221593	-0.045308	-0.067736	0.091021	0.172812	-0.006949	0.074986	0.051740	0.075922	-0.054121	0.317713	0.199921	-0.148002	0.018660	-0.079042	-0.194813	-0.157960	0.079737	0.283101	0.078126	0.279774	0.048509	0.070959	0.076236	-0.137546	-0.152639	0.214119	-0.153234	-0.018896	0.050260	0.148586	0.349207	0.160644	0.404824	-0.246283	0.181810	0.082691	0.067199	0.370648	0.252839	0.094559	0.181083	-0.267282	0.065932	0.131873	0.158275	0.044598	0.176777	-0.090186	0.169411	-0.125706	-0.033262	0.028423	0.186777	0.111912	-0.109389	0.098558	-0.055290	0.394828	-0.130446	0.132925	-0.171408	0.096477	-0.122504	0.288123	-0.019630	-0.434116	-0.029905	-0.118563	-0.006733	-0.283159	-0.413869	0.001520	0.204098	0.065616	-0.417082	0.114679	0.176875	0.080647	-0.295961	0.160896	0.201887	0.217476	-0.124405	-0.156847	-0.074749	-0.036279	0.245671	-0.260436	0.463603	0.004838	0.084359	-0.036918
0.251821	-0.101033	-0.185342	-0.220551	-0.070614	0.289129	0.253657	-0.389028	-0.198696	0.049169	-0.088484	0.079736	-0.467330	-0.088106	-0.069290	0.060540	-0.006713	-0.529273	-0.039313	0.216013	0.185462	0.024062	-0.376211	-0.119959	0.149917	-0.192929	-0.592974	-0.340599	0.019154	0.028350	0.161390	-0.035419	-0.335975	0.091614	-0.050671	0.082615	0.038872	-0.269574	-0.064763	-0.293855	-0.058100	0.039351	-0.335300	0.177078	-0.346557	0.181684	-0.134459	-0.170813	0.093574	-0.084914	0.460869	-0.213704	-0.128869	0.188452	-0.038062	0.229995	0.024318	-0.182989	0.065621	0.356210	-0.081034	0.156932	0.053297	0.043566	0.054049	0.133380	0.005791	-0.257744	0.246892	0.370683	-0.104553	0.182582	-0.065108	-0.034313	-0.569009	-0.262960	0.251838	-0.109644	0.155491	-0.063414	0.106858	0.115761	-0.336245	-0.104005	0.037901	0.113595	-0.174697	0.209671	-0.127571	0.406151	-0.084284	0.116220	0.562795	0.604684	-0.092743	-0.024922	0.185511	0.007403	-0.224356	-0.112903	-0.085117	0.156991	-0.048230	-0.168633	0.061642	0.111473	0.312249	-0.263113	-0.075864	-0.189814	-0.017033	-0.409407	0.109186	-0.593515	-0.167059	0.407510	0.021572	0.057253	0.160228	0.315095	0.113628	-0.147924	-0.239860	0.060173	-0.160382	-0.191543	-0.068417	0.225133
0.064829	-0.051032	0.343892	0.456828	-0.012636	-0.462296	-0.035127	-0.136856	-0.223782	0.028019	0.046616	-0.193495	0.187979	0.200545	-0.211886	0.629263	-0.034125	0.132024	0.327806	0.200552	0.231039	0.052994	-0.030739	0.165205	-0.048850	0.233729	-0.051038	0.072928	-0.068989	0.085182	-0.196825	-0.322195	0.308251	0.400063	0.114011	0.148443	-0.002094	0.041999	0.120595	-0.008678	0.192548	0.115421	0.189427	0.078682	0.178565	0.209338	-0.052583	-0.180966	-0.080349	-0.022507	0.029186	0.133070	0.178779	0.026559	-0.130763	-0.206364	0.033658	0.003748	-0.078188	-0.110633	-0.162883	-0.101965	-0.281130	-0.413277	0.187823	-0.083185	0.164676	-0.015107	0.130564	-0.090256	-0.010812	-0.226158	0.315357	0.073209	0.229803	-0.192990	-0.116180	-0.224300	0.342497	0.261829	0.109753	-0.108061	-0.041149	-0.105084	-0.051505	-0.321285	0.066606	0.491321	-0.237841	-0.164497	0.010684	-0.055242	-0.323521	0.053694	-0.180022	-0.130761	-0.345353	0.008854	-0.271129	-0.047755	-0.019285	0.065026	-0.138515	0.060044	0.159005	-0.210425	0.070250	0.160600	0.197537	-0.066204	-0.025232	0.068018	-0.026477	0.169117	0.390177	0.215460	0.478694	0.194648	-0.025283	-0.114108	-0.124664	0.177487	-0.043044	-0.308575	-0.120464	0.235930	-0.203338	-0.120117
-0.225684	0.128800	-0.317210	-0.006054	0.188648	-0.052497	-0.145062	0.216806	-0.040082	-0.076926	0.016775	-0.350507	-0.406630	0.166176	0.190549	-0.404547	0.069787	0.557086	0.073993	-0.211899	-0.168691	0.001431	-0.103256	0.150132	0.392776	0.119102	0.251555	0.029901	-0.107509	0.196738	0.022150	-0.412371	0.178007	-0.025525	-0.029708	0.244591	-0.190840	-0.221168	-0.062296	-0.035037	-0.225432	-0.102577	-0.110945	-0.052262	0.057694	0.513425	0.376399	0.150025	0.156042	0.241116	-0.039535	-0.025893	0.091092	0.055247	0.315435	0.084612	0.308960	0.204871	-0.170024	-0.364386	-0.199025	0.224739	-0.108313	0.194520	0.161999	0.379929	-0.235034	0.150084	0.270404	-0.260257	-0.331125	0.213460	-0.116391	-0.082419	-0.035898	0.543645	0.237911	-0.238867	-0.069558	0.059361	0.109008	-0.077625	0.173152	0.043477	0.432156	-0.056334	-0.060690	-0.111129	0.100510	0.016480	-0.215192	-0.238915	-0.013695	0.308538	-0.133312	-0.184830	-0.021961	-0.232217	0.247400	0.338827	0.228149	-0.164046	-0.273000	-0.435143	-0.395449	-0.012512	-0.197775	0.240455	0.074236	0.627967	-0.151559	0.156516	0.032747	0.054742	-0.190375	0.040363	0.028154	0.130322	-0.025878	0.002962	0.106988	0.244532	0.139958	-0.022744	0.156684	0.254400	-0.087876	0.290084
-0.123119	0.297133	0.066492	0.004791	0.119307	0.075257	0.409104	0.128740	0.465989	0.124566	0.372269	0.066210	0.023584	0.343555	0.060435	0.209699	-0.398603	0.049407	-0.293578	-0.081171	0.030177	-0.089884	-0.200317	0.387513	0.060318	-0.430650	-0.042008	-0.010224	-0.268675	-0.397717	-0.212227	0.083949	0.609554	-0.027609	-0.570502	0.228693	0.469176	-0.370879	-0.103226	-0.120979	-0.143715	0.102271	0.445630	-0.280762	-0.151590	0.124555	0.056797	-0.330723	0.102341	-0.302365	-0.105801	0.042860	-0.082846	0.015019	0.166085	-0.174502	-0.108843	0.250935	-0.379226	0.191318	0.347079	-0.023350	-0.001368	0.061267	-0.235825	0.237807	-0.075210	-0.229373	-0.041673	-0.143765	-0.090175	0.203037	-0.096643	-0.120283	-0.191312	-0.107025	0.198573	-0.001373	0.290147	0.292668	0.279152	-0.382017	-0.140584	-0.118988	-0.233585	-0.169765	-0.011465	0.117806	-0.007641	-0.134798	0.013456	0.295264	-0.190486	-0.553810	0.334269	-0.017296	0.083451	0.299591	-0.080009	-0.034119	0.232980	-0.203140	-0.063698	-0.119033	0.067162	0.093255	0.032317	0.363390	0.250555	0.322095	-0.357433	0.101416	-0.122683	-0.185839	-0.639128	0.091445	-0.331152	-0.425906	0.006379	-0.417758	-0.366032	-0.385052	0.425695	0.188917	-0.131456	0.229133	-0.057816	-0.078099
